{"learner":{"attributes":{"scikit_learn":"{\"_estimator_type\": \"regressor\"}"},"feature_names":[],"feature_types":[],"gradient_booster":{"model":{"cats":{"enc":[],"feature_segments":[],"sorted_idx":[]},"gbtree_model_param":{"num_parallel_tree":"1","num_trees":"250"},"iteration_indptr":[0,1,2,3,4,5,6,7,8,9,10,11,12,13,14,15,16,17,18,19,20,21,22,23,24,25,26,27,28,29,30,31,32,33,34,35,36,37,38,39,40,41,42,43,44,45,46,47,48,49,50,51,52,53,54,55,56,57,58,59,60,61,62,63,64,65,66,67,68,69,70,71,72,73,74,75,76,77,78,79,80,81,82,83,84,85,86,87,88,89,90,91,92,93,94,95,96,97,98,99,100,101,102,103,104,105,106,107,108,109,110,111,112,113,114,115,116,117,118,119,120,121,122,123,124,125,126,127,128,129,130,131,132,133,134,135,136,137,138,139,140,141,142,143,144,145,146,147,148,149,150,151,152,153,154,155,156,157,158,159,160,161,162,163,164,165,166,167,168,169,170,171,172,173,174,175,176,177,178,179,180,181,182,183,184,185,186,187,188,189,190,191,192,193,194,195,196,197,198,199,200,201,202,203,204,205,206,207,208,209,210,211,212,213,214,215,216,217,218,219,220,221,222,223,224,225,226,227,228,229,230,231,232,233,234,235,236,237,238,239,240,241,242,243,244,245,246,247,248,249,250],"tree_info":[0,0,0,0,0,0,0,0,0,0,0,0,0,0,0,0,0,0,0,0,0,0,0,0,0,0,0,0,0,0,0,0,0,0,0,0,0,0,0,0,0,0,0,0,0,0,0,0,0,0,0,0,0,0,0,0,0,0,0,0,0,0,0,0,0,0,0,0,0,0,0,0,0,0,0,0,0,0,0,0,0,0,0,0,0,0,0,0,0,0,0,0,0,0,0,0,0,0,0,0,0,0,0,0,0,0,0,0,0,0,0,0,0,0,0,0,0,0,0,0,0,0,0,0,0,0,0,0,0,0,0,0,0,0,0,0,0,0,0,0,0,0,0,0,0,0,0,0,0,0,0,0,0,0,0,0,0,0,0,0,0,0,0,0,0,0,0,0,0,0,0,0,0,0,0,0,0,0,0,0,0,0,0,0,0,0,0,0,0,0,0,0,0,0,0,0,0,0,0,0,0,0,0,0,0,0,0,0,0,0,0,0,0,0,0,0,0,0,0,0,0,0,0,0,0,0,0,0,0,0,0,0,0,0,0,0,0,0,0,0,0,0,0,0,0,0,0,0,0,0],"trees":[{"base_weights":[-4.5186533E-3,4.4887832E-1,-8.365097E-1,1.1080812E-1,7.4364495E-1,-3.8335818E-1,-1.0342585E0,3.3895457E-1,-2.2411622E-1,4.1266227E-1,8.540543E-1,6.6311546E-2,-5.097525E-1,-1.1174005E0,-8.313842E-1,4.985578E-1,3.8638756E-2,-4.319106E-1,-5.346465E-3,1.8360361E-2,5.618328E-1,6.5366846E-1,9.7646093E-1,-2.1463121E-1,3.5702366E-1,-5.550628E-1,4.5007026E-1,-9.8091215E-1,-1.1585833E0,-1.1111864E0,-7.083608E-1,8.92005E-3,2.034267E-2,-6.095787E-3,7.333001E-3,-1.6033566E-2,-3.807339E-3,4.6141944E-3,-1.0573024E-2,7.033474E-3,-9.440957E-3,2.2189181E-2,1.0445109E-2,2.4274036E-2,1.3137778E-2,3.207299E-2,2.2998802E-2,-1.0251381E-2,1.1813361E-2,-1.9755317E-2,1.3793491E-2,-8.183769E-3,-2.0294376E-2,1.9835936E-2,-1.4037201E-2,-2.9783243E-2,-1.0745189E-3,-1.7949745E-2,-3.5007294E-2,-1.4322683E-2,-3.389116E-2,-1.2992897E-2,-2.4795637E-2],"categories":[],"categories_nodes":[],"categories_segments":[],"categories_sizes":[],"default_left":[0,0,0,0,0,0,0,0,0,0,0,0,0,0,0,0,0,0,0,0,0,0,0,0,0,0,0,0,0,0,0,0,0,0,0,0,0,0,0,0,0,0,0,0,0,0,0,0,0,0,0,0,0,0,0,0,0,0,0,0,0,0,0],"id":0,"left_children":[1,3,5,7,9,11,13,15,17,19,21,23,25,27,29,31,33,35,37,39,41,43,45,47,49,51,53,55,57,59,61,-1,-1,-1,-1,-1,-1,-1,-1,-1,-1,-1,-1,-1,-1,-1,-1,-1,-1,-1,-1,-1,-1,-1,-1,-1,-1,-1,-1,-1,-1,-1,-1],"loss_changes":[4.4402812E3,7.591648E2,3.716648E2,2.7133786E2,1.4838013E2,7.181732E1,4.7818115E1,1.0121181E2,6.541337E1,5.998427E1,7.419824E1,2.278185E1,4.31308E1,1.0369629E1,2.8265198E1,4.9615814E1,3.657913E1,2.3013199E1,3.8832703E1,2.0297432E1,2.78555E1,3.8552795E1,3.595862E1,1.1113667E1,1.4599497E1,3.2099945E1,9.030843E0,5.3570557E0,6.6115723E0,2.46521E0,1.8799469E1,0E0,0E0,0E0,0E0,0E0,0E0,0E0,0E0,0E0,0E0,0E0,0E0,0E0,0E0,0E0,0E0,0E0,0E0,0E0,0E0,0E0,0E0,0E0,0E0,0E0,0E0,0E0,0E0,0E0,0E0,0E0,0E0],"parents":[2147483647,0,0,1,1,2,2,3,3,4,4,5,5,6,6,7,7,8,8,9,9,10,10,11,11,12,12,13,13,14,14,15,15,16,16,17,17,18,18,19,19,20,20,21,21,22,22,23,23,24,24,25,25,26,26,27,27,28,28,29,29,30,30],"right_children":[2,4,6,8,10,12,14,16,18,20,22,24,26,28,30,32,34,36,38,40,42,44,46,48,50,52,54,56,58,60,62,-1,-1,-1,-1,-1,-1,-1,-1,-1,-1,-1,-1,-1,-1,-1,-1,-1,-1,-1,-1,-1,-1,-1,-1,-1,-1,-1,-1,-1,-1,-1,-1],"split_conditions":[5.25426E0,4.8061666E0,6.301487E0,4.3561163E0,3.4021778E0,5.638697E0,4.3016567E0,4.6977997E0,4.381216E0,3.5119197E0,3.6859384E0,4.1529207E0,6.1831946E0,4.201584E0,2.9639158E0,4.307714E0,3.7099285E0,4.3577566E0,5.4446225E0,5.8861847E0,3.4598293E0,3.3913984E0,3.7573292E0,4.809448E0,2.8935544E0,5.015403E0,5.4746904E0,7.7454453E0,2.4311767E0,6.405903E0,8.358784E0,8.92005E-3,2.034267E-2,-6.095787E-3,7.333001E-3,-1.6033566E-2,-3.807339E-3,4.6141944E-3,-1.0573024E-2,7.033474E-3,-9.440957E-3,2.2189181E-2,1.0445109E-2,2.4274036E-2,1.3137778E-2,3.207299E-2,2.2998802E-2,-1.0251381E-2,1.1813361E-2,-1.9755317E-2,1.3793491E-2,-8.183769E-3,-2.0294376E-2,1.9835936E-2,-1.4037201E-2,-2.9783243E-2,-1.0745189E-3,-1.7949745E-2,-3.5007294E-2,-1.4322683E-2,-3.389116E-2,-1.2992897E-2,-2.4795637E-2],"split_indices":[9,31,121,22,116,20,94,8,19,127,127,95,31,7,116,116,102,21,8,1,8,101,110,15,51,22,107,72,37,121,20,0,0,0,0,0,0,0,0,0,0,0,0,0,0,0,0,0,0,0,0,0,0,0,0,0,0,0,0,0,0,0,0],"split_type":[0,0,0,0,0,0,0,0,0,0,0,0,0,0,0,0,0,0,0,0,0,0,0,0,0,0,0,0,0,0,0,0,0,0,0,0,0,0,0,0,0,0,0,0,0,0,0,0,0,0,0,0,0,0,0,0,0,0,0,0,0,0,0],"sum_hessian":[1.1769E4,7.618E3,4.151E3,3.549E3,4.069E3,1.262E3,2.889E3,2.111E3,1.438E3,1.019E3,3.05E3,2.77E2,9.85E2,2.046E3,8.43E2,1.378E3,7.33E2,7.37E2,7.01E2,2.8E2,7.39E2,1.159E3,1.891E3,1.41E2,1.36E2,9.41E2,4.4E1,4.8E2,1.566E3,2.55E2,5.88E2,6.51E2,7.27E2,3.37E2,3.96E2,5.51E2,1.86E2,4.81E2,2.2E2,1.7E2,1.1E2,4.02E2,3.37E2,6.72E2,4.87E2,1.309E3,5.82E2,1.17E2,2.4E1,1.2E1,1.24E2,2.84E2,6.57E2,3.6E1,8E0,4.74E2,6E0,2.4E1,1.542E3,8E0,2.47E2,1.78E2,4.1E2],"tree_param":{"num_deleted":"0","num_feature":"128","num_nodes":"63","size_leaf_vector":"1"}},{"base_weights":[4.6937787E-3,4.3654776E-1,-8.216341E-1,1.04081556E-1,7.1620804E-1,-2.884284E-1,-9.7538763E-1,-1.3859178E-1,3.7067345E-1,8.4648997E-1,4.706496E-1,-6.197474E-2,-6.1073315E-1,-8.0884326E-1,-1.0974844E0,1.9068669E-1,-3.0021283E-1,5.169343E-1,5.308084E-2,4.700079E-1,9.060536E-1,6.622003E-1,2.2534055E-1,-3.6831796E-1,1.6155927E-1,-6.7986536E-1,5.294272E-1,-9.5127064E-1,-6.5683025E-1,-1.135763E0,-9.8074096E-1,1.0800223E-2,-7.992121E-3,-3.8369952E-3,-1.5519794E-2,2.1794422E-2,1.0622675E-2,9.154016E-3,-4.898219E-3,7.499636E-3,2.1474509E-2,2.2547E-2,2.9999271E-2,1.6726919E-2,2.805641E-2,-1.6441734E-3,1.2360144E-2,1.3441932E-2,-1.2854344E-2,-5.2657826E-3,1.1348818E-2,-2.614291E-2,-1.5123855E-2,-1.946041E-2,2.4817998E-2,-1.757043E-2,-3.0247042E-2,-2.7601356E-2,-1.547807E-2,-3.1273924E-2,-3.4972478E-2,-3.141507E-2,-2.3257175E-2],"categories":[],"categories_nodes":[],"categories_segments":[],"categories_sizes":[],"default_left":[0,0,0,0,0,0,0,0,0,0,0,0,0,0,0,0,0,0,0,0,0,0,0,0,0,0,0,0,0,0,0,0,0,0,0,0,0,0,0,0,0,0,0,0,0,0,0,0,0,0,0,0,0,0,0,0,0,0,0,0,0,0,0],"id":1,"left_children":[1,3,5,7,9,11,13,15,17,19,21,23,25,27,29,31,33,35,37,39,41,43,45,47,49,51,53,55,57,59,61,-1,-1,-1,-1,-1,-1,-1,-1,-1,-1,-1,-1,-1,-1,-1,-1,-1,-1,-1,-1,-1,-1,-1,-1,-1,-1,-1,-1,-1,-1,-1,-1],"loss_changes":[4.215863E3,7.2133887E2,3.3215674E2,2.2945894E2,1.344148E2,6.630741E1,6.3105225E1,9.888368E1,7.847536E1,6.1286865E1,6.8595825E1,3.6695305E1,2.9918106E1,2.8279053E1,6.988037E0,4.746162E1,4.654856E1,3.9223785E1,2.9170383E1,2.0264404E1,3.370923E1,2.293216E1,3.3647182E1,1.1291687E1,2.2714407E1,1.1478104E1,8.256142E0,1.3716614E1,2.3593842E1,2.586792E0,5.399414E0,0E0,0E0,0E0,0E0,0E0,0E0,0E0,0E0,0E0,0E0,0E0,0E0,0E0,0E0,0E0,0E0,0E0,0E0,0E0,0E0,0E0,0E0,0E0,0E0,0E0,0E0,0E0,0E0,0E0,0E0,0E0,0E0],"parents":[2147483647,0,0,1,1,2,2,3,3,4,4,5,5,6,6,7,7,8,8,9,9,10,10,11,11,12,12,13,13,14,14,15,15,16,16,17,17,18,18,19,19,20,20,21,21,22,22,23,23,24,24,25,25,26,26,27,27,28,28,29,29,30,30],"right_children":[2,4,6,8,10,12,14,16,18,20,22,24,26,28,30,32,34,36,38,40,42,44,46,48,50,52,54,56,58,60,62,-1,-1,-1,-1,-1,-1,-1,-1,-1,-1,-1,-1,-1,-1,-1,-1,-1,-1,-1,-1,-1,-1,-1,-1,-1,-1,-1,-1,-1,-1,-1,-1],"split_conditions":[5.30855E0,4.766611E0,7.3782034E0,4.1398196E0,3.7618403E0,5.6485987E0,7.8102946E0,4.0182915E0,4.93336E0,2.9639158E0,3.8551953E0,4.6408777E0,6.344103E0,3.7489614E0,4.749507E0,5.2059307E0,4.323989E0,3.2208104E0,3.3873844E0,6.213099E0,3.4091687E0,5.634664E0,3.553042E0,2.4757562E0,4.3919754E0,3.9268157E0,6.248686E0,5.0443406E0,3.351279E0,6.967181E0,4.7407603E0,1.0800223E-2,-7.992121E-3,-3.8369952E-3,-1.5519794E-2,2.1794422E-2,1.0622675E-2,9.154016E-3,-4.898219E-3,7.499636E-3,2.1474509E-2,2.2547E-2,2.9999271E-2,1.6726919E-2,2.805641E-2,-1.6441734E-3,1.2360144E-2,1.3441932E-2,-1.2854344E-2,-5.2657826E-3,1.1348818E-2,-2.614291E-2,-1.5123855E-2,-1.946041E-2,2.4817998E-2,-1.757043E-2,-3.0247042E-2,-2.7601356E-2,-1.547807E-2,-3.1273924E-2,-3.4972478E-2,-3.141507E-2,-2.3257175E-2],"split_indices":[9,31,20,116,8,60,112,8,8,116,60,56,31,68,68,22,60,42,60,31,4,118,127,75,124,105,56,42,116,115,27,0,0,0,0,0,0,0,0,0,0,0,0,0,0,0,0,0,0,0,0,0,0,0,0,0,0,0,0,0,0,0,0],"split_type":[0,0,0,0,0,0,0,0,0,0,0,0,0,0,0,0,0,0,0,0,0,0,0,0,0,0,0,0,0,0,0,0,0,0,0,0,0,0,0,0,0,0,0,0,0,0,0,0,0,0,0,0,0,0,0,0,0,0,0,0,0,0,0],"sum_hessian":[1.1812E4,7.758E3,4.054E3,3.545E3,4.213E3,9.08E2,3.146E3,1.856E3,1.689E3,2.751E3,1.462E3,5.34E2,3.74E2,1.334E3,1.812E3,6.11E2,1.245E3,1.156E3,5.33E2,3.77E2,2.374E3,8.2E2,6.42E2,2.25E2,3.09E2,3.53E2,2.1E1,6.86E2,6.48E2,1.358E3,4.54E2,4.46E2,1.65E2,6.95E2,5.5E2,5.04E2,6.52E2,2.46E2,2.87E2,2E2,1.77E2,9.01E2,1.473E3,5.95E2,2.25E2,2.57E2,3.85E2,1.5E1,2.1E2,1.21E2,1.88E2,1.67E2,1.86E2,4E0,1.7E1,9.4E1,5.92E2,2.24E2,4.24E2,3.39E2,1.019E3,3.4E2,1.14E2],"tree_param":{"num_deleted":"0","num_feature":"128","num_nodes":"63","size_leaf_vector":"1"}},{"base_weights":[-6.5587573E-3,3.901568E-1,-8.3836323E-1,2.4292832E-2,6.4397705E-1,-4.7202286E-1,-1.0087202E0,2.7609545E-1,-2.4876156E-1,7.77391E-1,3.5768786E-1,-1.7085671E-1,-6.371589E-1,-1.0650258E0,-7.7981794E-1,4.2250168E-1,-2.3721026E-2,8.07351E-2,-3.8703895E-1,5.2542365E-1,8.928332E-1,4.9109238E-1,1.0109728E-2,-3.621018E-1,1.3182662E-1,-7.287397E-1,-1.8680166E-1,-9.03792E-1,-1.1006308E0,-5.691656E-1,-9.507775E-1,4.474805E-3,1.7609542E-2,-6.900949E-3,6.103894E-3,1.0819165E-2,-4.019592E-3,-5.0622565E-3,-1.6265305E-2,2.266216E-2,1.0949342E-2,2.9145936E-2,2.0547064E-2,8.995904E-3,2.188527E-2,-8.350477E-3,7.2472887E-3,-1.7040925E-2,-3.912537E-3,1.2579591E-2,-2.968757E-3,-2.6562603E-2,-1.7523913E-2,-1.2336408E-2,1.0525403E-2,-1.7161323E-2,-2.8450862E-2,4.072369E-3,-3.3043023E-2,4.4695535E-3,-1.9210037E-2,-3.1116674E-2,-2.300908E-2],"categories":[],"categories_nodes":[],"categories_segments":[],"categories_sizes":[],"default_left":[0,0,0,0,0,0,0,0,0,0,0,0,0,0,0,0,0,0,0,0,0,0,0,0,0,0,0,0,0,0,0,0,0,0,0,0,0,0,0,0,0,0,0,0,0,0,0,0,0,0,0,0,0,0,0,0,0,0,0,0,0,0,0],"id":2,"left_children":[1,3,5,7,9,11,13,15,17,19,21,23,25,27,29,31,33,35,37,39,41,43,45,47,49,51,53,55,57,59,61,-1,-1,-1,-1,-1,-1,-1,-1,-1,-1,-1,-1,-1,-1,-1,-1,-1,-1,-1,-1,-1,-1,-1,-1,-1,-1,-1,-1,-1,-1,-1,-1],"loss_changes":[3.9087263E3,7.44751E2,2.3823657E2,2.2600027E2,1.8057507E2,6.0366943E1,3.2808838E1,7.5070465E1,7.1882416E1,9.3454834E1,6.9872345E1,2.505479E1,3.224048E1,1.1014648E1,1.8149597E1,5.1571564E1,2.6388027E1,2.8115654E1,3.75338E1,3.725113E1,3.554785E1,4.943112E1,2.804329E1,1.2569187E1,1.1188152E1,1.4255432E1,1.6312008E1,5.135315E0,1.8469238E0,1.2106247E1,3.7329407E0,0E0,0E0,0E0,0E0,0E0,0E0,0E0,0E0,0E0,0E0,0E0,0E0,0E0,0E0,0E0,0E0,0E0,0E0,0E0,0E0,0E0,0E0,0E0,0E0,0E0,0E0,0E0,0E0,0E0,0E0,0E0,0E0],"parents":[2147483647,0,0,1,1,2,2,3,3,4,4,5,5,6,6,7,7,8,8,9,9,10,10,11,11,12,12,13,13,14,14,15,15,16,16,17,17,18,18,19,19,20,20,21,21,22,22,23,23,24,24,25,25,26,26,27,27,28,28,29,29,30,30],"right_children":[2,4,6,8,10,12,14,16,18,20,22,24,26,28,30,32,34,36,38,40,42,44,46,48,50,52,54,56,58,60,62,-1,-1,-1,-1,-1,-1,-1,-1,-1,-1,-1,-1,-1,-1,-1,-1,-1,-1,-1,-1,-1,-1,-1,-1,-1,-1,-1,-1,-1,-1,-1,-1],"split_conditions":[5.6364446E0,4.2044706E0,7.4602613E0,3.87553E0,5.2615666E0,5.078945E0,4.7334547E0,4.958923E0,4.2036147E0,2.8140936E0,5.464226E0,4.948022E0,4.799997E0,6.1043034E0,4.782796E0,4.1469116E0,3.9637423E0,4.951382E0,4.3027124E0,3.1145637E0,5.932823E0,5.6291847E0,4.12283E0,3.468079E0,4.6462393E0,5.0426536E0,4.8276696E0,3.6556938E0,4.0718517E0,5.286875E0,4.222515E0,4.474805E-3,1.7609542E-2,-6.900949E-3,6.103894E-3,1.0819165E-2,-4.019592E-3,-5.0622565E-3,-1.6265305E-2,2.266216E-2,1.0949342E-2,2.9145936E-2,2.0547064E-2,8.995904E-3,2.188527E-2,-8.350477E-3,7.2472887E-3,-1.7040925E-2,-3.912537E-3,1.2579591E-2,-2.968757E-3,-2.6562603E-2,-1.7523913E-2,-1.2336408E-2,1.0525403E-2,-1.7161323E-2,-2.8450862E-2,4.072369E-3,-3.3043023E-2,4.4695535E-3,-1.9210037E-2,-3.1116674E-2,-2.300908E-2],"split_indices":[9,74,46,96,20,60,94,8,8,14,1,56,4,64,89,19,51,54,115,8,54,74,72,14,54,56,44,89,42,64,72,0,0,0,0,0,0,0,0,0,0,0,0,0,0,0,0,0,0,0,0,0,0,0,0,0,0,0,0,0,0,0,0],"split_type":[0,0,0,0,0,0,0,0,0,0,0,0,0,0,0,0,0,0,0,0,0,0,0,0,0,0,0,0,0,0,0,0,0,0,0,0,0,0,0,0,0,0,0,0,0,0,0,0,0,0,0,0,0,0,0,0,0,0,0,0,0,0,0],"sum_hessian":[1.1843E4,8.019E3,3.824E3,3.285E3,4.734E3,1.215E3,2.609E3,1.709E3,1.576E3,3.228E3,1.506E3,4.31E2,7.84E2,2.091E3,5.18E2,1.148E3,5.61E2,4.66E2,1.11E3,1.016E3,2.212E3,1.088E3,4.18E2,2.64E2,1.67E2,6.51E2,1.33E2,3.83E2,1.708E3,2.34E2,2.84E2,4.32E2,7.16E2,2.94E2,2.67E2,2.02E2,2.64E2,4.62E2,6.48E2,4.16E2,6E2,1.602E3,6.1E2,6.05E2,4.83E2,1.86E2,2.32E2,1.39E2,1.25E2,7.4E1,9.3E1,3.1E2,3.41E2,9.4E1,3.9E1,4.7E1,3.36E2,1E0,1.707E3,2.1E1,2.13E2,1.9E2,9.4E1],"tree_param":{"num_deleted":"0","num_feature":"128","num_nodes":"63","size_leaf_vector":"1"}},{"base_weights":[-7.003127E-3,3.671995E-1,-8.320213E-1,7.63298E-2,6.9638747E-1,-4.8399544E-1,-9.8183197E-1,3.3462203E-1,-1.5315932E-1,3.800605E-1,7.8950375E-1,-5.683113E-1,1.8500416E-1,-8.541068E-1,-1.0534222E0,4.2834662E-2,4.818798E-1,1.3538805E-1,-3.3848602E-1,4.9642316E-1,5.5415604E-2,6.6524494E-1,9.6016246E-1,-6.670425E-1,-1.497343E-1,-2.1637653E-1,5.305403E-1,-9.267697E-1,-6.087424E-1,-9.5540893E-1,-1.0920846E0,-4.7476264E-3,9.760029E-3,2.04326E-2,9.95371E-3,-3.697883E-3,9.4506685E-3,-1.624726E-2,-5.468691E-3,6.903983E-3,1.8528024E-2,1.3898402E-2,-3.0815687E-3,2.2315854E-2,1.0036973E-2,2.3865476E-2,3.1823404E-2,-1.3166323E-2,-2.3910303E-2,-1.0581693E-2,1.1153631E-2,9.867231E-3,-1.2292322E-2,-1.6394979E-3,2.091574E-2,-2.9603329E-2,-2.197358E-2,-2.58514E-2,-9.611669E-3,-9.180566E-3,-2.9059775E-2,-3.024486E-2,-3.369007E-2],"categories":[],"categories_nodes":[],"categories_segments":[],"categories_sizes":[],"default_left":[0,0,0,0,0,0,0,0,0,0,0,0,0,0,0,0,0,0,0,0,0,0,0,0,0,0,0,0,0,0,0,0,0,0,0,0,0,0,0,0,0,0,0,0,0,0,0,0,0,0,0,0,0,0,0,0,0,0,0,0,0,0,0],"id":3,"left_children":[1,3,5,7,9,11,13,15,17,19,21,23,25,27,29,31,33,35,37,39,41,43,45,47,49,51,53,55,57,59,61,-1,-1,-1,-1,-1,-1,-1,-1,-1,-1,-1,-1,-1,-1,-1,-1,-1,-1,-1,-1,-1,-1,-1,-1,-1,-1,-1,-1,-1,-1,-1,-1],"loss_changes":[3.6725771E3,7.835714E2,1.9306079E2,2.5766153E2,1.1277832E2,6.3224854E1,2.281958E1,8.7848816E1,1.23146484E2,3.302697E1,6.2236572E1,4.097879E1,1.7589926E1,1.614148E1,5.239502E0,3.9078262E1,4.0406586E1,4.190158E1,4.4375244E1,2.0638733E1,1.5011002E1,4.443994E1,1.9814331E1,2.3492065E1,2.0350994E1,6.3557444E0,6.669636E0,7.6845093E0,1.5552986E1,3.8079834E0,1.9346924E0,0E0,0E0,0E0,0E0,0E0,0E0,0E0,0E0,0E0,0E0,0E0,0E0,0E0,0E0,0E0,0E0,0E0,0E0,0E0,0E0,0E0,0E0,0E0,0E0,0E0,0E0,0E0,0E0,0E0,0E0,0E0,0E0],"parents":[2147483647,0,0,1,1,2,2,3,3,4,4,5,5,6,6,7,7,8,8,9,9,10,10,11,11,12,12,13,13,14,14,15,15,16,16,17,17,18,18,19,19,20,20,21,21,22,22,23,23,24,24,25,25,26,26,27,27,28,28,29,29,30,30],"right_children":[2,4,6,8,10,12,14,16,18,20,22,24,26,28,30,32,34,36,38,40,42,44,46,48,50,52,54,56,58,60,62,-1,-1,-1,-1,-1,-1,-1,-1,-1,-1,-1,-1,-1,-1,-1,-1,-1,-1,-1,-1,-1,-1,-1,-1,-1,-1,-1,-1,-1,-1,-1,-1],"split_conditions":[5.6077857E0,4.9973035E0,7.6042786E0,3.573915E0,3.3361301E0,5.623033E0,7.9693885E0,3.9845452E0,4.2877483E0,4.1112957E0,6.3737965E0,4.7433233E0,4.136418E0,4.821929E0,4.832585E0,4.6217747E0,4.805378E0,3.8301702E0,3.3506052E0,2.456442E0,3.627736E0,6.4266996E0,3.2654905E0,4.04023E0,4.260537E0,4.4920044E0,3.2176516E0,4.4167366E0,4.222515E0,2.4550714E0,6.5563765E0,-4.7476264E-3,9.760029E-3,2.04326E-2,9.95371E-3,-3.697883E-3,9.4506685E-3,-1.624726E-2,-5.468691E-3,6.903983E-3,1.8528024E-2,1.3898402E-2,-3.0815687E-3,2.2315854E-2,1.0036973E-2,2.3865476E-2,3.1823404E-2,-1.3166323E-2,-2.3910303E-2,-1.0581693E-2,1.1153631E-2,9.867231E-3,-1.2292322E-2,-1.6394979E-3,2.091574E-2,-2.9603329E-2,-2.197358E-2,-2.58514E-2,-9.611669E-3,-9.180566E-3,-2.9059775E-2,-3.024486E-2,-3.369007E-2],"split_indices":[112,31,46,60,116,31,112,10,8,8,31,4,44,94,89,116,54,27,51,116,60,54,14,89,118,76,81,102,72,87,76,0,0,0,0,0,0,0,0,0,0,0,0,0,0,0,0,0,0,0,0,0,0,0,0,0,0,0,0,0,0,0,0],"split_type":[0,0,0,0,0,0,0,0,0,0,0,0,0,0,0,0,0,0,0,0,0,0,0,0,0,0,0,0,0,0,0,0,0,0,0,0,0,0,0,0,0,0,0,0,0,0,0,0,0,0,0,0,0,0,0,0,0,0,0,0,0,0,0],"sum_hessian":[1.1894E4,8.183E3,3.711E3,4.345E3,3.838E3,1.118E3,2.593E3,2.044E3,2.301E3,8.74E2,2.964E3,9.93E2,1.25E2,9.36E2,1.657E3,6.86E2,1.358E3,9E2,1.401E3,6.43E2,2.31E2,1.718E3,1.246E3,8.03E2,1.9E2,5.8E1,6.7E1,7.2E2,2.16E2,4.76E2,1.181E3,4.01E2,2.85E2,5.82E2,7.76E2,3.69E2,5.31E2,6.08E2,7.93E2,2.02E2,4.41E2,6.4E1,1.67E2,1.387E3,3.31E2,4.76E2,7.7E2,2.93E2,5.1E2,1.37E2,5.3E1,1.5E1,4.3E1,1.5E1,5.2E1,5.47E2,1.73E2,1.14E2,1.02E2,1E1,4.66E2,3.27E2,8.54E2],"tree_param":{"num_deleted":"0","num_feature":"128","num_nodes":"63","size_leaf_vector":"1"}},{"base_weights":[3.6104033E-3,4.0138635E-1,-7.405384E-1,4.5006946E-2,6.313605E-1,-3.4957057E-1,-9.248346E-1,-1.8582314E-1,2.9743108E-1,7.685251E-1,3.9978844E-1,-7.0223875E-2,-5.495321E-1,-7.3420125E-1,-1.0027784E0,-4.491934E-2,-4.970975E-1,4.5174703E-1,1.0517326E-2,3.9601213E-1,8.2583684E-1,5.6357343E-2,5.401741E-1,-2.0558767E-1,4.4476914E-1,-5.8153707E-1,4.249179E-1,-8.727741E-1,-5.084437E-1,-9.197871E-1,-1.0546508E0,8.598773E-3,-5.815011E-3,-2.2727882E-3,-1.6904945E-2,1.0241536E-2,2.2319846E-2,1.0616045E-2,-3.246671E-3,4.067035E-3,1.9554768E-2,2.7028851E-2,1.7056923E-2,-3.4131587E-3,1.07955E-2,1.9197565E-2,6.562399E-3,-1.3215994E-4,-1.1500127E-2,2.015983E-3,1.8690336E-2,-2.0777553E-2,-1.0658647E-2,2.1331046E-2,-4.8821517E-3,-4.4836393E-3,-2.6704429E-2,2.0897755E-2,-1.6273398E-2,-2.9954301E-2,-2.4362411E-2,1.41473E-2,-3.168906E-2],"categories":[],"categories_nodes":[],"categories_segments":[],"categories_sizes":[],"default_left":[0,0,0,0,0,0,0,0,0,0,0,0,0,0,0,0,0,0,0,0,0,0,0,0,0,0,0,0,0,0,0,0,0,0,0,0,0,0,0,0,0,0,0,0,0,0,0,0,0,0,0,0,0,0,0,0,0,0,0,0,0,0,0],"id":4,"left_children":[1,3,5,7,9,11,13,15,17,19,21,23,25,27,29,31,33,35,37,39,41,43,45,47,49,51,53,55,57,59,61,-1,-1,-1,-1,-1,-1,-1,-1,-1,-1,-1,-1,-1,-1,-1,-1,-1,-1,-1,-1,-1,-1,-1,-1,-1,-1,-1,-1,-1,-1,-1,-1],"loss_changes":[3.4916704E3,6.2998303E2,2.957461E2,1.757888E2,1.480918E2,7.358302E1,4.0749268E1,6.9100624E1,6.3796043E1,6.2290527E1,8.385986E1,3.8502422E1,2.4198929E1,2.5021301E1,7.5495605E0,5.3673367E1,1.3694069E1,2.996727E1,2.0626833E1,2.6095322E1,4.8599243E1,2.6167236E1,3.9454956E1,1.5625492E1,7.6974964E0,1.8446564E1,4.319174E0,6.1879272E0,1.3161964E1,5.706665E0,3.5498047E0,0E0,0E0,0E0,0E0,0E0,0E0,0E0,0E0,0E0,0E0,0E0,0E0,0E0,0E0,0E0,0E0,0E0,0E0,0E0,0E0,0E0,0E0,0E0,0E0,0E0,0E0,0E0,0E0,0E0,0E0,0E0,0E0],"parents":[2147483647,0,0,1,1,2,2,3,3,4,4,5,5,6,6,7,7,8,8,9,9,10,10,11,11,12,12,13,13,14,14,15,15,16,16,17,17,18,18,19,19,20,20,21,21,22,22,23,23,24,24,25,25,26,26,27,27,28,28,29,29,30,30],"right_children":[2,4,6,8,10,12,14,16,18,20,22,24,26,28,30,32,34,36,38,40,42,44,46,48,50,52,54,56,58,60,62,-1,-1,-1,-1,-1,-1,-1,-1,-1,-1,-1,-1,-1,-1,-1,-1,-1,-1,-1,-1,-1,-1,-1,-1,-1,-1,-1,-1,-1,-1,-1,-1],"split_conditions":[5.19765E0,4.492903E0,5.6841297E0,4.1156235E0,3.744311E0,3.6556938E0,8.256599E0,5.1726866E0,4.93336E0,2.9639158E0,2.679512E0,5.4376945E0,6.4671617E0,4.977562E0,7.0585546E0,4.0182915E0,2.5783772E0,5.9696584E0,5.2436633E0,6.040487E0,6.2668734E0,3.9678497E0,3.9197354E0,4.6016474E0,3.5781245E0,4.0827293E0,7.0432887E0,2.3677886E0,5.593441E0,4.8971505E0,5.5160217E0,8.598773E-3,-5.815011E-3,-2.2727882E-3,-1.6904945E-2,1.0241536E-2,2.2319846E-2,1.0616045E-2,-3.246671E-3,4.067035E-3,1.9554768E-2,2.7028851E-2,1.7056923E-2,-3.4131587E-3,1.07955E-2,1.9197565E-2,6.562399E-3,-1.3215994E-4,-1.1500127E-2,2.015983E-3,1.8690336E-2,-2.0777553E-2,-1.0658647E-2,2.1331046E-2,-4.8821517E-3,-4.4836393E-3,-2.6704429E-2,2.0897755E-2,-1.6273398E-2,-2.9954301E-2,-2.4362411E-2,1.41473E-2,-3.168906E-2],"split_indices":[9,31,64,116,8,89,46,22,8,116,14,100,31,10,64,8,7,19,20,31,54,127,101,1,116,102,20,39,20,56,121,0,0,0,0,0,0,0,0,0,0,0,0,0,0,0,0,0,0,0,0,0,0,0,0,0,0,0,0,0,0,0,0],"split_type":[0,0,0,0,0,0,0,0,0,0,0,0,0,0,0,0,0,0,0,0,0,0,0,0,0,0,0,0,0,0,0,0,0,0,0,0,0,0,0,0,0,0,0,0,0,0,0,0,0,0,0,0,0,0,0,0,0,0,0,0,0,0,0],"sum_hessian":[1.1794E4,7.686E3,4.108E3,3.015E3,4.671E3,1.317E3,2.791E3,1.575E3,1.44E3,2.932E3,1.739E3,5.5E2,7.67E2,8.13E2,1.978E3,1.085E3,4.9E2,9.36E2,5.04E2,3.92E2,2.54E3,5.05E2,1.234E3,4.36E2,1.14E2,7.43E2,2.4E1,5.02E2,3.11E2,7.68E2,1.21E3,3.36E2,7.49E2,6.7E1,4.23E2,6.81E2,2.55E2,1.29E2,3.75E2,1.95E2,1.97E2,1.964E3,5.76E2,3.24E2,1.81E2,9.41E2,2.93E2,2.05E2,2.31E2,3.7E1,7.7E1,4.97E2,2.46E2,1.6E1,8E0,1.2E1,4.9E2,8E0,3.03E2,4.39E2,3.29E2,1E0,1.209E3],"tree_param":{"num_deleted":"0","num_feature":"128","num_nodes":"63","size_leaf_vector":"1"}},{"base_weights":[-3.852241E-4,3.9831412E-1,-6.86572E-1,6.6111155E-2,6.0405505E-1,-2.1790068E-1,-8.60653E-1,-1.7163432E-1,2.8751513E-1,7.350703E-1,3.8081717E-1,-5.3816986E-1,-4.2200424E-2,-6.75307E-1,-9.6356463E-1,7.194028E-3,-4.2089453E-1,5.356179E-1,1.2978634E-1,8.757237E-1,5.5556476E-1,2.2316363E-1,6.2091064E-1,-6.215418E-1,1.3357861E-2,-1.8468529E-1,3.2552782E-1,-7.648632E-1,-4.2229852E-1,-8.2402587E-1,-1.0051945E0,-4.4005206E-3,8.006139E-3,-5.839994E-3,-1.7623002E-2,4.2127445E-3,1.8877488E-2,-1.6698334E-3,9.826649E-3,2.3002319E-2,3.070959E-2,7.906854E-3,1.8607965E-2,1.1100494E-2,-4.6524205E-3,1.2218096E-2,2.3535943E-2,6.758327E-3,-1.9606419E-2,-7.3197642E-3,1.8543046E-2,-1.2389462E-2,4.246744E-4,1.910162E-2,4.0496807E-3,-1.4517493E-2,-2.4412928E-2,-5.8273994E-3,-1.9845478E-2,-2.6205236E-2,-1.5450465E-2,1.9414408E-2,-3.0199831E-2],"categories":[],"categories_nodes":[],"categories_segments":[],"categories_sizes":[],"default_left":[0,0,0,0,0,0,0,0,0,0,0,0,0,0,0,0,0,0,0,0,0,0,0,0,0,0,0,0,0,0,0,0,0,0,0,0,0,0,0,0,0,0,0,0,0,0,0,0,0,0,0,0,0,0,0,0,0,0,0,0,0,0,0],"id":5,"left_children":[1,3,5,7,9,11,13,15,17,19,21,23,25,27,29,31,33,35,37,39,41,43,45,47,49,51,53,55,57,59,61,-1,-1,-1,-1,-1,-1,-1,-1,-1,-1,-1,-1,-1,-1,-1,-1,-1,-1,-1,-1,-1,-1,-1,-1,-1,-1,-1,-1,-1,-1,-1,-1],"loss_changes":[3.247968E3,5.131835E2,3.5577563E2,1.5127771E2,1.3534106E2,6.6546326E1,6.002466E1,6.178369E1,5.8160316E1,7.326306E1,6.48526E1,1.9274727E1,4.0142834E1,2.5484985E1,1.1039429E1,3.232572E1,2.1699913E1,2.1299133E1,3.3429783E1,2.5589478E1,2.413266E1,5.7714397E1,2.3450592E1,1.001268E1,8.866136E0,2.506377E1,1.2603008E1,1.1146606E1,1.6237701E1,6.8131104E0,4.453491E0,0E0,0E0,0E0,0E0,0E0,0E0,0E0,0E0,0E0,0E0,0E0,0E0,0E0,0E0,0E0,0E0,0E0,0E0,0E0,0E0,0E0,0E0,0E0,0E0,0E0,0E0,0E0,0E0,0E0,0E0,0E0,0E0],"parents":[2147483647,0,0,1,1,2,2,3,3,4,4,5,5,6,6,7,7,8,8,9,9,10,10,11,11,12,12,13,13,14,14,15,15,16,16,17,17,18,18,19,19,20,20,21,21,22,22,23,23,24,24,25,25,26,26,27,27,28,28,29,29,30,30],"right_children":[2,4,6,8,10,12,14,16,18,20,22,24,26,28,30,32,34,36,38,40,42,44,46,48,50,52,54,56,58,60,62,-1,-1,-1,-1,-1,-1,-1,-1,-1,-1,-1,-1,-1,-1,-1,-1,-1,-1,-1,-1,-1,-1,-1,-1,-1,-1,-1,-1,-1,-1,-1,-1],"split_conditions":[6.879592E0,4.2044706E0,5.9161377E0,4.0222535E0,4.4273877E0,3.4888878E0,8.365107E0,4.064066E0,4.0644846E0,4.542049E0,5.5175653E0,5.2915564E0,5.7230053E0,4.949671E0,6.4327564E0,4.685213E0,4.7618723E0,3.2989793E0,4.0104456E0,4.0370197E0,2.9699342E0,6.394267E0,4.2639985E0,3.2403395E0,3.3878913E0,3.7222443E0,4.6717224E0,3.7201443E0,4.93137E0,5.572128E0,1.6244209E0,-4.4005206E-3,8.006139E-3,-5.839994E-3,-1.7623002E-2,4.2127445E-3,1.8877488E-2,-1.6698334E-3,9.826649E-3,2.3002319E-2,3.070959E-2,7.906854E-3,1.8607965E-2,1.1100494E-2,-4.6524205E-3,1.2218096E-2,2.3535943E-2,6.758327E-3,-1.9606419E-2,-7.3197642E-3,1.8543046E-2,-1.2389462E-2,4.246744E-4,1.910162E-2,4.0496807E-3,-1.4517493E-2,-2.4412928E-2,-5.8273994E-3,-1.9845478E-2,-2.6205236E-2,-1.5450465E-2,1.9414408E-2,-3.0199831E-2],"split_indices":[20,74,42,116,66,116,46,62,13,20,34,74,10,94,64,19,38,95,102,36,127,107,19,115,12,102,54,89,107,125,80,0,0,0,0,0,0,0,0,0,0,0,0,0,0,0,0,0,0,0,0,0,0,0,0,0,0,0,0,0,0,0,0],"split_type":[0,0,0,0,0,0,0,0,0,0,0,0,0,0,0,0,0,0,0,0,0,0,0,0,0,0,0,0,0,0,0,0,0,0,0,0,0,0,0,0,0,0,0,0,0,0,0,0,0,0,0,0,0,0,0,0,0,0,0,0,0,0,0],"sum_hessian":[1.187E4,7.508E3,4.362E3,2.872E3,4.636E3,1.182E3,3.18E3,1.385E3,1.487E3,2.92E3,1.716E3,4.18E2,7.64E2,1.138E3,2.042E3,8.07E2,5.78E2,5.77E2,9.1E2,1.635E3,1.285E3,1.037E3,6.79E2,3.63E2,5.5E1,5.51E2,2.13E2,8.39E2,2.99E2,4.74E2,1.568E3,5.07E2,3E2,2.46E2,3.32E2,1.11E2,4.66E2,4.7E2,4.4E2,9.45E2,6.9E2,2.34E2,1.051E3,7.47E2,2.9E2,2.96E2,3.83E2,1.3E1,3.5E2,3.9E1,1.6E1,2.56E2,2.95E2,8E1,1.33E2,1.26E2,7.13E2,1.54E2,1.45E2,4.07E2,6.7E1,1E0,1.567E3],"tree_param":{"num_deleted":"0","num_feature":"128","num_nodes":"63","size_leaf_vector":"1"}},{"base_weights":[2.87825E-3,3.7793222E-1,-6.9935507E-1,4.0132202E-2,5.9895504E-1,-3.7428704E-1,-8.838478E-1,-2.0733856E-1,2.7675527E-1,1.6202587E-1,6.6532636E-1,-1.336542E-1,-5.427148E-1,-7.3727655E-1,-9.5575124E-1,1.592693E-3,-4.0666273E-1,4.2368588E-1,-9.908346E-4,-1.7139792E-1,3.621792E-1,5.2021813E-1,8.2443315E-1,-3.2409233E-1,1.3214539E-1,-6.811893E-1,-3.0627725E-1,-7.735529E-1,-8.868369E-2,-9.962302E-1,-8.359723E-1,4.260181E-3,-9.8719625E-3,8.488826E-3,-1.3450722E-2,4.330793E-3,1.6639909E-2,6.178974E-3,-7.4497573E-3,-1.3151893E-3,-1.8289492E-2,1.3223393E-2,-1.0952981E-2,9.584314E-3,1.8957E-2,2.151786E-2,2.9000204E-2,-1.5144787E-2,-3.2888653E-3,8.346555E-3,-7.411367E-3,-2.276732E-2,-1.1093193E-2,-1.5225288E-3,-1.5914775E-2,-2.1013273E-2,-2.7228318E-2,9.642778E-3,-1.5917977E-2,-1.1942224E-2,-2.997448E-2,9.740858E-3,-2.5414048E-2],"categories":[],"categories_nodes":[],"categories_segments":[],"categories_sizes":[],"default_left":[0,0,0,0,0,0,0,0,0,0,0,0,0,0,0,0,0,0,0,0,0,0,0,0,0,0,0,0,0,0,0,0,0,0,0,0,0,0,0,0,0,0,0,0,0,0,0,0,0,0,0,0,0,0,0,0,0,0,0,0,0,0,0],"id":6,"left_children":[1,3,5,7,9,11,13,15,17,19,21,23,25,27,29,31,33,35,37,39,41,43,45,47,49,51,53,55,57,59,61,-1,-1,-1,-1,-1,-1,-1,-1,-1,-1,-1,-1,-1,-1,-1,-1,-1,-1,-1,-1,-1,-1,-1,-1,-1,-1,-1,-1,-1,-1,-1,-1],"loss_changes":[3.1054604E3,5.7382434E2,2.4585693E2,1.7813013E2,1.3462427E2,6.0234985E1,2.6886475E1,6.192683E1,6.345903E1,4.1037903E1,9.268396E1,3.1122509E1,2.8439362E1,2.0307129E1,7.666626E0,3.3800472E1,2.20084E1,3.7127396E1,2.764121E1,1.28867855E1,2.211211E1,4.714734E1,2.8605713E1,1.38210335E1,1.43038645E1,1.3055618E1,1.859327E1,7.4010925E0,8.688539E0,1.8808594E0,6.092346E0,0E0,0E0,0E0,0E0,0E0,0E0,0E0,0E0,0E0,0E0,0E0,0E0,0E0,0E0,0E0,0E0,0E0,0E0,0E0,0E0,0E0,0E0,0E0,0E0,0E0,0E0,0E0,0E0,0E0,0E0,0E0,0E0],"parents":[2147483647,0,0,1,1,2,2,3,3,4,4,5,5,6,6,7,7,8,8,9,9,10,10,11,11,12,12,13,13,14,14,15,15,16,16,17,17,18,18,19,19,20,20,21,21,22,22,23,23,24,24,25,25,26,26,27,27,28,28,29,29,30,30],"right_children":[2,4,6,8,10,12,14,16,18,20,22,24,26,28,30,32,34,36,38,40,42,44,46,48,50,52,54,56,58,60,62,-1,-1,-1,-1,-1,-1,-1,-1,-1,-1,-1,-1,-1,-1,-1,-1,-1,-1,-1,-1,-1,-1,-1,-1,-1,-1,-1,-1,-1,-1,-1,-1],"split_conditions":[5.25426E0,4.2044706E0,7.4602613E0,4.0222535E0,2.8828757E0,5.020975E0,6.590767E0,3.02432E0,5.8986177E0,3.5119197E0,5.402224E0,4.9286385E0,5.7066813E0,6.262759E0,4.2797136E0,4.9987826E0,3.1343215E0,4.081211E0,3.6101036E0,6.0854235E0,4.503547E0,4.0450463E0,7.7558994E0,4.7640324E0,5.8910146E0,4.889072E0,4.660467E0,5.2717543E0,4.6146197E0,3.0876305E0,2.1948006E0,4.260181E-3,-9.8719625E-3,8.488826E-3,-1.3450722E-2,4.330793E-3,1.6639909E-2,6.178974E-3,-7.4497573E-3,-1.3151893E-3,-1.8289492E-2,1.3223393E-2,-1.0952981E-2,9.584314E-3,1.8957E-2,2.151786E-2,2.9000204E-2,-1.5144787E-2,-3.2888653E-3,8.346555E-3,-7.411367E-3,-2.276732E-2,-1.1093193E-2,-1.5225288E-3,-1.5914775E-2,-2.1013273E-2,-2.7228318E-2,9.642778E-3,-1.5917977E-2,-1.1942224E-2,-2.997448E-2,9.740858E-3,-2.5414048E-2],"split_indices":[9,74,46,116,116,60,64,89,20,127,34,56,56,94,94,8,115,19,60,22,0,103,56,19,54,116,107,89,106,7,39,0,0,0,0,0,0,0,0,0,0,0,0,0,0,0,0,0,0,0,0,0,0,0,0,0,0,0,0,0,0,0,0],"split_type":[0,0,0,0,0,0,0,0,0,0,0,0,0,0,0,0,0,0,0,0,0,0,0,0,0,0,0,0,0,0,0,0,0,0,0,0,0,0,0,0,0,0,0,0,0,0,0,0,0,0,0,0,0,0,0,0,0,0,0,0,0,0,0],"sum_hessian":[1.1789E4,7.685E3,4.104E3,3.04E3,4.645E3,1.487E3,2.617E3,1.486E3,1.554E3,6.13E2,4.032E3,6.13E2,8.74E2,8.65E2,1.752E3,7.26E2,7.6E2,1.016E3,5.38E2,2.3E2,3.83E2,2.111E3,1.921E3,3.57E2,2.56E2,5.5E2,3.24E2,8.19E2,4.6E1,1.304E3,4.48E2,5.1E2,2.16E2,4.3E1,7.17E2,3.25E2,6.91E2,2.93E2,2.45E2,1.79E2,5.1E1,3.46E2,3.7E1,7.56E2,1.355E3,1.099E3,8.22E2,1.93E2,1.64E2,1.85E2,7.1E1,4.39E2,1.11E2,1.52E2,1.72E2,5.34E2,2.85E2,2.4E1,2.2E1,7E0,1.297E3,4E0,4.44E2],"tree_param":{"num_deleted":"0","num_feature":"128","num_nodes":"63","size_leaf_vector":"1"}},{"base_weights":[-4.821239E-3,3.282725E-1,-7.228695E-1,1.1034231E-3,5.649031E-1,-4.0872782E-1,-8.628295E-1,3.045341E-1,-1.7685856E-1,3.874037E-1,7.370032E-1,-4.8231572E-1,2.5391462E-1,-9.0544796E-1,-6.564029E-1,3.3469137E-2,4.583674E-1,1.4541511E-1,-2.9560807E-1,5.358927E-1,8.972793E-2,3.2982448E-1,7.94649E-1,-6.726574E-1,-2.9611534E-1,4.373035E-1,-5.965257E-1,-8.12167E-1,-9.5336664E-1,1.0219889E0,-6.739041E-1,-4.3815016E-3,8.442754E-3,8.103943E-3,1.9183412E-2,-3.824347E-5,1.4846692E-2,-1.4382821E-2,-2.8699718E-3,2.082938E-2,1.1265966E-2,-4.250095E-3,9.39608E-3,1.7517218E-2,1.9434323E-3,2.6489701E-2,1.8695798E-2,-1.6217418E-2,-2.5383072E-2,-8.2577957E-4,-1.32761365E-2,1.5004989E-2,-2.4204973E-2,-2.3013014E-2,3.0820102E-3,-1.502645E-2,-2.5041314E-2,-5.0757066E-3,-2.8714918E-2,3.415E-2,8.349158E-3,-9.883146E-3,-2.237009E-2],"categories":[],"categories_nodes":[],"categories_segments":[],"categories_sizes":[],"default_left":[0,0,0,0,0,0,0,0,0,0,0,0,0,0,0,0,0,0,0,0,0,0,0,0,0,0,0,0,0,0,0,0,0,0,0,0,0,0,0,0,0,0,0,0,0,0,0,0,0,0,0,0,0,0,0,0,0,0,0,0,0,0,0],"id":7,"left_children":[1,3,5,7,9,11,13,15,17,19,21,23,25,27,29,31,33,35,37,39,41,43,45,47,49,51,53,55,57,59,61,-1,-1,-1,-1,-1,-1,-1,-1,-1,-1,-1,-1,-1,-1,-1,-1,-1,-1,-1,-1,-1,-1,-1,-1,-1,-1,-1,-1,-1,-1,-1,-1],"loss_changes":[2.8213345E3,6.238354E2,1.6399695E2,1.827329E2,1.425553E2,5.6394318E1,2.2147339E1,5.214988E1,8.1672554E1,1.0179233E2,5.5437256E1,3.662474E1,1.8352375E1,8.79126E0,1.3789505E1,2.0249939E1,2.7027664E1,2.9477657E1,5.7252472E1,3.8785706E1,3.975885E1,1.9895695E1,3.0924316E1,1.1294449E1,2.0713436E1,7.9116955E0,2.583602E0,4.7257385E0,4.0307617E0,1.1581373E-1,1.0680923E1,0E0,0E0,0E0,0E0,0E0,0E0,0E0,0E0,0E0,0E0,0E0,0E0,0E0,0E0,0E0,0E0,0E0,0E0,0E0,0E0,0E0,0E0,0E0,0E0,0E0,0E0,0E0,0E0,0E0,0E0,0E0,0E0],"parents":[2147483647,0,0,1,1,2,2,3,3,4,4,5,5,6,6,7,7,8,8,9,9,10,10,11,11,12,12,13,13,14,14,15,15,16,16,17,17,18,18,19,19,20,20,21,21,22,22,23,23,24,24,25,25,26,26,27,27,28,28,29,29,30,30],"right_children":[2,4,6,8,10,12,14,16,18,20,22,24,26,28,30,32,34,36,38,40,42,44,46,48,50,52,54,56,58,60,62,-1,-1,-1,-1,-1,-1,-1,-1,-1,-1,-1,-1,-1,-1,-1,-1,-1,-1,-1,-1,-1,-1,-1,-1,-1,-1,-1,-1,-1,-1,-1,-1],"split_conditions":[5.9858427E0,4.2044706E0,7.538029E0,3.2587087E0,5.6744866E0,7.3095846E0,4.839321E0,3.9667678E0,3.495939E0,4.2836523E0,2.846281E0,3.5002184E0,6.245098E0,6.689227E0,2.9064245E0,4.566588E0,4.001614E0,4.3644342E0,4.0918226E0,4.558648E0,3.2553232E0,3.3986926E0,3.8414457E0,4.7261143E0,4.5707893E0,7.3545303E0,4.7730412E0,3.7823615E0,4.501167E0,5.2735424E0,3.6057806E0,-4.3815016E-3,8.442754E-3,8.103943E-3,1.9183412E-2,-3.824347E-5,1.4846692E-2,-1.4382821E-2,-2.8699718E-3,2.082938E-2,1.1265966E-2,-4.250095E-3,9.39608E-3,1.7517218E-2,1.9434323E-3,2.6489701E-2,1.8695798E-2,-1.6217418E-2,-2.5383072E-2,-8.2577957E-4,-1.32761365E-2,1.5004989E-2,-2.4204973E-2,-2.3013014E-2,3.0820102E-3,-1.502645E-2,-2.5041314E-2,-5.0757066E-3,-2.8714918E-2,3.415E-2,8.349158E-3,-9.883146E-3,-2.237009E-2],"split_indices":[110,74,46,62,31,10,94,19,96,96,116,102,54,64,89,56,102,4,27,1,102,8,110,89,66,64,95,106,30,4,43,0,0,0,0,0,0,0,0,0,0,0,0,0,0,0,0,0,0,0,0,0,0,0,0,0,0,0,0,0,0,0,0],"split_type":[0,0,0,0,0,0,0,0,0,0,0,0,0,0,0,0,0,0,0,0,0,0,0,0,0,0,0,0,0,0,0,0,0,0,0,0,0,0,0,0,0,0,0,0,0,0,0,0,0,0,0,0,0,0,0,0,0,0,0,0,0,0,0],"sum_hessian":[1.1794E4,8.057E3,3.737E3,3.382E3,4.675E3,1.153E3,2.584E3,1.25E3,2.132E3,2.303E3,2.372E3,1.038E3,1.15E2,2.139E3,4.45E2,4.53E2,7.97E2,5.74E2,1.558E3,1.536E3,7.67E2,2.95E2,2.077E3,5.12E2,5.26E2,9.5E1,2E1,7.32E2,1.407E3,4E0,4.41E2,2.63E2,1.9E2,3.92E2,4.05E2,4.05E2,1.69E2,8.11E2,7.47E2,7.71E2,7.65E2,3.77E2,3.9E2,1.5E2,1.45E2,1.368E3,7.09E2,2.93E2,2.19E2,1.86E2,3.4E2,9.1E1,4E0,1.6E1,4E0,5.1E1,6.81E2,7E0,1.4E3,3E0,1E0,7.7E1,3.64E2],"tree_param":{"num_deleted":"0","num_feature":"128","num_nodes":"63","size_leaf_vector":"1"}},{"base_weights":[6.522002E-3,3.708743E-1,-6.468362E-1,1.2400847E-1,6.4053535E-1,-2.8550446E-1,-8.2199275E-1,3.470741E-1,-1.0465991E-1,4.6105465E-1,7.809868E-1,-4.3968552E-1,2.7490431E-2,-8.959072E-1,-6.536593E-1,5.188851E-1,1.6638185E-1,-2.9082745E-1,6.641201E-2,7.1156347E-1,3.429353E-1,8.521675E-1,5.9479654E-1,-2.4853227E-1,-6.094404E-1,-6.1237026E-2,7.9219204E-1,-7.2967726E-1,-9.2905396E-1,-4.5861784E-1,-7.8780603E-1,2.2159707E-2,1.25351725E-2,-2.364103E-3,9.349285E-3,-9.838241E-4,-1.2994104E-2,5.850283E-3,-8.050601E-3,2.5797524E-2,1.6830793E-2,1.4351987E-2,3.1733166E-3,2.768193E-2,1.972046E-2,2.0625703E-2,9.152447E-3,-1.3285056E-2,-4.934075E-4,-1.9908193E-2,5.020561E-3,2.1437996E-3,-1.2331996E-2,-1.9567478E-2,2.6075194E-2,-1.5045093E-2,-2.4487035E-2,-1.398366E-3,-2.7934795E-2,-2.1887926E-2,-8.747489E-3,-2.0215666E-2,-2.6797734E-2],"categories":[],"categories_nodes":[],"categories_segments":[],"categories_sizes":[],"default_left":[0,0,0,0,0,0,0,0,0,0,0,0,0,0,0,0,0,0,0,0,0,0,0,0,0,0,0,0,0,0,0,0,0,0,0,0,0,0,0,0,0,0,0,0,0,0,0,0,0,0,0,0,0,0,0,0,0,0,0,0,0,0,0],"id":8,"left_children":[1,3,5,7,9,11,13,15,17,19,21,23,25,27,29,31,33,35,37,39,41,43,45,47,49,51,53,55,57,59,61,-1,-1,-1,-1,-1,-1,-1,-1,-1,-1,-1,-1,-1,-1,-1,-1,-1,-1,-1,-1,-1,-1,-1,-1,-1,-1,-1,-1,-1,-1,-1,-1],"loss_changes":[2.835922E3,5.090487E2,2.6969568E2,2.0376248E2,9.1776245E1,6.7283585E1,3.514868E1,6.2686462E1,6.28555E1,4.7307007E1,2.6648804E1,3.0156097E1,3.1327375E1,1.0303467E1,2.2663177E1,2.2697876E1,3.5177406E1,3.468672E1,4.4350754E1,1.0996613E1,3.509572E1,1.9739258E1,1.5102936E1,1.9879557E1,2.0896484E1,1.9247808E1,5.9042625E0,6.2267E0,3.0378418E0,1.612722E1,5.6465454E0,0E0,0E0,0E0,0E0,0E0,0E0,0E0,0E0,0E0,0E0,0E0,0E0,0E0,0E0,0E0,0E0,0E0,0E0,0E0,0E0,0E0,0E0,0E0,0E0,0E0,0E0,0E0,0E0,0E0,0E0,0E0,0E0],"parents":[2147483647,0,0,1,1,2,2,3,3,4,4,5,5,6,6,7,7,8,8,9,9,10,10,11,11,12,12,13,13,14,14,15,15,16,16,17,17,18,18,19,19,20,20,21,21,22,22,23,23,24,24,25,25,26,26,27,27,28,28,29,29,30,30],"right_children":[2,4,6,8,10,12,14,16,18,20,22,24,26,28,30,32,34,36,38,40,42,44,46,48,50,52,54,56,58,60,62,-1,-1,-1,-1,-1,-1,-1,-1,-1,-1,-1,-1,-1,-1,-1,-1,-1,-1,-1,-1,-1,-1,-1,-1,-1,-1,-1,-1,-1,-1,-1,-1],"split_conditions":[5.089573E0,5.0595503E0,6.301487E0,3.9870028E0,4.510786E0,4.5144553E0,4.222533E0,3.986581E0,4.251527E0,2.965312E0,3.793074E0,5.020975E0,4.3049407E0,6.1043034E0,7.5808454E0,4.427681E0,3.5313616E0,4.0036306E0,5.32137E0,4.0263114E0,5.7493396E0,5.966831E0,5.008443E0,4.685213E0,6.167713E0,5.7908144E0,2.1964211E0,3.8791666E0,2.7281232E0,3.243638E0,5.124652E0,2.2159707E-2,1.25351725E-2,-2.364103E-3,9.349285E-3,-9.838241E-4,-1.2994104E-2,5.850283E-3,-8.050601E-3,2.5797524E-2,1.6830793E-2,1.4351987E-2,3.1733166E-3,2.768193E-2,1.972046E-2,2.0625703E-2,9.152447E-3,-1.3285056E-2,-4.934075E-4,-1.9908193E-2,5.020561E-3,2.1437996E-3,-1.2331996E-2,-1.9567478E-2,2.6075194E-2,-1.5045093E-2,-2.4487035E-2,-1.398366E-3,-2.7934795E-2,-2.1887926E-2,-8.747489E-3,-2.0215666E-2,-2.6797734E-2],"split_indices":[9,31,121,22,124,44,94,0,19,8,8,60,127,64,112,54,102,60,8,85,122,54,13,19,74,54,105,107,106,102,89,0,0,0,0,0,0,0,0,0,0,0,0,0,0,0,0,0,0,0,0,0,0,0,0,0,0,0,0,0,0,0,0],"split_type":[0,0,0,0,0,0,0,0,0,0,0,0,0,0,0,0,0,0,0,0,0,0,0,0,0,0,0,0,0,0,0,0,0,0,0,0,0,0,0,0,0,0,0,0,0,0,0,0,0,0,0,0,0,0,0,0,0,0,0,0,0,0,0],"sum_hessian":[1.1911E4,7.647E3,4.264E3,3.993E3,3.654E3,1.393E3,2.871E3,2.021E3,1.972E3,1.606E3,2.048E3,9.33E2,4.6E2,1.992E3,8.79E2,1.035E3,9.86E2,9.44E2,1.028E3,5.13E2,1.093E3,1.479E3,5.69E2,4.4E2,4.93E2,4.13E2,4.7E1,3.35E2,1.657E3,3.6E2,5.19E2,3.24E2,7.11E2,3.67E2,6.19E2,3.36E2,6.08E2,7.43E2,2.85E2,2.56E2,2.57E2,6.95E2,3.98E2,1.083E3,3.96E2,4.3E2,1.39E2,2.39E2,2.01E2,4.61E2,3.2E1,3E2,1.13E2,2E0,4.5E1,9.4E1,2.41E2,4E0,1.653E3,1.36E2,2.24E2,2.53E2,2.66E2],"tree_param":{"num_deleted":"0","num_feature":"128","num_nodes":"63","size_leaf_vector":"1"}},{"base_weights":[1.314914E-3,3.4838554E-1,-6.5161306E-1,1.0722284E-1,5.9360147E-1,-2.3749797E-1,-7.7067137E-1,3.6090928E-1,-8.491529E-2,7.2216356E-1,3.9978468E-1,-5.0600916E-2,-4.9070728E-1,-6.3564634E-1,-8.821726E-1,1.828126E-1,5.8086306E-1,-3.1693769E-1,6.188457E-2,8.355491E-1,5.3957456E-1,5.2706426E-1,1.3629785E-1,-2.1205257E-1,2.550283E-1,-6.0051924E-1,-4.941792E-2,-7.935504E-1,-5.2946484E-1,-7.9072315E-1,-9.201169E-1,-3.870001E-3,9.206688E-3,8.162291E-3,2.0258348E-2,-1.4239132E-2,-3.4413415E-3,6.5750126E-3,-4.411091E-3,2.2467578E-2,3.0135965E-2,1.0153948E-2,2.0836694E-2,6.6746776E-3,1.8118607E-2,1.1623388E-2,-2.2971414E-3,-1.01985065E-2,4.425952E-3,1.1386849E-2,-1.045099E-2,-2.269473E-2,-1.1917416E-2,-9.352002E-3,1.40198385E-2,6.775821E-3,-2.4083745E-2,-1.2691739E-2,-2.2324242E-2,-2.3953069E-2,1.2113911E-2,-1.8442964E-2,-2.7793773E-2],"categories":[],"categories_nodes":[],"categories_segments":[],"categories_sizes":[],"default_left":[0,0,0,0,0,0,0,0,0,0,0,0,0,0,0,0,0,0,0,0,0,0,0,0,0,0,0,0,0,0,0,0,0,0,0,0,0,0,0,0,0,0,0,0,0,0,0,0,0,0,0,0,0,0,0,0,0,0,0,0,0,0,0],"id":9,"left_children":[1,3,5,7,9,11,13,15,17,19,21,23,25,27,29,31,33,35,37,39,41,43,45,47,49,51,53,55,57,59,61,-1,-1,-1,-1,-1,-1,-1,-1,-1,-1,-1,-1,-1,-1,-1,-1,-1,-1,-1,-1,-1,-1,-1,-1,-1,-1,-1,-1,-1,-1,-1,-1],"loss_changes":[2.6887532E3,4.5807013E2,2.028501E2,1.9046892E2,9.541931E1,4.3560642E1,4.7586548E1,6.5861206E1,7.577095E1,4.7331665E1,5.1373154E1,2.6255924E1,1.891774E1,2.3891235E1,5.3414307E0,3.609752E1,2.1769363E1,2.7435677E1,4.4819874E1,2.006427E1,2.7411224E1,2.4080414E1,2.6814014E1,1.6054672E1,1.3958492E1,9.623062E0,1.0854167E1,5.6546936E0,1.9558655E1,5.113037E0,1.8125E0,0E0,0E0,0E0,0E0,0E0,0E0,0E0,0E0,0E0,0E0,0E0,0E0,0E0,0E0,0E0,0E0,0E0,0E0,0E0,0E0,0E0,0E0,0E0,0E0,0E0,0E0,0E0,0E0,0E0,0E0,0E0,0E0],"parents":[2147483647,0,0,1,1,2,2,3,3,4,4,5,5,6,6,7,7,8,8,9,9,10,10,11,11,12,12,13,13,14,14,15,15,16,16,17,17,18,18,19,19,20,20,21,21,22,22,23,23,24,24,25,25,26,26,27,27,28,28,29,29,30,30],"right_children":[2,4,6,8,10,12,14,16,18,20,22,24,26,28,30,32,34,36,38,40,42,44,46,48,50,52,54,56,58,60,62,-1,-1,-1,-1,-1,-1,-1,-1,-1,-1,-1,-1,-1,-1,-1,-1,-1,-1,-1,-1,-1,-1,-1,-1,-1,-1,-1,-1,-1,-1,-1,-1],"split_conditions":[5.30855E0,5.219189E0,7.3782034E0,3.5117936E0,3.7573292E0,5.6485987E0,8.895386E0,3.9111285E0,3.3788562E0,5.350422E0,4.736848E0,4.025812E0,3.7770727E0,3.3788562E0,6.311014E0,3.9140153E0,4.0450463E0,4.80365E0,4.4350514E0,6.2434855E0,6.681443E0,5.6590695E0,5.1040573E0,4.999765E0,5.7908144E0,4.136418E0,5.1949778E0,3.490242E0,5.174424E0,7.370997E0,4.500622E0,-3.870001E-3,9.206688E-3,8.162291E-3,2.0258348E-2,-1.4239132E-2,-3.4413415E-3,6.5750126E-3,-4.411091E-3,2.2467578E-2,3.0135965E-2,1.0153948E-2,2.0836694E-2,6.6746776E-3,1.8118607E-2,1.1623388E-2,-2.2971414E-3,-1.01985065E-2,4.425952E-3,1.1386849E-2,-1.045099E-2,-2.269473E-2,-1.1917416E-2,-9.352002E-3,1.40198385E-2,6.775821E-3,-2.4083745E-2,-1.2691739E-2,-2.2324242E-2,-2.3953069E-2,1.2113911E-2,-1.8442964E-2,-2.7793773E-2],"split_indices":[9,100,20,96,110,60,46,4,116,107,66,14,127,116,76,10,103,10,46,34,10,100,54,100,54,44,95,115,89,4,67,0,0,0,0,0,0,0,0,0,0,0,0,0,0,0,0,0,0,0,0,0,0,0,0,0,0,0,0,0,0,0,0],"split_type":[0,0,0,0,0,0,0,0,0,0,0,0,0,0,0,0,0,0,0,0,0,0,0,0,0,0,0,0,0,0,0,0,0,0,0,0,0,0,0,0,0,0,0,0,0,0,0,0,0,0,0,0,0,0,0,0,0,0,0,0,0,0,0],"sum_hessian":[1.1863E4,7.746E3,4.117E3,3.906E3,3.84E3,9.2E2,3.197E3,1.683E3,2.223E3,2.307E3,1.533E3,5.3E2,3.9E2,1.449E3,1.748E3,9.31E2,7.52E2,8.61E2,1.362E3,1.421E3,8.86E2,1.033E3,5E2,3.47E2,1.83E2,3.12E2,7.8E1,5.8E2,8.69E2,5.19E2,1.229E3,2.65E2,6.66E2,1.77E2,5.75E2,4.83E2,3.78E2,7.77E2,5.85E2,9.43E2,4.78E2,3.87E2,4.99E2,2.09E2,8.24E2,2.29E2,2.71E2,2.56E2,9.1E1,1.52E2,3.1E1,1.75E2,1.37E2,5.2E1,2.6E1,5E0,5.75E2,5.83E2,2.86E2,5.16E2,3E0,2.7E1,1.202E3],"tree_param":{"num_deleted":"0","num_feature":"128","num_nodes":"63","size_leaf_vector":"1"}},{"base_weights":[-5.9480604E-4,3.2328263E-1,-6.3291526E-1,2.2426646E-2,5.3220916E-1,-3.354899E-1,-7.768771E-1,2.40669E-1,-1.7010058E-1,3.0630463E-1,6.4262223E-1,-4.5732987E-1,1.22184105E-1,-8.1845975E-1,-5.5236197E-1,-9.306668E-2,3.539783E-1,9.235498E-2,-3.0198783E-1,1.275929E-1,4.9701637E-1,5.4981446E-1,8.342175E-1,-6.409759E-1,-2.92656E-1,-1.9183691E-1,3.6496845E-1,-7.5418067E-1,-8.82076E-1,-7.6933306E-1,-3.8825908E-1,-8.322561E-3,6.0084984E-3,1.3951203E-2,3.251421E-3,7.936589E-3,-5.4466156E-3,-4.085667E-3,-1.501855E-2,2.112478E-2,2.0514783E-3,1.2864914E-2,2.6038263E-2,1.9872885E-2,1.152472E-2,2.6543545E-2,1.635574E-2,-1.3123215E-2,-2.2601282E-2,-6.1144424E-3,-2.1237053E-2,-1.3779595E-2,8.600918E-3,7.2681817E-4,1.7159209E-2,-2.4137584E-2,-1.787775E-2,-2.3383467E-2,-2.7444502E-2,-1.1052811E-2,-2.501367E-2,-3.0425098E-3,-1.5232286E-2],"categories":[],"categories_nodes":[],"categories_segments":[],"categories_sizes":[],"default_left":[0,0,0,0,0,0,0,0,0,0,0,0,0,0,0,0,0,0,0,0,0,0,0,0,0,0,0,0,0,0,0,0,0,0,0,0,0,0,0,0,0,0,0,0,0,0,0,0,0,0,0,0,0,0,0,0,0,0,0,0,0,0,0],"id":10,"left_children":[1,3,5,7,9,11,13,15,17,19,21,23,25,27,29,31,33,35,37,39,41,43,45,47,49,51,53,55,57,59,61,-1,-1,-1,-1,-1,-1,-1,-1,-1,-1,-1,-1,-1,-1,-1,-1,-1,-1,-1,-1,-1,-1,-1,-1,-1,-1,-1,-1,-1,-1,-1,-1],"loss_changes":[2.4233313E3,4.918427E2,1.713534E2,1.3483337E2,1.1498901E2,7.304962E1,2.4755005E1,5.690725E1,5.904569E1,5.167369E1,5.4681885E1,3.1082336E1,2.1112087E1,8.641724E0,1.4833694E1,2.0713995E1,3.05811E1,2.6980133E1,3.731047E1,2.6750706E1,1.8192062E1,3.8772766E1,1.4279053E1,1.0834625E1,2.0035076E1,1.5619651E1,1.098963E1,8.606262E0,3.1107788E0,4.3958282E0,8.311115E0,0E0,0E0,0E0,0E0,0E0,0E0,0E0,0E0,0E0,0E0,0E0,0E0,0E0,0E0,0E0,0E0,0E0,0E0,0E0,0E0,0E0,0E0,0E0,0E0,0E0,0E0,0E0,0E0,0E0,0E0,0E0,0E0],"parents":[2147483647,0,0,1,1,2,2,3,3,4,4,5,5,6,6,7,7,8,8,9,9,10,10,11,11,12,12,13,13,14,14,15,15,16,16,17,17,18,18,19,19,20,20,21,21,22,22,23,23,24,24,25,25,26,26,27,27,28,28,29,29,30,30],"right_children":[2,4,6,8,10,12,14,16,18,20,22,24,26,28,30,32,34,36,38,40,42,44,46,48,50,52,54,56,58,60,62,-1,-1,-1,-1,-1,-1,-1,-1,-1,-1,-1,-1,-1,-1,-1,-1,-1,-1,-1,-1,-1,-1,-1,-1,-1,-1,-1,-1,-1,-1,-1,-1],"split_conditions":[5.227864E0,4.166782E0,6.5909386E0,3.485746E0,4.12283E0,5.6590695E0,4.969059E0,2.825489E0,4.6717224E0,4.602903E0,6.8315725E0,3.624435E0,4.0522213E0,7.1866465E0,3.7540736E0,4.2487354E0,4.93336E0,5.29663E0,4.331476E0,1.8501122E0,5.0678887E0,4.9938464E0,4.09108E0,5.0130787E0,6.3147225E0,6.2740088E0,3.03748E0,4.389392E0,3.5146027E0,3.572462E0,3.2887747E0,-8.322561E-3,6.0084984E-3,1.3951203E-2,3.251421E-3,7.936589E-3,-5.4466156E-3,-4.085667E-3,-1.501855E-2,2.112478E-2,2.0514783E-3,1.2864914E-2,2.6038263E-2,1.9872885E-2,1.152472E-2,2.6543545E-2,1.635574E-2,-1.3123215E-2,-2.2601282E-2,-6.1144424E-3,-2.1237053E-2,-1.3779595E-2,8.600918E-3,7.2681817E-4,1.7159209E-2,-2.4137584E-2,-1.787775E-2,-2.3383467E-2,-2.7444502E-2,-1.1052811E-2,-2.501367E-2,-3.0425098E-3,-1.5232286E-2],"split_indices":[112,74,121,62,72,100,94,4,54,95,100,116,27,64,72,100,8,8,96,98,113,107,8,8,64,31,35,102,71,43,114,0,0,0,0,0,0,0,0,0,0,0,0,0,0,0,0,0,0,0,0,0,0,0,0,0,0,0,0,0,0,0,0],"split_type":[0,0,0,0,0,0,0,0,0,0,0,0,0,0,0,0,0,0,0,0,0,0,0,0,0,0,0,0,0,0,0,0,0,0,0,0,0,0,0,0,0,0,0,0,0,0,0,0,0,0,0,0,0,0,0,0,0,0,0,0,0,0,0],"sum_hessian":[1.1831E4,7.824E3,4.007E3,3.207E3,4.617E3,1.308E3,2.699E3,1.503E3,1.704E3,1.517E3,3.1E3,1.033E3,2.75E2,2.275E3,4.24E2,3.81E2,1.122E3,5.7E2,1.134E3,7.84E2,7.33E2,2.091E3,1.009E3,4.87E2,5.46E2,1.2E2,1.55E2,1.138E3,1.137E3,1.81E2,2.43E2,2.34E2,1.47E2,7.72E2,3.5E2,3.5E2,2.2E2,6.19E2,5.15E2,7.2E1,7.12E2,6.21E2,1.12E2,1.243E3,8.48E2,8.57E2,1.52E2,1.75E2,3.12E2,4.51E2,9.5E1,7.7E1,4.3E1,5.9E1,9.6E1,8.6E2,2.78E2,2.81E2,8.56E2,2.6E1,1.55E2,7.2E1,1.71E2],"tree_param":{"num_deleted":"0","num_feature":"128","num_nodes":"63","size_leaf_vector":"1"}},{"base_weights":[-5.47942E-3,3.0999187E-1,-6.286108E-1,5.737971E-2,5.279755E-1,-1.327117E-1,-7.2819746E-1,2.2214586E-1,-2.4154839E-1,6.78723E-1,3.6871904E-1,-3.2320213E-1,8.821843E-2,-5.557394E-1,-7.9720813E-1,3.3652917E-1,-6.868995E-2,-3.7162527E-1,-4.5221196E-3,4.797298E-1,7.6145405E-1,6.767479E-1,2.6850653E-1,-4.0819696E-1,2.9649243E-1,2.9504144E-1,-2.6200166E-1,-4.5201775E-1,-7.035538E-1,-8.4746647E-1,-6.7190254E-1,1.345667E-2,3.9455965E-3,-1.2336191E-2,1.8793154E-3,-1.4677942E-2,-5.622647E-3,6.6064745E-3,-6.3457014E-3,7.760961E-3,1.9434856E-2,2.0505838E-2,2.8620219E-2,2.2602005E-2,1.3477513E-2,1.0838876E-2,-2.1868579E-3,-5.9225773E-3,-1.6610134E-2,-6.001314E-3,1.849606E-2,-1.25903655E-2,1.082711E-2,-1.4154145E-2,3.998762E-3,-1.7638205E-2,-9.211131E-3,-2.1531763E-2,5.3525553E-3,1.0106993E-2,-2.5514178E-2,-2.5643399E-2,-1.732741E-2],"categories":[],"categories_nodes":[],"categories_segments":[],"categories_sizes":[],"default_left":[0,0,0,0,0,0,0,0,0,0,0,0,0,0,0,0,0,0,0,0,0,0,0,0,0,0,0,0,0,0,0,0,0,0,0,0,0,0,0,0,0,0,0,0,0,0,0,0,0,0,0,0,0,0,0,0,0,0,0,0,0,0,0],"id":11,"left_children":[1,3,5,7,9,11,13,15,17,19,21,23,25,27,29,31,33,35,37,39,41,43,45,47,49,51,53,55,57,59,61,-1,-1,-1,-1,-1,-1,-1,-1,-1,-1,-1,-1,-1,-1,-1,-1,-1,-1,-1,-1,-1,-1,-1,-1,-1,-1,-1,-1,-1,-1,-1,-1],"loss_changes":[2.3389077E3,4.349306E2,1.973938E2,1.803205E2,1.01541626E2,2.8225513E1,3.9188843E1,7.853267E1,4.0110283E1,3.5474426E1,6.353058E1,1.9082527E1,2.2604143E1,1.4323608E1,1.4393799E1,3.8846222E1,3.0030073E1,1.8110779E1,2.15393E1,2.3685944E1,2.2395447E1,8.48526E0,4.9413025E1,9.610775E0,7.1155033E0,9.37779E0,9.683218E0,1.0933685E1,5.0276794E0,6.310791E0,1.1322144E1,0E0,0E0,0E0,0E0,0E0,0E0,0E0,0E0,0E0,0E0,0E0,0E0,0E0,0E0,0E0,0E0,0E0,0E0,0E0,0E0,0E0,0E0,0E0,0E0,0E0,0E0,0E0,0E0,0E0,0E0,0E0,0E0],"parents":[2147483647,0,0,1,1,2,2,3,3,4,4,5,5,6,6,7,7,8,8,9,9,10,10,11,11,12,12,13,13,14,14,15,15,16,16,17,17,18,18,19,19,20,20,21,21,22,22,23,23,24,24,25,25,26,26,27,27,28,28,29,29,30,30],"right_children":[2,4,6,8,10,12,14,16,18,20,22,24,26,28,30,32,34,36,38,40,42,44,46,48,50,52,54,56,58,60,62,-1,-1,-1,-1,-1,-1,-1,-1,-1,-1,-1,-1,-1,-1,-1,-1,-1,-1,-1,-1,-1,-1,-1,-1,-1,-1,-1,-1,-1,-1,-1,-1],"split_conditions":[7.202758E0,4.783861E0,5.122663E0,4.7218866E0,2.7473922E0,3.7099285E0,6.1043034E0,4.93336E0,3.4473515E0,3.1305165E0,2.910274E0,5.894519E0,3.9750006E0,4.832585E0,4.222533E0,4.8651166E0,2.912405E0,4.362087E0,4.939623E0,5.4635115E0,6.4602556E0,4.7149835E0,6.10329E0,4.337092E0,3.7664726E0,2.2611241E0,4.6814294E0,4.333438E0,6.5452204E0,3.468013E0,2.9466355E0,1.345667E-2,3.9455965E-3,-1.2336191E-2,1.8793154E-3,-1.4677942E-2,-5.622647E-3,6.6064745E-3,-6.3457014E-3,7.760961E-3,1.9434856E-2,2.0505838E-2,2.8620219E-2,2.2602005E-2,1.3477513E-2,1.0838876E-2,-2.1868579E-3,-5.9225773E-3,-1.6610134E-2,-6.001314E-3,1.849606E-2,-1.25903655E-2,1.082711E-2,-1.4154145E-2,3.998762E-3,-1.7638205E-2,-9.211131E-3,-2.1531763E-2,5.3525553E-3,1.0106993E-2,-2.5514178E-2,-2.5643399E-2,-1.732741E-2],"split_indices":[20,31,22,22,89,102,64,8,14,4,8,94,75,89,94,122,4,19,13,34,74,24,122,115,72,78,33,72,17,76,116,0,0,0,0,0,0,0,0,0,0,0,0,0,0,0,0,0,0,0,0,0,0,0,0,0,0,0,0,0,0,0,0],"split_type":[0,0,0,0,0,0,0,0,0,0,0,0,0,0,0,0,0,0,0,0,0,0,0,0,0,0,0,0,0,0,0,0,0,0,0,0,0,0,0,0,0,0,0,0,0,0,0,0,0,0,0,0,0,0,0,0,0,0,0,0,0,0,0],"sum_hessian":[1.1896E4,7.898E3,3.998E3,3.659E3,4.239E3,6.69E2,3.329E3,2.359E3,1.3E3,2.176E3,2.063E3,3.59E2,3.1E2,9.54E2,2.375E3,1.693E3,6.66E2,8.39E2,4.61E2,6.41E2,1.535E3,5.05E2,1.558E3,3.16E2,4.3E1,1.95E2,1.15E2,5.63E2,3.91E2,1.691E3,6.84E2,1.094E3,5.99E2,1.84E2,4.82E2,5.11E2,3.28E2,2.21E2,2.4E2,2.78E2,3.63E2,1.096E3,4.39E2,3.76E2,1.29E2,1.225E3,3.33E2,1.3E2,1.86E2,1.7E1,2.6E1,1.6E1,1.79E2,7.5E1,4E1,2.89E2,2.74E2,3.85E2,6E0,4E0,1.687E3,2.3E2,4.54E2],"tree_param":{"num_deleted":"0","num_feature":"128","num_nodes":"63","size_leaf_vector":"1"}},{"base_weights":[9.205953E-4,3.1119463E-1,-5.87091E-1,3.308472E-2,4.9508452E-1,-3.1287578E-1,-7.419124E-1,2.4565893E-1,-1.8228257E-1,2.9093036E-2,5.5111736E-1,-3.5733283E-1,3.8496915E-1,-6.227598E-1,-7.9967624E-1,1.4074546E-1,5.79815E-1,-3.5442865E-1,-7.412204E-3,-2.698109E-1,2.1509098E-1,7.306056E-1,4.445992E-1,-1.2570265E-1,-4.8772767E-1,-5.194212E-1,4.9320585E-1,-6.7987007E-1,-3.3486706E-1,-8.338735E-1,-6.9636E-1,-2.9184879E-3,7.924701E-3,2.0083634E-2,7.51855E-3,-1.354127E-2,-3.7501743E-3,4.720336E-3,-5.611333E-3,-1.3018101E-2,2.2724813E-3,1.31776035E-2,-1.8474422E-4,2.3648756E-2,1.5192312E-2,1.62082E-2,6.144584E-3,-8.380259E-3,3.230683E-3,-1.9047327E-2,-9.700349E-3,7.3474143E-3,-2.2233576E-2,1.698029E-2,-1.0406782E-2,-2.096399E-2,-2.3985738E-3,6.3809142E-3,-1.5181433E-2,-4.903546E-3,-2.5104648E-2,-2.1197988E-2,1.8122647E-2],"categories":[],"categories_nodes":[],"categories_segments":[],"categories_sizes":[],"default_left":[0,0,0,0,0,0,0,0,0,0,0,0,0,0,0,0,0,0,0,0,0,0,0,0,0,0,0,0,0,0,0,0,0,0,0,0,0,0,0,0,0,0,0,0,0,0,0,0,0,0,0,0,0,0,0,0,0,0,0,0,0,0,0],"id":12,"left_children":[1,3,5,7,9,11,13,15,17,19,21,23,25,27,29,31,33,35,37,39,41,43,45,47,49,51,53,55,57,59,61,-1,-1,-1,-1,-1,-1,-1,-1,-1,-1,-1,-1,-1,-1,-1,-1,-1,-1,-1,-1,-1,-1,-1,-1,-1,-1,-1,-1,-1,-1,-1,-1],"loss_changes":[2.160876E3,3.9648456E2,1.7344873E2,1.4137236E2,1.2184302E2,4.599124E1,1.7493286E1,5.4397713E1,4.617576E1,2.7966982E1,7.932385E1,4.1921387E1,8.968235E0,1.3879272E1,5.627075E0,3.4806145E1,1.0780067E1,1.7136536E1,2.2581293E1,1.0978937E1,1.5377386E1,1.9647034E1,5.992517E1,1.80309E1,2.1303513E1,1.8760257E0,5.0893364E0,8.063843E0,1.3605108E1,2.4622192E0,6.325897E0,0E0,0E0,0E0,0E0,0E0,0E0,0E0,0E0,0E0,0E0,0E0,0E0,0E0,0E0,0E0,0E0,0E0,0E0,0E0,0E0,0E0,0E0,0E0,0E0,0E0,0E0,0E0,0E0,0E0,0E0,0E0,0E0],"parents":[2147483647,0,0,1,1,2,2,3,3,4,4,5,5,6,6,7,7,8,8,9,9,10,10,11,11,12,12,13,13,14,14,15,15,16,16,17,17,18,18,19,19,20,20,21,21,22,22,23,23,24,24,25,25,26,26,27,27,28,28,29,29,30,30],"right_children":[2,4,6,8,10,12,14,16,18,20,22,24,26,28,30,32,34,36,38,40,42,44,46,48,50,52,54,56,58,60,62,-1,-1,-1,-1,-1,-1,-1,-1,-1,-1,-1,-1,-1,-1,-1,-1,-1,-1,-1,-1,-1,-1,-1,-1,-1,-1,-1,-1,-1,-1,-1,-1],"split_conditions":[5.25426E0,4.492903E0,7.4602613E0,3.7923267E0,2.680873E0,6.123701E0,6.590767E0,4.8523884E0,3.7013211E0,5.4600863E0,3.1145637E0,4.6782794E0,3.534577E0,5.112512E0,4.2797136E0,3.8874073E0,4.1299386E0,4.4013076E0,4.785391E0,3.6833386E0,4.2467737E0,6.310396E0,5.485697E0,4.948022E0,3.469871E0,3.0017014E0,7.480178E0,5.1677227E0,4.233234E0,3.0876305E0,6.6132994E0,-2.9184879E-3,7.924701E-3,2.0083634E-2,7.51855E-3,-1.354127E-2,-3.7501743E-3,4.720336E-3,-5.611333E-3,-1.3018101E-2,2.2724813E-3,1.31776035E-2,-1.8474422E-4,2.3648756E-2,1.5192312E-2,1.62082E-2,6.144584E-3,-8.380259E-3,3.230683E-3,-1.9047327E-2,-9.700349E-3,7.3474143E-3,-2.2233576E-2,1.698029E-2,-1.0406782E-2,-2.096399E-2,-2.3985738E-3,6.3809142E-3,-1.5181433E-2,-4.903546E-3,-2.5104648E-2,-2.1197988E-2,1.8122647E-2],"split_indices":[9,31,46,96,116,31,64,17,116,31,8,60,19,94,94,19,101,44,8,51,85,54,1,56,102,7,62,120,106,7,102,0,0,0,0,0,0,0,0,0,0,0,0,0,0,0,0,0,0,0,0,0,0,0,0,0,0,0,0,0,0,0,0],"split_type":[0,0,0,0,0,0,0,0,0,0,0,0,0,0,0,0,0,0,0,0,0,0,0,0,0,0,0,0,0,0,0,0,0,0,0,0,0,0,0,0,0,0,0,0,0,0,0,0,0,0,0,0,0,0,0,0,0,0,0,0,0,0,0],"sum_hessian":[1.1842E4,7.752E3,4.09E3,3.086E3,4.666E3,1.477E3,2.613E3,1.553E3,1.533E3,5.01E2,4.165E3,1.389E3,8.8E1,8.57E2,1.756E3,1.183E3,3.7E2,7.72E2,7.61E2,1.92E2,3.09E2,1.549E3,2.616E3,5.01E2,8.88E2,9E0,7.9E1,7.14E2,1.43E2,1.314E3,4.42E2,4.04E2,7.79E2,2.9E2,8E1,5.42E2,2.3E2,3.97E2,3.64E2,1.3E2,6.2E1,1.53E2,1.56E2,1.23E3,3.19E2,1.869E3,7.47E2,3.02E2,1.99E2,4.67E2,4.21E2,2E0,7E0,7.3E1,6E0,6.92E2,2.2E1,3.4E1,1.09E2,6E0,1.308E3,4.39E2,3E0],"tree_param":{"num_deleted":"0","num_feature":"128","num_nodes":"63","size_leaf_vector":"1"}},{"base_weights":[5.501952E-4,3.0212706E-1,-5.739623E-1,-1.8532066E-2,4.616031E-1,-2.9401317E-1,-7.1810466E-1,-2.3173124E-1,1.7280208E-1,6.8362164E-1,3.4575385E-1,-3.7311515E-1,2.7714804E-1,-5.248418E-1,-7.549165E-1,-8.467911E-3,-3.9293048E-1,2.7334037E-1,-9.773999E-2,7.6581013E-1,4.9270856E-1,4.498593E-1,1.1533313E-2,-2.1809755E-1,-5.4226184E-1,4.8226753E-1,-1.5269136E-1,-5.789667E-1,-1.4183627E-2,-6.724129E-1,-7.992301E-1,6.3953334E-3,-6.2913187E-3,-1.3308772E-2,1.7904476E-3,-5.0340495E-3,9.888069E-3,-7.545155E-3,7.482474E-3,1.6496914E-2,2.5234424E-2,-3.9017168E-3,1.6234705E-2,1.7677726E-2,8.426699E-3,4.9558645E-3,-6.033774E-3,-1.2812647E-2,-2.4000178E-3,-1.909228E-2,-1.1168437E-2,7.296448E-3,2.447575E-2,7.938298E-3,-1.23189725E-2,-1.7774079E-2,1.7863134E-2,-1.1380292E-2,1.0548616E-2,-2.1806324E-2,-1.6248576E-2,-7.3234625E-3,-2.4096783E-2],"categories":[],"categories_nodes":[],"categories_segments":[],"categories_sizes":[],"default_left":[0,0,0,0,0,0,0,0,0,0,0,0,0,0,0,0,0,0,0,0,0,0,0,0,0,0,0,0,0,0,0,0,0,0,0,0,0,0,0,0,0,0,0,0,0,0,0,0,0,0,0,0,0,0,0,0,0,0,0,0,0,0,0],"id":13,"left_children":[1,3,5,7,9,11,13,15,17,19,21,23,25,27,29,31,33,35,37,39,41,43,45,47,49,51,53,55,57,59,61,-1,-1,-1,-1,-1,-1,-1,-1,-1,-1,-1,-1,-1,-1,-1,-1,-1,-1,-1,-1,-1,-1,-1,-1,-1,-1,-1,-1,-1,-1,-1,-1],"loss_changes":[2.0721858E3,4.010796E2,1.6592017E2,1.0634473E2,1.3448853E2,6.340059E1,1.8933594E1,4.4372192E1,3.73993E1,2.778778E1,1.1982596E2,3.2159424E1,1.515044E1,1.2097809E1,7.798462E0,2.314988E1,1.64553E1,2.4924446E1,1.9973644E1,1.991919E1,1.645372E1,6.1687378E1,2.679623E1,1.8552301E1,9.172989E0,9.052074E0,6.13645E0,6.6324005E0,5.877189E0,5.326538E0,3.0825195E0,0E0,0E0,0E0,0E0,0E0,0E0,0E0,0E0,0E0,0E0,0E0,0E0,0E0,0E0,0E0,0E0,0E0,0E0,0E0,0E0,0E0,0E0,0E0,0E0,0E0,0E0,0E0,0E0,0E0,0E0,0E0,0E0],"parents":[2147483647,0,0,1,1,2,2,3,3,4,4,5,5,6,6,7,7,8,8,9,9,10,10,11,11,12,12,13,13,14,14,15,15,16,16,17,17,18,18,19,19,20,20,21,21,22,22,23,23,24,24,25,25,26,26,27,27,28,28,29,29,30,30],"right_children":[2,4,6,8,10,12,14,16,18,20,22,24,26,28,30,32,34,36,38,40,42,44,46,48,50,52,54,56,58,60,62,-1,-1,-1,-1,-1,-1,-1,-1,-1,-1,-1,-1,-1,-1,-1,-1,-1,-1,-1,-1,-1,-1,-1,-1,-1,-1,-1,-1,-1,-1,-1,-1],"split_conditions":[5.6790485E0,4.80365E0,7.4602613E0,3.5313616E0,3.1145637E0,7.3095846E0,4.1182084E0,4.112629E0,4.2828045E0,4.3054953E0,5.821039E0,4.9938464E0,4.114805E0,6.3537507E0,6.311014E0,3.3540564E0,4.5992527E0,2.9558904E0,3.7493346E0,3.124032E0,3.6139126E0,3.7943683E0,4.044223E0,3.4875422E0,4.106239E0,7.7130146E0,4.466181E0,5.807936E0,4.0331144E0,4.6403584E0,2.8402631E0,6.3953334E-3,-6.2913187E-3,-1.3308772E-2,1.7904476E-3,-5.0340495E-3,9.888069E-3,-7.545155E-3,7.482474E-3,1.6496914E-2,2.5234424E-2,-3.9017168E-3,1.6234705E-2,1.7677726E-2,8.426699E-3,4.9558645E-3,-6.033774E-3,-1.2812647E-2,-2.4000178E-3,-1.909228E-2,-1.1168437E-2,7.296448E-3,2.447575E-2,7.938298E-3,-1.23189725E-2,-1.7774079E-2,1.7863134E-2,-1.1380292E-2,1.0548616E-2,-2.1806324E-2,-1.6248576E-2,-7.3234625E-3,-2.4096783E-2],"split_indices":[110,10,46,102,8,10,89,22,101,24,122,107,85,100,76,121,4,10,47,102,33,110,62,102,74,56,87,32,21,90,29,0,0,0,0,0,0,0,0,0,0,0,0,0,0,0,0,0,0,0,0,0,0,0,0,0,0,0,0,0,0,0,0],"split_type":[0,0,0,0,0,0,0,0,0,0,0,0,0,0,0,0,0,0,0,0,0,0,0,0,0,0,0,0,0,0,0,0,0,0,0,0,0,0,0,0,0,0,0,0,0,0,0,0,0,0,0,0,0,0,0,0,0,0,0,0,0,0,0],"sum_hessian":[1.1958E4,7.842E3,4.116E3,2.605E3,5.237E3,1.4E3,2.716E3,1.232E3,1.373E3,1.794E3,3.443E3,1.23E3,1.7E2,4.37E2,2.279E3,5.17E2,7.15E2,1.001E3,3.72E2,1.252E3,5.42E2,2.625E3,8.18E2,6.43E2,5.87E2,1.15E2,5.5E1,3.95E2,4.2E1,8.02E2,1.477E3,2.46E2,2.71E2,6.43E2,7.2E1,1.13E2,8.88E2,2.58E2,1.14E2,3.26E2,9.26E2,3.9E1,5.03E2,1.437E3,1.188E3,4.75E2,3.43E2,2.55E2,3.88E2,3.76E2,2.11E2,6.8E1,4.7E1,2.1E1,3.4E1,3.91E2,4E0,2.1E1,2.1E1,5.63E2,2.39E2,1.1E1,1.466E3],"tree_param":{"num_deleted":"0","num_feature":"128","num_nodes":"63","size_leaf_vector":"1"}},{"base_weights":[1.7072298E-3,3.0005917E-1,-5.484447E-1,7.1365476E-2,5.013348E-1,-2.6742432E-1,-7.042682E-1,-1.2389484E-1,2.7379248E-1,3.405343E-1,6.3069373E-1,-3.953559E-1,-8.150384E-3,-5.4333806E-1,-7.473785E-1,-4.564154E-4,-3.993911E-1,3.7202927E-1,-1.5816372E-2,6.212208E-1,2.3031852E-1,7.676669E-1,5.3351796E-1,-1.991557E-1,-5.347206E-1,-9.4184004E-2,5.571497E-1,-6.335335E-1,-2.8776982E-1,-6.8756044E-1,-7.964984E-1,3.894329E-3,-7.5843167E-3,-1.5808016E-2,-7.5593116E-3,1.587561E-2,5.9462986E-3,-8.510903E-3,6.6184546E-3,1.4461602E-2,2.2988308E-2,1.0917539E-2,1.6067E-4,2.4135705E-2,1.3973595E-2,1.8494168E-2,8.698456E-3,-1.0543719E-2,9.843379E-4,-1.828863E-2,-5.203922E-3,-8.46656E-3,4.2554964E-3,8.898052E-3,2.8096914E-2,-1.1566137E-2,-2.1241333E-2,-1.4007144E-2,6.377573E-4,-2.1982677E-2,-1.6490223E-2,-2.1746255E-2,-2.4608366E-2],"categories":[],"categories_nodes":[],"categories_segments":[],"categories_sizes":[],"default_left":[0,0,0,0,0,0,0,0,0,0,0,0,0,0,0,0,0,0,0,0,0,0,0,0,0,0,0,0,0,0,0,0,0,0,0,0,0,0,0,0,0,0,0,0,0,0,0,0,0,0,0,0,0,0,0,0,0,0,0,0,0,0,0],"id":14,"left_children":[1,3,5,7,9,11,13,15,17,19,21,23,25,27,29,31,33,35,37,39,41,43,45,47,49,51,53,55,57,59,61,-1,-1,-1,-1,-1,-1,-1,-1,-1,-1,-1,-1,-1,-1,-1,-1,-1,-1,-1,-1,-1,-1,-1,-1,-1,-1,-1,-1,-1,-1,-1,-1],"loss_changes":[1.9386448E3,3.5246545E2,1.8166968E2,1.4177402E2,8.450769E1,4.918689E1,1.8124756E1,6.2096275E1,5.010675E1,5.6098724E1,2.9618896E1,2.7045486E1,2.3932169E1,1.2910706E1,5.6345215E0,4.15192E1,1.049012E1,3.5817047E1,2.8373503E1,9.9664E0,3.9279823E1,1.0017273E1,2.6552643E1,1.4637711E1,1.5588043E1,1.8991386E1,6.1478252E0,7.4694824E0,8.313594E0,5.55484E0,1.3624268E0,0E0,0E0,0E0,0E0,0E0,0E0,0E0,0E0,0E0,0E0,0E0,0E0,0E0,0E0,0E0,0E0,0E0,0E0,0E0,0E0,0E0,0E0,0E0,0E0,0E0,0E0,0E0,0E0,0E0,0E0,0E0,0E0],"parents":[2147483647,0,0,1,1,2,2,3,3,4,4,5,5,6,6,7,7,8,8,9,9,10,10,11,11,12,12,13,13,14,14,15,15,16,16,17,17,18,18,19,19,20,20,21,21,22,22,23,23,24,24,25,25,26,26,27,27,28,28,29,29,30,30],"right_children":[2,4,6,8,10,12,14,16,18,20,22,24,26,28,30,32,34,36,38,40,42,44,46,48,50,52,54,56,58,60,62,-1,-1,-1,-1,-1,-1,-1,-1,-1,-1,-1,-1,-1,-1,-1,-1,-1,-1,-1,-1,-1,-1,-1,-1,-1,-1,-1,-1,-1,-1,-1,-1],"split_conditions":[5.19765E0,4.8061666E0,6.5909386E0,4.1156235E0,4.4969277E0,4.5144553E0,3.856093E0,5.1726866E0,4.8447113E0,2.9231768E0,3.5299973E0,5.020975E0,5.91786E0,4.389392E0,7.1866465E0,4.825977E0,4.7068167E0,4.5431585E0,3.8952107E0,5.603196E0,4.368278E0,4.325268E0,4.939623E0,4.0263596E0,3.6107092E0,3.9926877E0,5.223074E0,4.369218E0,4.568076E0,4.3467703E0,4.5240335E0,3.894329E-3,-7.5843167E-3,-1.5808016E-2,-7.5593116E-3,1.587561E-2,5.9462986E-3,-8.510903E-3,6.6184546E-3,1.4461602E-2,2.2988308E-2,1.0917539E-2,1.6067E-4,2.4135705E-2,1.3973595E-2,1.8494168E-2,8.698456E-3,-1.0543719E-2,9.843379E-4,-1.828863E-2,-5.203922E-3,-8.46656E-3,4.2554964E-3,8.898052E-3,2.8096914E-2,-1.1566137E-2,-2.1241333E-2,-1.4007144E-2,6.377573E-4,-2.1982677E-2,-1.6490223E-2,-2.1746255E-2,-2.4608366E-2],"split_indices":[9,31,121,116,124,44,43,22,0,8,66,60,68,102,64,8,10,1,102,118,85,8,13,51,127,51,99,89,68,118,43,0,0,0,0,0,0,0,0,0,0,0,0,0,0,0,0,0,0,0,0,0,0,0,0,0,0,0,0,0,0,0,0],"split_type":[0,0,0,0,0,0,0,0,0,0,0,0,0,0,0,0,0,0,0,0,0,0,0,0,0,0,0,0,0,0,0,0,0,0,0,0,0,0,0,0,0,0,0,0,0,0,0,0,0,0,0,0,0,0,0,0,0,0,0,0,0,0,0],"sum_hessian":[1.1809E4,7.657E3,4.152E3,3.585E3,4.072E3,1.482E3,2.67E3,1.825E3,1.76E3,1.817E3,2.255E3,9.92E2,4.9E2,5.67E2,2.103E3,1.261E3,5.64E2,1.314E3,4.46E2,5.11E2,1.306E3,9.33E2,1.322E3,4.13E2,5.79E2,4.26E2,6.4E1,4.18E2,1.49E2,9.55E2,1.148E3,8.32E2,4.29E2,3.01E2,2.63E2,6.89E2,6.25E2,2.09E2,2.37E2,2.63E2,2.48E2,8.19E2,4.87E2,8.3E2,1.03E2,9.85E2,3.37E2,2.49E2,1.64E2,4.79E2,1E2,2.37E2,1.89E2,3.9E1,2.5E1,9.8E1,3.2E2,9.4E1,5.5E1,7.16E2,2.39E2,2.94E2,8.54E2],"tree_param":{"num_deleted":"0","num_feature":"128","num_nodes":"63","size_leaf_vector":"1"}},{"base_weights":[-4.036063E-3,3.001131E-1,-5.1903707E-1,5.033943E-1,1.0818568E-1,-1.0096983E-1,-6.279385E-1,3.544465E-1,6.3299894E-1,-1.4257853E-1,2.5378945E-1,1.3676302E-1,-2.6249427E-1,-6.800487E-1,-3.9599934E-1,4.3154186E-1,-1.8384982E-2,1.9163847E-1,6.712052E-1,1.4441282E-1,-2.6551324E-1,3.6728084E-1,-1.0333111E-2,2.7049765E-1,-2.9183015E-1,-1.1851949E-1,-4.398907E-1,-5.450704E-1,-7.3232144E-1,-2.2184208E-1,-6.0869265E-1,1.0571918E-2,1.906903E-2,-6.9405176E-3,7.886301E-3,-1.665986E-2,8.269119E-3,2.2314675E-2,1.4316716E-2,-4.9911398E-3,9.708555E-3,-5.241744E-3,-1.6672652E-2,6.8690176E-3,1.5838234E-2,-4.0681004E-3,9.16847E-3,2.8004097E-3,1.6862482E-2,2.2892295E-3,-1.48015255E-2,-2.000897E-5,-1.2646826E-2,-5.1268353E-3,-1.7533112E-2,-1.8523252E-2,-1.1081035E-2,-2.3173794E-2,-1.9920308E-2,-7.686553E-3,2.9589776E-2,-2.0027265E-2,-8.009641E-3],"categories":[],"categories_nodes":[],"categories_segments":[],"categories_sizes":[],"default_left":[0,0,0,0,0,0,0,0,0,0,0,0,0,0,0,0,0,0,0,0,0,0,0,0,0,0,0,0,0,0,0,0,0,0,0,0,0,0,0,0,0,0,0,0,0,0,0,0,0,0,0,0,0,0,0,0,0,0,0,0,0,0,0],"id":15,"left_children":[1,3,5,7,9,11,13,15,17,19,21,23,25,27,29,31,33,35,37,39,41,43,45,47,49,51,53,55,57,59,61,-1,-1,-1,-1,-1,-1,-1,-1,-1,-1,-1,-1,-1,-1,-1,-1,-1,-1,-1,-1,-1,-1,-1,-1,-1,-1,-1,-1,-1,-1,-1,-1],"loss_changes":[1.8511367E3,2.898288E2,1.9971399E2,6.94256E1,1.3962238E2,3.4902794E1,4.1803467E1,4.8325897E1,3.238275E1,4.9608425E1,7.251486E1,2.1171873E1,1.3765335E1,1.9645996E1,2.360894E1,2.2276855E1,1.7371645E1,9.878445E0,2.4634277E1,2.3556833E1,2.5831894E1,3.7477905E1,2.8854944E1,1.4462444E1,6.5672193E0,1.0713976E1,9.309666E0,9.906464E0,5.0942383E0,1.4955183E1,5.616478E0,0E0,0E0,0E0,0E0,0E0,0E0,0E0,0E0,0E0,0E0,0E0,0E0,0E0,0E0,0E0,0E0,0E0,0E0,0E0,0E0,0E0,0E0,0E0,0E0,0E0,0E0,0E0,0E0,0E0,0E0,0E0,0E0],"parents":[2147483647,0,0,1,1,2,2,3,3,4,4,5,5,6,6,7,7,8,8,9,9,10,10,11,11,12,12,13,13,14,14,15,15,16,16,17,17,18,18,19,19,20,20,21,21,22,22,23,23,24,24,25,25,26,26,27,27,28,28,29,29,30,30],"right_children":[2,4,6,8,10,12,14,16,18,20,22,24,26,28,30,32,34,36,38,40,42,44,46,48,50,52,54,56,58,60,62,-1,-1,-1,-1,-1,-1,-1,-1,-1,-1,-1,-1,-1,-1,-1,-1,-1,-1,-1,-1,-1,-1,-1,-1,-1,-1,-1,-1,-1,-1,-1,-1],"split_conditions":[6.879592E0,3.744311E0,4.704552E0,5.258341E0,3.1513488E0,3.454677E0,5.0087976E0,5.2059307E0,2.547357E0,3.537088E0,3.2302728E0,5.6388803E0,5.066859E0,6.1043034E0,7.6327186E0,4.4446588E0,3.5850143E0,2.129717E0,6.042882E0,3.0600326E0,5.9105167E0,4.5605955E0,4.721809E0,4.652964E0,3.9720979E0,5.2142553E0,3.9278226E0,4.0707693E0,3.5088267E0,5.168954E0,4.773567E0,1.0571918E-2,1.906903E-2,-6.9405176E-3,7.886301E-3,-1.665986E-2,8.269119E-3,2.2314675E-2,1.4316716E-2,-4.9911398E-3,9.708555E-3,-5.241744E-3,-1.6672652E-2,6.8690176E-3,1.5838234E-2,-4.0681004E-3,9.16847E-3,2.8004097E-3,1.6862482E-2,2.2892295E-3,-1.48015255E-2,-2.000897E-5,-1.2646826E-2,-5.1268353E-3,-1.7533112E-2,-1.8523252E-2,-1.1081035E-2,-2.3173794E-2,-1.9920308E-2,-7.686553E-3,2.9589776E-2,-2.0027265E-2,-8.009641E-3],"split_indices":[20,8,60,34,4,75,94,22,51,115,98,107,66,64,112,102,127,47,54,109,60,118,51,95,66,107,6,102,94,127,51,0,0,0,0,0,0,0,0,0,0,0,0,0,0,0,0,0,0,0,0,0,0,0,0,0,0,0,0,0,0,0,0],"split_type":[0,0,0,0,0,0,0,0,0,0,0,0,0,0,0,0,0,0,0,0,0,0,0,0,0,0,0,0,0,0,0,0,0,0,0,0,0,0,0,0,0,0,0,0,0,0,0,0,0,0,0,0,0,0,0,0,0,0,0,0,0,0,0],"sum_hessian":[1.1816E4,7.429E3,4.387E3,3.607E3,3.822E3,9.07E2,3.48E3,1.68E3,1.927E3,1.404E3,2.418E3,3.67E2,5.4E2,2.84E3,6.4E2,1.392E3,2.88E2,1.54E2,1.773E3,4.21E2,9.83E2,1.691E3,7.27E2,2.8E2,8.7E1,2.99E2,2.41E2,7.96E2,2.044E3,3.53E2,2.87E2,1.005E3,3.87E2,1.64E2,1.24E2,1.5E1,1.39E2,1.288E3,4.85E2,1.54E2,2.67E2,7.5E2,2.33E2,9.1E2,7.81E2,5.21E2,2.06E2,1.75E2,1.05E2,3.1E1,5.6E1,2.16E2,8.3E1,8.5E1,1.56E2,5.62E2,2.34E2,1.281E3,7.63E2,3.44E2,9E0,2.44E2,4.3E1],"tree_param":{"num_deleted":"0","num_feature":"128","num_nodes":"63","size_leaf_vector":"1"}},{"base_weights":[2.7716102E-3,2.9726285E-1,-5.04683E-1,4.839943E-2,4.5496887E-1,-9.2889406E-2,-6.1437964E-1,-2.3030794E-1,1.7976354E-1,3.0893376E-1,5.924029E-1,1.23107255E-1,-2.408193E-1,-4.5384672E-1,-6.828763E-1,-6.51352E-2,-4.1806147E-1,3.7104598E-1,-1.162881E-3,4.5378104E-1,1.1918644E-1,7.005427E-1,4.3567532E-1,-6.437878E-2,4.085717E-1,-3.4822795E-1,2.378805E-2,-5.07209E-1,4.2002328E-2,-7.2876847E-1,-5.6319565E-1,7.469761E-3,-5.6705945E-3,-1.9536555E-2,-9.823799E-3,8.345819E-3,1.9020129E-2,5.508293E-3,-5.6437263E-3,1.641054E-2,6.448843E-3,-2.6495226E-3,7.5367256E-3,-1.3342646E-3,2.1508118E-2,1.6057903E-2,5.532148E-3,-6.143923E-3,9.825783E-3,1.5132369E-2,-5.8516646E-3,-8.785826E-3,-2.4249874E-2,5.925851E-3,-1.0025206E-2,-1.6242502E-2,-6.1316756E-3,1.3908563E-2,-7.614876E-3,-2.2002341E-2,-3.1691478E-3,-2.0114115E-2,-1.2920856E-2],"categories":[],"categories_nodes":[],"categories_segments":[],"categories_sizes":[],"default_left":[0,0,0,0,0,0,0,0,0,0,0,0,0,0,0,0,0,0,0,0,0,0,0,0,0,0,0,0,0,0,0,0,0,0,0,0,0,0,0,0,0,0,0,0,0,0,0,0,0,0,0,0,0,0,0,0,0,0,0,0,0,0,0],"id":16,"left_children":[1,3,5,7,9,11,13,15,17,19,21,23,25,27,29,31,33,35,37,39,41,43,45,47,49,51,53,55,57,59,61,-1,-1,-1,-1,-1,-1,-1,-1,-1,-1,-1,-1,-1,-1,-1,-1,-1,-1,-1,-1,-1,-1,-1,-1,-1,-1,-1,-1,-1,-1,-1,-1],"loss_changes":[1.7698297E3,2.9409692E2,1.9639746E2,1.0650953E2,9.187891E1,2.9298012E1,3.7450317E1,2.8875725E1,6.842053E1,6.112616E1,3.972711E1,1.9989485E1,1.5469368E1,2.7274704E1,1.2798706E1,1.938808E1,8.996986E0,2.3287598E1,3.516715E1,2.7983124E1,2.646159E1,1.7083008E1,2.4099075E1,1.2504026E1,8.660486E0,9.621891E0,9.892401E0,9.5230255E0,1.2715152E1,4.9421387E0,9.24881E0,0E0,0E0,0E0,0E0,0E0,0E0,0E0,0E0,0E0,0E0,0E0,0E0,0E0,0E0,0E0,0E0,0E0,0E0,0E0,0E0,0E0,0E0,0E0,0E0,0E0,0E0,0E0,0E0,0E0,0E0,0E0,0E0],"parents":[2147483647,0,0,1,1,2,2,3,3,4,4,5,5,6,6,7,7,8,8,9,9,10,10,11,11,12,12,13,13,14,14,15,15,16,16,17,17,18,18,19,19,20,20,21,21,22,22,23,23,24,24,25,25,26,26,27,27,28,28,29,29,30,30],"right_children":[2,4,6,8,10,12,14,16,18,20,22,24,26,28,30,32,34,36,38,40,42,44,46,48,50,52,54,56,58,60,62,-1,-1,-1,-1,-1,-1,-1,-1,-1,-1,-1,-1,-1,-1,-1,-1,-1,-1,-1,-1,-1,-1,-1,-1,-1,-1,-1,-1,-1,-1,-1,-1],"split_conditions":[6.879592E0,4.544612E0,4.704552E0,2.9765017E0,4.5727277E0,4.3596735E0,6.1043034E0,3.1752234E0,3.2914548E0,4.3984814E0,3.5550494E0,4.131532E0,5.0573816E0,5.3809876E0,4.2606688E0,3.5507774E0,3.15912E0,5.9441824E0,4.0779824E0,3.0715394E0,3.93296E0,2.6388907E0,4.223458E0,4.5215583E0,6.499118E0,5.9567275E0,4.677153E0,5.74648E0,3.8372238E0,7.7454453E0,4.04723E0,7.469761E-3,-5.6705945E-3,-1.9536555E-2,-9.823799E-3,8.345819E-3,1.9020129E-2,5.508293E-3,-5.6437263E-3,1.641054E-2,6.448843E-3,-2.6495226E-3,7.5367256E-3,-1.3342646E-3,2.1508118E-2,1.6057903E-2,5.532148E-3,-6.143923E-3,9.825783E-3,1.5132369E-2,-5.8516646E-3,-8.785826E-3,-2.4249874E-2,5.925851E-3,-1.0025206E-2,-1.6242502E-2,-6.1316756E-3,1.3908563E-2,-7.614876E-3,-2.2002341E-2,-3.1691478E-3,-2.0114115E-2,-1.2920856E-2],"split_indices":[20,31,60,4,19,66,64,112,75,66,8,31,72,74,94,22,105,19,22,75,72,72,85,4,54,115,122,125,89,72,72,0,0,0,0,0,0,0,0,0,0,0,0,0,0,0,0,0,0,0,0,0,0,0,0,0,0,0,0,0,0,0,0],"split_type":[0,0,0,0,0,0,0,0,0,0,0,0,0,0,0,0,0,0,0,0,0,0,0,0,0,0,0,0,0,0,0,0,0,0,0,0,0,0,0,0,0,0,0,0,0,0,0,0,0,0,0,0,0,0,0,0,0,0,0,0,0,0,0],"sum_hessian":[1.1841E4,7.493E3,4.348E3,2.907E3,4.586E3,9.15E2,3.433E3,9.31E2,1.976E3,2.225E3,2.361E3,3.72E2,5.43E2,1.029E3,2.404E3,4.96E2,4.35E2,9.6E2,1.016E3,1.261E3,9.64E2,1.395E3,9.66E2,2.25E2,1.47E2,3.86E2,1.57E2,9.29E2,1E2,1.734E3,6.7E2,1.4E2,3.56E2,1.2E2,3.15E2,7.11E2,2.49E2,5.11E2,5.05E2,9.06E2,3.55E2,3.75E2,5.89E2,3E1,1.365E3,6.91E2,2.75E2,1.66E2,5.9E1,1.27E2,2E1,3.46E2,4E1,1.06E2,5.1E1,8.34E2,9.5E1,4.1E1,5.9E1,1.721E3,1.3E1,3.68E2,3.02E2],"tree_param":{"num_deleted":"0","num_feature":"128","num_nodes":"63","size_leaf_vector":"1"}},{"base_weights":[-4.4598505E-3,2.5943688E-1,-5.262877E-1,4.4503114E-1,2.217481E-2,-2.832455E-1,-6.4412224E-1,3.134581E-1,6.0121256E-1,2.0016238E-1,-1.7377637E-1,-4.1320795E-1,-2.146587E-2,-5.042717E-1,-6.8240446E-1,7.473463E-2,4.2276722E-1,6.959133E-1,4.3159273E-1,-8.307765E-2,2.9380488E-1,-3.607093E-1,1.7051751E-3,-5.237911E-1,-2.1864566E-1,-1.5899569E-1,4.1513324E-1,-5.614707E-1,-1.3975933E-1,-7.3173267E-1,-6.072755E-1,5.5053816E-3,-6.481653E-3,7.928323E-3,1.5762286E-2,1.4547826E-2,2.2379166E-2,3.4256622E-3,1.6057532E-2,-8.519207E-3,3.931208E-3,1.0528367E-2,-4.602576E-3,5.5365018E-3,-1.2112603E-2,8.204262E-3,-3.6968447E-3,-1.72801E-2,-6.8677743E-3,3.6637518E-3,-9.418479E-3,5.3632045E-3,-9.262463E-3,-1.1220324E-2,1.566391E-2,-1.8679967E-2,-1.0519629E-2,-9.872552E-3,3.0234016E-3,2.1772118E-2,-2.2003837E-2,9.690152E-3,-1.8498598E-2],"categories":[],"categories_nodes":[],"categories_segments":[],"categories_sizes":[],"default_left":[0,0,0,0,0,0,0,0,0,0,0,0,0,0,0,0,0,0,0,0,0,0,0,0,0,0,0,0,0,0,0,0,0,0,0,0,0,0,0,0,0,0,0,0,0,0,0,0,0,0,0,0,0,0,0,0,0,0,0,0,0,0,0],"id":17,"left_children":[1,3,5,7,9,11,13,15,17,19,21,23,25,27,29,31,33,35,37,39,41,43,45,47,49,51,53,55,57,59,61,-1,-1,-1,-1,-1,-1,-1,-1,-1,-1,-1,-1,-1,-1,-1,-1,-1,-1,-1,-1,-1,-1,-1,-1,-1,-1,-1,-1,-1,-1,-1,-1],"loss_changes":[1.6326726E3,3.467176E2,1.1385718E2,9.0598206E1,1.2060415E2,4.4287163E1,1.4009399E1,6.2595566E1,3.2131042E1,4.808464E1,5.3994823E1,1.8603775E1,2.6065659E1,1.2014374E1,7.345581E0,2.392147E1,2.6637909E1,1.3305176E1,2.3825424E1,1.9437166E1,3.4859314E1,1.8780258E1,2.8893887E1,8.397293E0,1.0333451E1,1.674725E1,8.9766445E0,6.244995E0,3.676389E0,3.7167969E0,7.492584E0,0E0,0E0,0E0,0E0,0E0,0E0,0E0,0E0,0E0,0E0,0E0,0E0,0E0,0E0,0E0,0E0,0E0,0E0,0E0,0E0,0E0,0E0,0E0,0E0,0E0,0E0,0E0,0E0,0E0,0E0,0E0,0E0],"parents":[2147483647,0,0,1,1,2,2,3,3,4,4,5,5,6,6,7,7,8,8,9,9,10,10,11,11,12,12,13,13,14,14,15,15,16,16,17,17,18,18,19,19,20,20,21,21,22,22,23,23,24,24,25,25,26,26,27,27,28,28,29,29,30,30],"right_children":[2,4,6,8,10,12,14,16,18,20,22,24,26,28,30,32,34,36,38,40,42,44,46,48,50,52,54,56,58,60,62,-1,-1,-1,-1,-1,-1,-1,-1,-1,-1,-1,-1,-1,-1,-1,-1,-1,-1,-1,-1,-1,-1,-1,-1,-1,-1,-1,-1,-1,-1,-1,-1],"split_conditions":[5.227864E0,4.0355983E0,6.5909386E0,5.3841558E0,4.850216E0,5.4071255E0,3.8922005E0,2.878704E0,5.336436E0,3.2148347E0,3.384933E0,4.183287E0,4.9286118E0,6.2275047E0,4.2376337E0,5.2059307E0,3.3695414E0,2.9271731E0,3.3526902E0,3.7810097E0,3.7162666E0,1.7793936E0,3.0460196E0,4.9803853E0,4.662884E0,4.569956E0,2.5487714E0,4.8842645E0,3.9473314E0,1.6244209E0,2.1948006E0,5.5053816E-3,-6.481653E-3,7.928323E-3,1.5762286E-2,1.4547826E-2,2.2379166E-2,3.4256622E-3,1.6057532E-2,-8.519207E-3,3.931208E-3,1.0528367E-2,-4.602576E-3,5.5365018E-3,-1.2112603E-2,8.204262E-3,-3.6968447E-3,-1.72801E-2,-6.8677743E-3,3.6637518E-3,-9.418479E-3,5.3632045E-3,-9.262463E-3,-1.1220324E-2,1.566391E-2,-1.8679967E-2,-1.0519629E-2,-9.872552E-3,3.0234016E-3,2.1772118E-2,-2.2003837E-2,9.690152E-3,-1.8498598E-2],"split_indices":[112,8,121,34,122,10,43,14,1,31,104,51,44,10,72,22,40,4,21,102,98,75,121,90,62,30,47,90,40,80,39,0,0,0,0,0,0,0,0,0,0,0,0,0,0,0,0,0,0,0,0,0,0,0,0,0,0,0,0,0,0,0,0],"split_type":[0,0,0,0,0,0,0,0,0,0,0,0,0,0,0,0,0,0,0,0,0,0,0,0,0,0,0,0,0,0,0,0,0,0,0,0,0,0,0,0,0,0,0,0,0,0,0,0,0,0,0,0,0,0,0,0,0,0,0,0,0,0,0],"sum_hessian":[1.1854E4,7.873E3,3.981E3,4.417E3,3.456E3,1.301E3,2.68E3,2.399E3,2.018E3,1.811E3,1.645E3,8.69E2,4.32E2,5.79E2,2.101E3,7.54E2,1.645E3,1.293E3,7.25E2,4.5E2,1.361E3,7.96E2,8.49E2,5.53E2,3.16E2,3.29E2,1.03E2,5E2,7.9E1,1.263E3,8.38E2,5.49E2,2.05E2,6.48E2,9.97E2,2.5E2,1.043E3,1.79E2,5.46E2,2.32E2,2.18E2,1.207E3,1.54E2,5.8E1,7.38E2,2.67E2,5.82E2,4.69E2,8.4E1,6.9E1,2.47E2,1.01E2,2.28E2,1.2E1,9.1E1,3.86E2,1.14E2,4.4E1,3.5E1,1E0,1.262E3,8E0,8.3E2],"tree_param":{"num_deleted":"0","num_feature":"128","num_nodes":"63","size_leaf_vector":"1"}},{"base_weights":[-7.195634E-3,2.5326976E-1,-5.0853837E-1,3.9258674E-2,4.4020545E-1,-1.353111E-1,-5.937225E-1,1.620366E-1,-2.9382116E-1,2.8081155E-1,5.6871855E-1,4.1335593E-3,-3.4917128E-1,-4.8166415E-1,-6.667092E-1,-1.3047023E-2,2.9591224E-1,-4.0434468E-1,-6.4257406E-2,-1.720528E-2,3.602944E-1,6.6309166E-1,4.234787E-1,-1.1204199E-1,3.5568118E-1,-1.7238098E-1,-5.501589E-1,-5.433448E-1,-2.3022419E-1,-4.712454E-1,-6.8267167E-1,-6.006352E-3,3.8803075E-3,1.2654642E-2,3.9654705E-3,-1.294007E-2,7.3925676E-3,2.0277905E-3,-1.05246045E-2,-1.2660828E-2,2.6283604E-3,5.190802E-3,1.4103668E-2,1.5060144E-2,2.2115968E-2,1.4446184E-2,2.4067273E-3,3.5332803E-5,-1.313163E-2,-1.3628897E-2,1.2387484E-2,9.730682E-3,-8.972978E-3,1.15654385E-2,-1.7638473E-2,-1.7236719E-2,-8.477428E-3,-1.4865374E-2,2.8904466E-4,2.853239E-3,-1.6549766E-2,-2.0680955E-2,-8.833464E-3],"categories":[],"categories_nodes":[],"categories_segments":[],"categories_sizes":[],"default_left":[0,0,0,0,0,0,0,0,0,0,0,0,0,0,0,0,0,0,0,0,0,0,0,0,0,0,0,0,0,0,0,0,0,0,0,0,0,0,0,0,0,0,0,0,0,0,0,0,0,0,0,0,0,0,0,0,0,0,0,0,0,0,0],"id":18,"left_children":[1,3,5,7,9,11,13,15,17,19,21,23,25,27,29,31,33,35,37,39,41,43,45,47,49,51,53,55,57,59,61,-1,-1,-1,-1,-1,-1,-1,-1,-1,-1,-1,-1,-1,-1,-1,-1,-1,-1,-1,-1,-1,-1,-1,-1,-1,-1,-1,-1,-1,-1,-1,-1],"loss_changes":[1.5490975E3,3.1231198E2,1.2887231E2,1.4894576E2,8.5198E1,2.2516796E1,2.668518E1,6.237619E1,2.4864128E1,4.4111816E1,3.1326904E1,1.8745138E1,1.04938965E1,2.0129639E1,5.9089966E0,3.0780571E1,3.10318E1,1.1734161E1,1.2114407E1,1.67129E1,3.0152466E1,1.6294983E1,1.8117264E1,1.2721802E1,5.472518E0,1.0168322E1,5.1415977E0,8.367432E0,1.6485409E1,7.0660057E0,4.588806E0,0E0,0E0,0E0,0E0,0E0,0E0,0E0,0E0,0E0,0E0,0E0,0E0,0E0,0E0,0E0,0E0,0E0,0E0,0E0,0E0,0E0,0E0,0E0,0E0,0E0,0E0,0E0,0E0,0E0,0E0,0E0,0E0],"parents":[2147483647,0,0,1,1,2,2,3,3,4,4,5,5,6,6,7,7,8,8,9,9,10,10,11,11,12,12,13,13,14,14,15,15,16,16,17,17,18,18,19,19,20,20,21,21,22,22,23,23,24,24,25,25,26,26,27,27,28,28,29,29,30,30],"right_children":[2,4,6,8,10,12,14,16,18,20,22,24,26,28,30,32,34,36,38,40,42,44,46,48,50,52,54,56,58,60,62,-1,-1,-1,-1,-1,-1,-1,-1,-1,-1,-1,-1,-1,-1,-1,-1,-1,-1,-1,-1,-1,-1,-1,-1,-1,-1,-1,-1,-1,-1,-1,-1],"split_conditions":[7.162934E0,4.8061666E0,4.704552E0,5.1726866E0,4.510786E0,4.868937E0,4.782796E0,3.8804326E0,4.3438864E0,2.808092E0,4.709217E0,5.5441504E0,4.4160156E0,5.087819E0,3.6696992E0,4.3035626E0,3.811632E0,5.2301536E0,5.22952E0,4.7887235E0,3.622054E0,6.2936544E0,6.0834684E0,4.6910563E0,2.4463763E0,2.998036E0,3.6512825E0,5.3833094E0,3.473811E0,3.2516418E0,5.4789095E0,-6.006352E-3,3.8803075E-3,1.2654642E-2,3.9654705E-3,-1.294007E-2,7.3925676E-3,2.0277905E-3,-1.05246045E-2,-1.2660828E-2,2.6283604E-3,5.190802E-3,1.4103668E-2,1.5060144E-2,2.2115968E-2,1.4446184E-2,2.4067273E-3,3.5332803E-5,-1.313163E-2,-1.3628897E-2,1.2387484E-2,9.730682E-3,-8.972978E-3,1.15654385E-2,-1.7638473E-2,-1.7236719E-2,-8.477428E-3,-1.4865374E-2,2.8904466E-4,2.853239E-3,-1.6549766E-2,-2.0680955E-2,-8.833464E-3],"split_indices":[20,31,60,22,124,107,89,95,27,116,20,10,115,94,106,72,110,61,121,94,127,56,107,106,40,39,83,116,116,107,120,0,0,0,0,0,0,0,0,0,0,0,0,0,0,0,0,0,0,0,0,0,0,0,0,0,0,0,0,0,0,0,0],"split_type":[0,0,0,0,0,0,0,0,0,0,0,0,0,0,0,0,0,0,0,0,0,0,0,0,0,0,0,0,0,0,0,0,0,0,0,0,0,0,0,0,0,0,0,0,0,0,0,0,0,0,0,0,0,0,0,0,0,0,0,0,0,0,0],"sum_hessian":[1.1861E4,7.806E3,4.055E3,3.64E3,4.166E3,7.54E2,3.301E3,2.66E3,9.8E2,1.861E3,2.305E3,4.57E2,2.97E2,1.305E3,1.996E3,1.153E3,1.507E3,6.61E2,3.19E2,3.92E2,1.469E3,1.395E3,9.1E2,3.44E2,1.13E2,1.59E2,1.38E2,1.047E3,2.58E2,1.53E2,1.843E3,4.98E2,6.55E2,8.51E2,6.56E2,6.35E2,2.6E1,2.19E2,1E2,8E1,3.12E2,5.44E2,9.25E2,4.42E2,9.53E2,7.78E2,1.32E2,2.56E2,8.8E1,7E0,1.06E2,3.2E1,1.27E2,5E0,1.33E2,9.34E2,1.13E2,1.22E2,1.36E2,1.9E1,1.34E2,1.811E3,3.2E1],"tree_param":{"num_deleted":"0","num_feature":"128","num_nodes":"63","size_leaf_vector":"1"}},{"base_weights":[4.71159E-3,2.5231713E-1,-5.0517124E-1,4.3541497E-1,2.5600215E-2,-2.8385618E-1,-6.054428E-1,2.1382318E-1,5.2085966E-1,-1.6340026E-1,2.0027637E-1,-4.2523798E-1,-7.467841E-2,-5.114374E-1,-6.571436E-1,6.451828E-2,3.927129E-1,3.7885043E-1,6.3926893E-1,3.0324869E-2,-2.9176325E-1,2.934856E-2,3.5547465E-1,-4.5770377E-1,2.0432574E-1,-1.6735299E-1,4.299174E-1,-5.288876E-1,3.6962265E-1,-5.877037E-1,-6.8506455E-1,-3.0856142E-3,7.118217E-3,6.126063E-3,1.520256E-2,1.5518401E-2,7.453142E-3,2.0743743E-2,1.342222E-2,-3.3947949E-3,9.328546E-3,6.038549E-4,-1.1744469E-2,-5.1833396E-3,4.7009266E-3,5.4753325E-3,1.4828359E-2,-9.48357E-3,-1.6522605E-2,2.2851441E-2,-2.904674E-4,-6.1814743E-3,1.937783E-2,-8.5115037E-4,1.8879985E-2,-1.7615335E-2,-9.933497E-3,2.550854E-2,-1.7174509E-3,-1.7856553E-2,1.4675217E-2,-2.0661833E-2,-5.243116E-3],"categories":[],"categories_nodes":[],"categories_segments":[],"categories_sizes":[],"default_left":[0,0,0,0,0,0,0,0,0,0,0,0,0,0,0,0,0,0,0,0,0,0,0,0,0,0,0,0,0,0,0,0,0,0,0,0,0,0,0,0,0,0,0,0,0,0,0,0,0,0,0,0,0,0,0,0,0,0,0,0,0,0,0],"id":19,"left_children":[1,3,5,7,9,11,13,15,17,19,21,23,25,27,29,31,33,35,37,39,41,43,45,47,49,51,53,55,57,59,61,-1,-1,-1,-1,-1,-1,-1,-1,-1,-1,-1,-1,-1,-1,-1,-1,-1,-1,-1,-1,-1,-1,-1,-1,-1,-1,-1,-1,-1,-1,-1,-1],"loss_changes":[1.492779E3,3.303779E2,8.5598694E1,8.325433E1,1.174631E2,3.566397E1,1.2587036E1,3.2746742E1,5.317975E1,4.250678E1,4.903929E1,1.4809799E1,2.289239E1,1.4770676E1,2.916748E0,1.93971E1,1.1892181E1,2.5994095E1,1.7023315E1,2.7496351E1,3.1980286E1,2.2704552E1,2.3173561E1,8.850388E0,4.3016596E0,1.3130547E1,6.9634905E0,1.0526733E1,3.947111E0,4.321228E0,2.1508179E0,0E0,0E0,0E0,0E0,0E0,0E0,0E0,0E0,0E0,0E0,0E0,0E0,0E0,0E0,0E0,0E0,0E0,0E0,0E0,0E0,0E0,0E0,0E0,0E0,0E0,0E0,0E0,0E0,0E0,0E0,0E0,0E0],"parents":[2147483647,0,0,1,1,2,2,3,3,4,4,5,5,6,6,7,7,8,8,9,9,10,10,11,11,12,12,13,13,14,14,15,15,16,16,17,17,18,18,19,19,20,20,21,21,22,22,23,23,24,24,25,25,26,26,27,27,28,28,29,29,30,30],"right_children":[2,4,6,8,10,12,14,16,18,20,22,24,26,28,30,32,34,36,38,40,42,44,46,48,50,52,54,56,58,60,62,-1,-1,-1,-1,-1,-1,-1,-1,-1,-1,-1,-1,-1,-1,-1,-1,-1,-1,-1,-1,-1,-1,-1,-1,-1,-1,-1,-1,-1,-1,-1,-1],"split_conditions":[5.0061493E0,4.0355983E0,7.325332E0,2.9765017E0,3.5197134E0,3.85011E0,8.822784E0,5.402224E0,5.094646E0,4.766361E0,4.566588E0,6.30921E0,7.2312465E0,6.4671617E0,6.311014E0,3.4698782E0,3.8259451E0,3.8949966E0,5.776318E0,4.41358E0,2.6118267E0,4.3971E0,3.4507709E0,3.964995E0,2.9674377E0,6.4838448E0,4.3118434E0,4.431518E0,6.477615E0,7.370997E0,7.9224215E0,-3.0856142E-3,7.118217E-3,6.126063E-3,1.520256E-2,1.5518401E-2,7.453142E-3,2.0743743E-2,1.342222E-2,-3.3947949E-3,9.328546E-3,6.038549E-4,-1.1744469E-2,-5.1833396E-3,4.7009266E-3,5.4753325E-3,1.4828359E-2,-9.48357E-3,-1.6522605E-2,2.2851441E-2,-2.904674E-4,-6.1814743E-3,1.937783E-2,-8.5115037E-4,1.8879985E-2,-1.7615335E-2,-9.933497E-3,2.550854E-2,-1.7174509E-3,-1.7856553E-2,1.4675217E-2,-2.0661833E-2,-5.243116E-3],"split_indices":[30,8,46,4,102,102,46,34,34,122,56,31,56,31,76,51,103,66,107,118,112,19,47,89,7,4,118,102,121,4,72,0,0,0,0,0,0,0,0,0,0,0,0,0,0,0,0,0,0,0,0,0,0,0,0,0,0,0,0,0,0,0,0],"split_type":[0,0,0,0,0,0,0,0,0,0,0,0,0,0,0,0,0,0,0,0,0,0,0,0,0,0,0,0,0,0,0,0,0,0,0,0,0,0,0,0,0,0,0,0,0,0,0,0,0,0,0,0,0,0,0,0,0,0,0,0,0,0,0],"sum_hessian":[1.1822E4,7.958E3,3.864E3,4.402E3,3.556E3,1.206E3,2.658E3,1.226E3,3.176E3,1.708E3,1.848E3,7.19E2,4.87E2,9.47E2,1.711E3,6.69E2,5.57E2,1.446E3,1.73E3,6.81E2,1.027E3,8.8E2,9.68E2,6.84E2,3.5E1,4.12E2,7.5E1,9.29E2,1.8E1,4.97E2,1.214E3,3.4E2,3.29E2,2.11E2,3.46E2,7E2,7.46E2,1.358E3,3.72E2,4.51E2,2.3E2,2.49E2,7.78E2,3.4E2,5.4E2,4.32E2,5.36E2,2.73E2,4.11E2,9E0,2.6E1,3.94E2,1.8E1,2.3E1,5.2E1,7.16E2,2.13E2,8E0,1E1,4.94E2,3E0,1.205E3,9E0],"tree_param":{"num_deleted":"0","num_feature":"128","num_nodes":"63","size_leaf_vector":"1"}},{"base_weights":[5.0484523E-4,2.6500002E-1,-4.519483E-1,2.704716E-2,4.1283837E-1,-1.1551476E-1,-5.4928464E-1,-2.4207199E-1,1.4390747E-1,2.7085602E-1,5.349107E-1,-3.8512343E-1,5.186056E-3,-4.0939978E-1,-6.071562E-1,-4.503181E-1,-1.19869664E-1,2.9258868E-1,-4.8929315E-2,1.7275769E-1,4.993806E-1,6.29065E-1,3.688141E-1,-2.8421316E-1,-6.257021E-1,-2.3698577E-1,1.5473354E-1,-4.3970156E-1,1.727037E-1,-6.534272E-1,-5.0011504E-1,-2.2199475E-3,-1.5990822E-2,-6.7587886E-3,4.0677967E-3,-2.4312255E-3,1.0778861E-2,-5.2198838E-3,5.35098E-3,8.7436205E-3,-1.8223899E-3,8.399082E-3,1.7756589E-2,2.1073053E-2,1.2810743E-2,1.4165796E-2,5.9628664E-3,-1.0414815E-2,8.599437E-3,-2.2835953E-2,-4.5211287E-3,-8.3513284E-4,-1.2080093E-2,-4.9862424E-3,7.81653E-3,-1.568558E-2,-8.949009E-3,3.2562014E-2,-8.095854E-4,1.5981494E-2,-1.9676397E-2,-2.0101257E-2,-1.2439441E-2],"categories":[],"categories_nodes":[],"categories_segments":[],"categories_sizes":[],"default_left":[0,0,0,0,0,0,0,0,0,0,0,0,0,0,0,0,0,0,0,0,0,0,0,0,0,0,0,0,0,0,0,0,0,0,0,0,0,0,0,0,0,0,0,0,0,0,0,0,0,0,0,0,0,0,0,0,0,0,0,0,0,0,0],"id":20,"left_children":[1,3,5,7,9,11,13,15,17,19,21,23,25,27,29,31,33,35,37,39,41,43,45,47,49,51,53,55,57,59,61,-1,-1,-1,-1,-1,-1,-1,-1,-1,-1,-1,-1,-1,-1,-1,-1,-1,-1,-1,-1,-1,-1,-1,-1,-1,-1,-1,-1,-1,-1,-1,-1],"loss_changes":[1.4191864E3,2.6326514E2,1.4320557E2,9.0263016E1,7.986017E1,3.1990772E1,2.7219055E1,2.2060463E1,5.738541E1,4.7798325E1,3.8567566E1,7.2023315E0,2.4663675E1,1.764415E1,1.1550171E1,9.951736E0,1.48160715E1,2.8192764E1,2.481947E1,4.1480946E1,1.2844528E1,2.3151184E1,1.5727974E1,7.8612957E0,5.613373E0,8.998436E0,1.4340982E1,1.0978561E1,9.142106E0,5.2108765E0,1.0295029E1,0E0,0E0,0E0,0E0,0E0,0E0,0E0,0E0,0E0,0E0,0E0,0E0,0E0,0E0,0E0,0E0,0E0,0E0,0E0,0E0,0E0,0E0,0E0,0E0,0E0,0E0,0E0,0E0,0E0,0E0,0E0,0E0],"parents":[2147483647,0,0,1,1,2,2,3,3,4,4,5,5,6,6,7,7,8,8,9,9,10,10,11,11,12,12,13,13,14,14,15,15,16,16,17,17,18,18,19,19,20,20,21,21,22,22,23,23,24,24,25,25,26,26,27,27,28,28,29,29,30,30],"right_children":[2,4,6,8,10,12,14,16,18,20,22,24,26,28,30,32,34,36,38,40,42,44,46,48,50,52,54,56,58,60,62,-1,-1,-1,-1,-1,-1,-1,-1,-1,-1,-1,-1,-1,-1,-1,-1,-1,-1,-1,-1,-1,-1,-1,-1,-1,-1,-1,-1,-1,-1,-1,-1],"split_conditions":[6.879592E0,4.509122E0,5.43086E0,2.912405E0,4.5578957E0,3.4329553E0,6.1043034E0,3.9467473E0,3.823665E0,5.999371E0,3.7943683E0,4.542393E0,3.8271437E0,7.8709702E0,4.1954E0,3.9888647E0,4.4374685E0,3.3932052E0,5.6436954E0,4.381103E0,3.3769503E0,6.008136E0,3.9524148E0,5.2744837E0,3.4599833E0,3.145328E0,3.3656588E0,5.307235E0,3.1872485E0,4.153788E0,2.9639158E0,-2.2199475E-3,-1.5990822E-2,-6.7587886E-3,4.0677967E-3,-2.4312255E-3,1.0778861E-2,-5.2198838E-3,5.35098E-3,8.7436205E-3,-1.8223899E-3,8.399082E-3,1.7756589E-2,2.1073053E-2,1.2810743E-2,1.4165796E-2,5.9628664E-3,-1.0414815E-2,8.599437E-3,-2.2835953E-2,-4.5211287E-3,-8.3513284E-4,-1.2080093E-2,-4.9862424E-3,7.81653E-3,-1.568558E-2,-8.949009E-3,3.2562014E-2,-8.095854E-4,1.5981494E-2,-1.9676397E-2,-2.0101257E-2,-1.2439441E-2],"split_indices":[20,31,22,4,124,116,64,10,42,34,110,106,10,56,94,66,44,27,19,85,21,54,85,90,35,39,31,19,89,42,116,0,0,0,0,0,0,0,0,0,0,0,0,0,0,0,0,0,0,0,0,0,0,0,0,0,0,0,0,0,0,0,0],"split_type":[0,0,0,0,0,0,0,0,0,0,0,0,0,0,0,0,0,0,0,0,0,0,0,0,0,0,0,0,0,0,0,0,0,0,0,0,0,0,0,0,0,0,0,0,0,0,0,0,0,0,0,0,0,0,0,0,0,0,0,0,0,0,0],"sum_hessian":[1.1857E4,7.483E3,4.374E3,2.868E3,4.615E3,9.82E2,3.392E3,8.68E2,2E3,2.135E3,2.48E3,3.03E2,6.79E2,9.95E2,2.397E3,3.2E2,5.48E2,1.129E3,8.71E2,1.495E3,6.4E2,1.581E3,8.99E2,2.15E2,8.8E1,2.59E2,4.2E2,9.46E2,4.9E1,1.67E3,7.27E2,5.8E1,2.62E2,3.88E2,1.6E2,1.71E2,9.58E2,5.62E2,3.09E2,9.91E2,5.04E2,1.91E2,4.49E2,1.158E3,4.23E2,5.58E2,3.41E2,1.94E2,2.1E1,6.8E1,2E1,1.15E2,1.44E2,1.04E2,3.16E2,5.94E2,3.52E2,8E0,4.1E1,3E0,1.667E3,2.41E2,4.86E2],"tree_param":{"num_deleted":"0","num_feature":"128","num_nodes":"63","size_leaf_vector":"1"}},{"base_weights":[6.1286165E-4,2.5370327E-1,-4.3830132E-1,5.949678E-2,4.2167306E-1,-8.810227E-2,-5.28441E-1,1.6290596E-1,-2.2009322E-1,5.474158E-1,2.778276E-1,-2.9159653E-1,4.811284E-2,-6.1201215E-1,-4.2228165E-1,-2.902877E-2,2.804907E-1,-2.9859155E-1,1.2648092E-1,3.9641464E-1,6.353172E-1,3.637548E-1,6.1434522E-2,-4.0680283E-1,3.0161245E-2,-4.5799058E-2,4.6586362E-1,-5.5421937E-1,-6.7031926E-1,-4.8429698E-1,-1.5583059E-1,4.238631E-3,-4.5978436E-3,1.130106E-2,5.5156637E-4,2.2217955E-3,-1.09106945E-2,1.7303193E-2,-3.984582E-4,1.4669948E-2,3.6257626E-3,1.6538315E-2,2.250638E-2,1.4760855E-2,6.293299E-3,1.5524086E-2,-1.9980538E-4,-7.1211066E-3,-1.84526E-2,9.925583E-3,-1.0998215E-2,8.804473E-3,-4.836061E-3,1.1226536E-3,1.7731229E-2,-1.78293E-2,-1.3318757E-2,-1.3548369E-3,-2.0147916E-2,-3.659574E-3,-1.5400218E-2,1.855473E-3,-1.1498435E-2],"categories":[],"categories_nodes":[],"categories_segments":[],"categories_sizes":[],"default_left":[0,0,0,0,0,0,0,0,0,0,0,0,0,0,0,0,0,0,0,0,0,0,0,0,0,0,0,0,0,0,0,0,0,0,0,0,0,0,0,0,0,0,0,0,0,0,0,0,0,0,0,0,0,0,0,0,0,0,0,0,0,0,0],"id":21,"left_children":[1,3,5,7,9,11,13,15,17,19,21,23,25,27,29,31,33,35,37,39,41,43,45,47,49,51,53,55,57,59,61,-1,-1,-1,-1,-1,-1,-1,-1,-1,-1,-1,-1,-1,-1,-1,-1,-1,-1,-1,-1,-1,-1,-1,-1,-1,-1,-1,-1,-1,-1,-1,-1],"loss_changes":[1.3039155E3,2.4283698E2,1.3546985E2,9.98985E1,7.205328E1,2.4406742E1,3.003003E1,5.6926132E1,2.542049E1,2.8006836E1,3.463698E1,1.3097456E1,2.073571E1,6.0579834E0,2.4826233E1,2.0313011E1,3.943322E1,1.8487999E1,1.0895263E1,1.9993301E1,1.2563782E1,2.6245087E1,1.649289E1,9.029415E0,1.1335953E1,1.6961882E1,5.180109E0,3.9974365E0,7.246704E-1,1.2796295E1,1.4183958E1,0E0,0E0,0E0,0E0,0E0,0E0,0E0,0E0,0E0,0E0,0E0,0E0,0E0,0E0,0E0,0E0,0E0,0E0,0E0,0E0,0E0,0E0,0E0,0E0,0E0,0E0,0E0,0E0,0E0,0E0,0E0,0E0],"parents":[2147483647,0,0,1,1,2,2,3,3,4,4,5,5,6,6,7,7,8,8,9,9,10,10,11,11,12,12,13,13,14,14,15,15,16,16,17,17,18,18,19,19,20,20,21,21,22,22,23,23,24,24,25,25,26,26,27,27,28,28,29,29,30,30],"right_children":[2,4,6,8,10,12,14,16,18,20,22,24,26,28,30,32,34,36,38,40,42,44,46,48,50,52,54,56,58,60,62,-1,-1,-1,-1,-1,-1,-1,-1,-1,-1,-1,-1,-1,-1,-1,-1,-1,-1,-1,-1,-1,-1,-1,-1,-1,-1,-1,-1,-1,-1,-1,-1],"split_conditions":[6.879592E0,4.5221624E0,4.704552E0,5.1726866E0,2.8388934E0,3.8695264E0,3.7964873E0,4.1320944E0,4.733696E0,5.7187333E0,5.9119987E0,4.5796185E0,4.882708E0,7.0585546E0,4.8736944E0,3.1108415E0,4.93336E0,3.6046681E0,2.5720637E0,6.2668734E0,4.6872597E0,2.9916139E0,2.6437922E0,3.641169E0,4.612593E0,3.2032232E0,4.2144876E0,4.2964463E0,2.3077524E0,3.3697817E0,4.903599E0,4.238631E-3,-4.5978436E-3,1.130106E-2,5.5156637E-4,2.2217955E-3,-1.09106945E-2,1.7303193E-2,-3.984582E-4,1.4669948E-2,3.6257626E-3,1.6538315E-2,2.250638E-2,1.4760855E-2,6.293299E-3,1.5524086E-2,-1.9980538E-4,-7.1211066E-3,-1.84526E-2,9.925583E-3,-1.0998215E-2,8.804473E-3,-4.836061E-3,1.1226536E-3,1.7731229E-2,-1.78293E-2,-1.3318757E-2,-1.3548369E-3,-2.0147916E-2,-3.659574E-3,-1.5400218E-2,1.855473E-3,-1.1498435E-2],"split_indices":[20,74,60,22,89,116,94,19,116,2,54,95,31,64,116,121,8,20,89,54,116,75,8,114,97,60,124,14,126,89,106,0,0,0,0,0,0,0,0,0,0,0,0,0,0,0,0,0,0,0,0,0,0,0,0,0,0,0,0,0,0,0,0],"split_type":[0,0,0,0,0,0,0,0,0,0,0,0,0,0,0,0,0,0,0,0,0,0,0,0,0,0,0,0,0,0,0,0,0,0,0,0,0,0,0,0,0,0,0,0,0,0,0,0,0,0,0,0,0,0,0,0,0,0,0,0,0,0,0],"sum_hessian":[1.1736E4,7.444E3,4.292E3,3.453E3,3.991E3,8.79E2,3.413E3,2.521E3,9.32E2,2.128E3,1.863E3,3.52E2,5.27E2,1.907E3,1.506E3,9.58E2,1.563E3,7.6E2,1.72E2,7.85E2,1.343E3,1.333E3,5.3E2,2.59E2,9.3E1,4.31E2,9.6E1,9.63E2,9.44E2,1.221E3,2.85E2,4.04E2,5.54E2,1.143E3,4.2E2,1.13E2,6.47E2,4E1,1.32E2,5.87E2,1.98E2,7.79E2,5.64E2,7.26E2,6.07E2,6.8E1,4.62E2,1.44E2,1.15E2,5.3E1,4E1,1.09E2,3.22E2,2.2E1,7.4E1,7.03E2,2.6E2,2E0,9.42E2,9.1E1,1.13E3,1.46E2,1.39E2],"tree_param":{"num_deleted":"0","num_feature":"128","num_nodes":"63","size_leaf_vector":"1"}},{"base_weights":[-1.1254E-4,2.3504208E-1,-4.4532937E-1,3.9537185E-1,2.5783952E-2,-2.0873804E-1,-5.361444E-1,1.8910743E-1,4.7603536E-1,-1.2938504E-1,2.17738E-1,-3.0735335E-1,9.929778E-2,-5.926438E-1,-4.066672E-1,3.752322E-1,3.7192393E-2,4.0821174E-1,6.5774405E-1,3.947787E-2,-2.9380363E-1,1.08844385E-1,3.9794257E-1,-2.5993178E-2,-3.8981837E-1,2.3640004E-1,-2.712883E-1,-4.8124486E-1,-6.188101E-1,-5.620472E-1,-2.9203945E-1,9.926098E-3,2.4188347E-2,-6.974667E-3,4.922683E-3,1.7113766E-2,9.33904E-3,2.174393E-2,1.4921737E-2,5.8219964E-3,-5.7817E-3,-1.0271797E-2,5.4322514E-3,3.3123302E-4,1.0010526E-2,1.4708843E-2,5.1902966E-3,-9.128433E-3,7.0035416E-3,-1.3761276E-2,-5.3483443E-3,-1.3451063E-3,1.1675052E-2,-2.2820837E-4,-1.7670996E-2,-1.5671376E-2,-2.4315347E-3,-9.8289335E-3,-1.8697364E-2,-1.0434466E-2,-1.807783E-2,-1.37807615E-2,-5.063283E-3],"categories":[],"categories_nodes":[],"categories_segments":[],"categories_sizes":[],"default_left":[0,0,0,0,0,0,0,0,0,0,0,0,0,0,0,0,0,0,0,0,0,0,0,0,0,0,0,0,0,0,0,0,0,0,0,0,0,0,0,0,0,0,0,0,0,0,0,0,0,0,0,0,0,0,0,0,0,0,0,0,0,0,0],"id":22,"left_children":[1,3,5,7,9,11,13,15,17,19,21,23,25,27,29,31,33,35,37,39,41,43,45,47,49,51,53,55,57,59,61,-1,-1,-1,-1,-1,-1,-1,-1,-1,-1,-1,-1,-1,-1,-1,-1,-1,-1,-1,-1,-1,-1,-1,-1,-1,-1,-1,-1,-1,-1,-1,-1],"loss_changes":[1.2377018E3,2.5953497E2,8.768005E1,7.2784424E1,1.0001749E2,3.450846E1,2.1354004E1,3.484931E1,3.8527954E1,5.1569725E1,2.9411003E1,1.9943901E1,1.40871935E1,5.6864624E0,1.5865631E1,1.0326904E1,2.3308945E1,3.5907684E1,8.82193E0,3.2953735E1,2.1774788E1,2.0601013E1,1.1651932E1,1.4222291E1,9.609398E0,8.6961975E0,6.2792754E0,6.460045E0,1.9384155E0,3.0999756E0,1.0647133E1,0E0,0E0,0E0,0E0,0E0,0E0,0E0,0E0,0E0,0E0,0E0,0E0,0E0,0E0,0E0,0E0,0E0,0E0,0E0,0E0,0E0,0E0,0E0,0E0,0E0,0E0,0E0,0E0,0E0,0E0,0E0,0E0],"parents":[2147483647,0,0,1,1,2,2,3,3,4,4,5,5,6,6,7,7,8,8,9,9,10,10,11,11,12,12,13,13,14,14,15,15,16,16,17,17,18,18,19,19,20,20,21,21,22,22,23,23,24,24,25,25,26,26,27,27,28,28,29,29,30,30],"right_children":[2,4,6,8,10,12,14,16,18,20,22,24,26,28,30,32,34,36,38,40,42,44,46,48,50,52,54,56,58,60,62,-1,-1,-1,-1,-1,-1,-1,-1,-1,-1,-1,-1,-1,-1,-1,-1,-1,-1,-1,-1,-1,-1,-1,-1,-1,-1,-1,-1,-1,-1,-1,-1],"split_conditions":[5.738311E0,4.0182915E0,5.791958E0,2.9765017E0,3.88188E0,5.2421064E0,4.3016567E0,3.1145637E0,6.0189915E0,3.6414046E0,4.7475915E0,3.7167795E0,5.070181E0,6.1043034E0,3.8057697E0,5.5724735E0,4.334428E0,3.969656E0,4.473006E0,5.144327E0,4.9884605E0,4.2237473E0,4.8800526E0,3.6598861E0,4.643733E0,4.405199E0,4.294176E0,5.4763017E0,3.263887E0,4.233234E0,3.8949752E0,9.926098E-3,2.4188347E-2,-6.974667E-3,4.922683E-3,1.7113766E-2,9.33904E-3,2.174393E-2,1.4921737E-2,5.8219964E-3,-5.7817E-3,-1.0271797E-2,5.4322514E-3,3.3123302E-4,1.0010526E-2,1.4708843E-2,5.1902966E-3,-9.128433E-3,7.0035416E-3,-1.3761276E-2,-5.3483443E-3,-1.3451063E-3,1.1675052E-2,-2.2820837E-4,-1.7670996E-2,-1.5671376E-2,-2.4315347E-3,-9.8289335E-3,-1.8697364E-2,-1.0434466E-2,-1.807783E-2,-1.37807615E-2,-5.063283E-3],"split_indices":[46,8,60,4,51,100,94,8,34,42,116,30,107,64,72,127,118,87,13,38,104,109,87,102,51,118,24,44,106,106,105,0,0,0,0,0,0,0,0,0,0,0,0,0,0,0,0,0,0,0,0,0,0,0,0,0,0,0,0,0,0,0,0],"split_type":[0,0,0,0,0,0,0,0,0,0,0,0,0,0,0,0,0,0,0,0,0,0,0,0,0,0,0,0,0,0,0,0,0,0,0,0,0,0,0,0,0,0,0,0,0,0,0,0,0,0,0,0,0,0,0,0,0,0,0,0,0,0,0],"sum_hessian":[1.182E4,7.735E3,4.085E3,4.379E3,3.356E3,1.134E3,2.951E3,1.232E3,3.147E3,1.856E3,1.5E3,8.59E2,2.75E2,2.052E3,8.99E2,5.53E2,6.79E2,2.294E3,8.53E2,9.16E2,9.4E2,9.36E2,5.64E2,1.95E2,6.64E2,2.01E2,7.4E1,3.94E2,1.658E3,3.8E2,5.19E2,5.03E2,5E1,2.17E2,4.62E2,8.56E2,1.438E3,5.99E2,2.54E2,5.5E2,3.66E2,8.53E2,8.7E1,6.53E2,2.83E2,3.99E2,1.65E2,9.4E1,1.01E2,5E2,1.64E2,7.1E1,1.3E2,4.1E1,3.3E1,3.57E2,3.7E1,2.6E1,1.632E3,6.2E1,3.18E2,2.19E2,3E2],"tree_param":{"num_deleted":"0","num_feature":"128","num_nodes":"63","size_leaf_vector":"1"}},{"base_weights":[-5.727848E-5,2.553915E-1,-3.875957E-1,1.0175258E-1,4.4643772E-1,-1.9402501E-1,-5.378523E-1,-5.1867794E-2,2.6468843E-1,2.3129089E-1,5.1149994E-1,-3.1903666E-1,6.309619E-2,-6.000472E-1,-4.5648167E-1,1.401568E-1,-1.7762455E-1,3.642395E-1,2.8010268E-2,4.4460958E-1,1.0289576E-1,5.702949E-1,3.1283766E-1,-4.1256252E-1,-1.0532984E-1,2.0009027E-1,-2.2949071E-1,-6.0945404E-1,-4.0939483E-1,-3.6612424E-1,-5.80158E-1,7.888249E-3,-4.0743398E-3,-1.262483E-4,-9.908311E-3,1.3967284E-2,5.852867E-3,-5.130302E-3,4.732515E-3,1.4863133E-2,-2.809672E-3,-2.8616206E-3,8.261612E-3,1.9373892E-2,1.3469428E-2,4.393468E-3,1.6561883E-2,-2.6911777E-3,-1.3754117E-2,-5.67932E-3,6.7224535E-3,1.0957733E-2,1.8607796E-4,-2.0203923E-3,-1.4562522E-2,-1.9112991E-2,-1.668309E-2,-1.3340602E-2,1.7222276E-2,-1.7082887E-2,-8.63654E-3,3.5642516E-3,-1.762919E-2],"categories":[],"categories_nodes":[],"categories_segments":[],"categories_sizes":[],"default_left":[0,0,0,0,0,0,0,0,0,0,0,0,0,0,0,0,0,0,0,0,0,0,0,0,0,0,0,0,0,0,0,0,0,0,0,0,0,0,0,0,0,0,0,0,0,0,0,0,0,0,0,0,0,0,0,0,0,0,0,0,0,0,0],"id":23,"left_children":[1,3,5,7,9,11,13,15,17,19,21,23,25,27,29,31,33,35,37,39,41,43,45,47,49,51,53,55,57,59,61,-1,-1,-1,-1,-1,-1,-1,-1,-1,-1,-1,-1,-1,-1,-1,-1,-1,-1,-1,-1,-1,-1,-1,-1,-1,-1,-1,-1,-1,-1,-1,-1],"loss_changes":[1.181124E3,2.1102576E2,1.3775989E2,9.98094E1,4.4745056E1,6.665287E1,1.3228394E1,4.9601543E1,4.5581436E1,2.0386505E1,2.8555298E1,2.7838562E1,2.7262054E1,2.456787E0,1.2750687E1,2.7583965E1,3.2850895E1,2.3254501E1,1.4848203E1,7.706936E0,1.59986515E1,1.7085388E1,2.2368816E1,1.43359375E1,1.1827396E1,1.482482E1,8.97217E0,1.7636719E0,2.823718E0,1.0541168E1,2.6217804E0,0E0,0E0,0E0,0E0,0E0,0E0,0E0,0E0,0E0,0E0,0E0,0E0,0E0,0E0,0E0,0E0,0E0,0E0,0E0,0E0,0E0,0E0,0E0,0E0,0E0,0E0,0E0,0E0,0E0,0E0,0E0,0E0],"parents":[2147483647,0,0,1,1,2,2,3,3,4,4,5,5,6,6,7,7,8,8,9,9,10,10,11,11,12,12,13,13,14,14,15,15,16,16,17,17,18,18,19,19,20,20,21,21,22,22,23,23,24,24,25,25,26,26,27,27,28,28,29,29,30,30],"right_children":[2,4,6,8,10,12,14,16,18,20,22,24,26,28,30,32,34,36,38,40,42,44,46,48,50,52,54,56,58,60,62,-1,-1,-1,-1,-1,-1,-1,-1,-1,-1,-1,-1,-1,-1,-1,-1,-1,-1,-1,-1,-1,-1,-1,-1,-1,-1,-1,-1,-1,-1,-1,-1],"split_conditions":[5.1406164E0,6.090085E0,7.538029E0,3.67191E0,3.4021778E0,5.8578444E0,3.6141617E0,2.9960866E0,5.8244495E0,4.871896E0,6.2668734E0,4.1097116E0,5.602015E0,5.530285E0,5.2077227E0,5.2059307E0,3.9183447E0,4.7124376E0,3.8336558E0,5.189668E0,5.133327E0,4.667658E0,6.6100755E0,2.9831495E0,5.526015E0,5.349323E0,3.6243997E0,4.2802467E0,6.122901E0,2.9639158E0,4.70728E0,7.888249E-3,-4.0743398E-3,-1.262483E-4,-9.908311E-3,1.3967284E-2,5.852867E-3,-5.130302E-3,4.732515E-3,1.4863133E-2,-2.809672E-3,-2.8616206E-3,8.261612E-3,1.9373892E-2,1.3469428E-2,4.393468E-3,1.6561883E-2,-2.6911777E-3,-1.3754117E-2,-5.67932E-3,6.7224535E-3,1.0957733E-2,1.8607796E-4,-2.0203923E-3,-1.4562522E-2,-1.9112991E-2,-1.668309E-2,-1.3340602E-2,1.7222276E-2,-1.7082887E-2,-8.63654E-3,3.5642516E-3,-1.762919E-2],"split_indices":[110,56,46,102,116,10,94,121,54,54,54,102,107,15,89,22,85,8,57,85,118,20,2,89,116,121,43,113,88,116,75,0,0,0,0,0,0,0,0,0,0,0,0,0,0,0,0,0,0,0,0,0,0,0,0,0,0,0,0,0,0,0,0],"split_type":[0,0,0,0,0,0,0,0,0,0,0,0,0,0,0,0,0,0,0,0,0,0,0,0,0,0,0,0,0,0,0,0,0,0,0,0,0,0,0,0,0,0,0,0,0,0,0,0,0,0,0,0,0,0,0,0,0,0,0,0,0,0,0],"sum_hessian":[1.1929E4,7.19E3,4.739E3,3.986E3,3.204E3,2.072E3,2.667E3,2.052E3,1.934E3,7.45E2,2.459E3,1.394E3,6.78E2,1.508E3,1.159E3,8.12E2,1.24E3,1.361E3,5.73E2,2.79E2,4.66E2,1.896E3,5.63E2,9.69E2,4.25E2,4.62E2,2.16E2,1.435E3,7.3E1,6.72E2,4.87E2,5.62E2,2.5E2,5.81E2,6.59E2,8.5E2,5.11E2,2.26E2,3.47E2,2.55E2,2.4E1,2.17E2,2.49E2,1.166E3,7.3E2,3.33E2,2.3E2,1.21E2,8.48E2,3.39E2,8.6E1,2.49E2,2.13E2,1.33E2,8.3E1,9.38E2,4.97E2,7.1E1,2E0,1.85E2,4.87E2,5E0,4.82E2],"tree_param":{"num_deleted":"0","num_feature":"128","num_nodes":"63","size_leaf_vector":"1"}},{"base_weights":[3.3665082E-4,2.3646894E-1,-3.9776102E-1,-4.12221E-3,3.5943642E-1,-1.6130134E-1,-4.9365318E-1,1.5271163E-1,-1.8244211E-1,4.529065E-1,1.7738314E-1,-2.2454686E-1,4.1521195E-1,-4.1837484E-1,-5.740352E-1,1.8798515E-2,3.780136E-1,-3.0494744E-1,-1.7025858E-2,3.4697258E-1,5.629554E-1,3.0886224E-2,3.4718087E-1,-3.1022474E-1,1.0362843E-1,-3.7407503E-1,4.864787E-1,-4.8757926E-1,-3.0238396E-1,-5.0522214E-1,-6.086934E-1,4.668661E-3,-5.100508E-3,1.6239952E-2,6.0481965E-3,-3.531104E-3,-1.193057E-2,-5.651927E-3,4.089087E-3,8.124615E-3,1.6398357E-2,1.2995921E-2,1.941231E-2,5.458726E-3,-5.501532E-3,6.571016E-3,1.5710874E-2,-2.6251634E-3,-1.1950708E-2,1.2037981E-2,-1.3193346E-3,6.520971E-3,-1.869108E-2,2.3221504E-3,1.7126882E-2,-1.16270175E-2,-1.6060015E-2,-1.0658285E-2,-2.8155762E-4,-1.6464027E-2,-9.740169E-3,1.46175595E-2,-1.8308347E-2],"categories":[],"categories_nodes":[],"categories_segments":[],"categories_sizes":[],"default_left":[0,0,0,0,0,0,0,0,0,0,0,0,0,0,0,0,0,0,0,0,0,0,0,0,0,0,0,0,0,0,0,0,0,0,0,0,0,0,0,0,0,0,0,0,0,0,0,0,0,0,0,0,0,0,0,0,0,0,0,0,0,0,0],"id":24,"left_children":[1,3,5,7,9,11,13,15,17,19,21,23,25,27,29,31,33,35,37,39,41,43,45,47,49,51,53,55,57,59,61,-1,-1,-1,-1,-1,-1,-1,-1,-1,-1,-1,-1,-1,-1,-1,-1,-1,-1,-1,-1,-1,-1,-1,-1,-1,-1,-1,-1,-1,-1,-1,-1],"loss_changes":[1.1109359E3,2.1946219E2,9.968878E1,7.0224014E1,8.34538E1,4.6436287E1,1.8699524E1,4.03012E1,2.3805447E1,3.7611267E1,4.1455635E1,3.2254642E1,7.26947E0,1.2856415E1,3.296112E0,2.1701517E1,1.423848E1,1.1674343E1,1.3190062E1,2.5012863E1,1.7064392E1,2.9037018E1,1.7347832E1,1.780767E1,1.0473741E1,1.755129E0,3.961628E0,4.6306458E0,9.419056E0,3.850296E0,2.0341797E0,0E0,0E0,0E0,0E0,0E0,0E0,0E0,0E0,0E0,0E0,0E0,0E0,0E0,0E0,0E0,0E0,0E0,0E0,0E0,0E0,0E0,0E0,0E0,0E0,0E0,0E0,0E0,0E0,0E0,0E0,0E0,0E0],"parents":[2147483647,0,0,1,1,2,2,3,3,4,4,5,5,6,6,7,7,8,8,9,9,10,10,11,11,12,12,13,13,14,14,15,15,16,16,17,17,18,18,19,19,20,20,21,21,22,22,23,23,24,24,25,25,26,26,27,27,28,28,29,29,30,30],"right_children":[2,4,6,8,10,12,14,16,18,20,22,24,26,28,30,32,34,36,38,40,42,44,46,48,50,52,54,56,58,60,62,-1,-1,-1,-1,-1,-1,-1,-1,-1,-1,-1,-1,-1,-1,-1,-1,-1,-1,-1,-1,-1,-1,-1,-1,-1,-1,-1,-1,-1,-1,-1,-1],"split_conditions":[3.5276492E0,4.225898E0,7.329119E0,3.9096067E0,5.5472426E0,6.344103E0,5.174424E0,4.1788797E0,4.48853E0,3.763949E0,3.8950467E0,4.524013E0,3.7510297E0,4.5257835E0,4.2230625E0,3.6976995E0,3.227878E0,3.5278306E0,3.3347106E0,4.4641523E0,4.5257835E0,6.008136E0,3.7402642E0,3.862328E0,3.4457974E0,3.9843273E0,2.5505745E0,7.047225E0,4.9616284E0,4.302561E0,2.6025236E0,4.668661E-3,-5.100508E-3,1.6239952E-2,6.0481965E-3,-3.531104E-3,-1.193057E-2,-5.651927E-3,4.089087E-3,8.124615E-3,1.6398357E-2,1.2995921E-2,1.941231E-2,5.458726E-3,-5.501532E-3,6.571016E-3,1.5710874E-2,-2.6251634E-3,-1.1950708E-2,1.2037981E-2,-1.3193346E-3,6.520971E-3,-1.869108E-2,2.3221504E-3,1.7126882E-2,-1.16270175E-2,-1.6060015E-2,-1.0658285E-2,-2.8155762E-4,-1.6464027E-2,-9.740169E-3,1.46175595E-2,-1.8308347E-2],"split_indices":[98,31,20,96,107,31,89,4,72,127,127,102,95,72,43,42,75,24,104,102,72,54,51,122,96,38,15,112,102,81,91,0,0,0,0,0,0,0,0,0,0,0,0,0,0,0,0,0,0,0,0,0,0,0,0,0,0,0,0,0,0,0,0],"split_type":[0,0,0,0,0,0,0,0,0,0,0,0,0,0,0,0,0,0,0,0,0,0,0,0,0,0,0,0,0,0,0,0,0,0,0,0,0,0,0,0,0,0,0,0,0,0,0,0,0,0,0,0,0,0,0,0,0,0,0,0,0,0,0],"sum_hessian":[1.1816E4,7.417E3,4.399E3,2.509E3,4.908E3,1.27E3,3.129E3,1.335E3,1.174E3,3.242E3,1.666E3,1.145E3,1.25E2,1.619E3,1.51E3,8.38E2,4.97E2,6.74E2,5E2,1.654E3,1.588E3,8.95E2,7.71E2,9.08E2,2.37E2,1E1,1.15E2,1.012E3,6.07E2,5.11E2,9.99E2,4.86E2,3.52E2,2.57E2,2.4E2,2.24E2,4.5E2,2.36E2,2.64E2,1.199E3,4.55E2,6.27E2,9.61E2,5.25E2,3.7E2,4.48E2,3.23E2,2.58E2,6.5E2,7.8E1,1.59E2,3E0,7E0,2E1,9.5E1,3.3E2,6.82E2,5.14E2,9.3E1,4.1E2,1.01E2,1E0,9.98E2],"tree_param":{"num_deleted":"0","num_feature":"128","num_nodes":"63","size_leaf_vector":"1"}},{"base_weights":[-2.1270143E-4,2.3898646E-1,-3.6322355E-1,2.4837922E-2,3.626616E-1,-6.3988E-2,-4.6032798E-1,-1.7760853E-1,1.6021861E-1,2.373756E-1,4.8129374E-1,-1.3243598E-1,2.9110792E-1,-5.03691E-1,-2.6695448E-1,1.0334355E-1,-2.76239E-1,2.4178699E-1,-1.0868006E-1,2.8729331E-1,-1.7214924E-1,3.3307388E-1,5.733598E-1,-4.64435E-1,-5.614011E-2,4.1331452E-1,-8.981036E-2,-4.0048572E-1,-5.481328E-1,-4.6961775E-1,-1.2977009E-1,7.363984E-3,-6.529876E-3,-1.0384138E-2,1.4063736E-4,3.2704584E-3,1.18009485E-2,-8.100849E-3,3.2454557E-3,1.1235572E-2,2.2045097E-3,3.625262E-3,-1.0788252E-2,1.3209589E-2,3.631409E-3,1.940984E-2,1.0605638E-2,-6.738053E-3,-1.7564619E-2,6.1881817E-3,-4.7026817E-3,1.7615285E-2,8.8084186E-4,1.1857531E-2,-1.0118025E-2,-1.39051555E-2,-7.6480713E-3,-1.0941206E-2,-1.6786488E-2,-6.126612E-3,-1.5580687E-2,1.6110397E-3,-9.265724E-3],"categories":[],"categories_nodes":[],"categories_segments":[],"categories_sizes":[],"default_left":[0,0,0,0,0,0,0,0,0,0,0,0,0,0,0,0,0,0,0,0,0,0,0,0,0,0,0,0,0,0,0,0,0,0,0,0,0,0,0,0,0,0,0,0,0,0,0,0,0,0,0,0,0,0,0,0,0,0,0,0,0,0,0],"id":25,"left_children":[1,3,5,7,9,11,13,15,17,19,21,23,25,27,29,31,33,35,37,39,41,43,45,47,49,51,53,55,57,59,61,-1,-1,-1,-1,-1,-1,-1,-1,-1,-1,-1,-1,-1,-1,-1,-1,-1,-1,-1,-1,-1,-1,-1,-1,-1,-1,-1,-1,-1,-1,-1,-1],"loss_changes":[1.0241821E3,1.8829822E2,1.3610309E2,7.139717E1,6.687305E1,2.7965687E1,2.9524231E1,2.8958244E1,3.4264664E1,4.4900414E1,3.1385925E1,2.4392197E1,8.695557E0,1.3026672E1,1.8010513E1,1.2462671E1,1.5180626E1,2.4067192E1,1.27656765E1,3.6451324E1,1.3170267E1,2.016166E1,2.2855072E1,5.094326E0,2.0758621E1,9.395176E0,5.654773E0,7.8894043E0,4.017761E0,3.352459E0,1.27981205E1,0E0,0E0,0E0,0E0,0E0,0E0,0E0,0E0,0E0,0E0,0E0,0E0,0E0,0E0,0E0,0E0,0E0,0E0,0E0,0E0,0E0,0E0,0E0,0E0,0E0,0E0,0E0,0E0,0E0,0E0,0E0,0E0],"parents":[2147483647,0,0,1,1,2,2,3,3,4,4,5,5,6,6,7,7,8,8,9,9,10,10,11,11,12,12,13,13,14,14,15,15,16,16,17,17,18,18,19,19,20,20,21,21,22,22,23,23,24,24,25,25,26,26,27,27,28,28,29,29,30,30],