{"learner":{"attributes":{"best_iteration":"162","best_score":"0.4969636643587769","scikit_learn":"{\"_estimator_type\": \"regressor\"}"},"feature_names":[],"feature_types":[],"gradient_booster":{"model":{"cats":{"enc":[],"feature_segments":[],"sorted_idx":[]},"gbtree_model_param":{"num_parallel_tree":"1","num_trees":"203"},"iteration_indptr":[0,1,2,3,4,5,6,7,8,9,10,11,12,13,14,15,16,17,18,19,20,21,22,23,24,25,26,27,28,29,30,31,32,33,34,35,36,37,38,39,40,41,42,43,44,45,46,47,48,49,50,51,52,53,54,55,56,57,58,59,60,61,62,63,64,65,66,67,68,69,70,71,72,73,74,75,76,77,78,79,80,81,82,83,84,85,86,87,88,89,90,91,92,93,94,95,96,97,98,99,100,101,102,103,104,105,106,107,108,109,110,111,112,113,114,115,116,117,118,119,120,121,122,123,124,125,126,127,128,129,130,131,132,133,134,135,136,137,138,139,140,141,142,143,144,145,146,147,148,149,150,151,152,153,154,155,156,157,158,159,160,161,162,163,164,165,166,167,168,169,170,171,172,173,174,175,176,177,178,179,180,181,182,183,184,185,186,187,188,189,190,191,192,193,194,195,196,197,198,199,200,201,202,203],"tree_info":[0,0,0,0,0,0,0,0,0,0,0,0,0,0,0,0,0,0,0,0,0,0,0,0,0,0,0,0,0,0,0,0,0,0,0,0,0,0,0,0,0,0,0,0,0,0,0,0,0,0,0,0,0,0,0,0,0,0,0,0,0,0,0,0,0,0,0,0,0,0,0,0,0,0,0,0,0,0,0,0,0,0,0,0,0,0,0,0,0,0,0,0,0,0,0,0,0,0,0,0,0,0,0,0,0,0,0,0,0,0,0,0,0,0,0,0,0,0,0,0,0,0,0,0,0,0,0,0,0,0,0,0,0,0,0,0,0,0,0,0,0,0,0,0,0,0,0,0,0,0,0,0,0,0,0,0,0,0,0,0,0,0,0,0,0,0,0,0,0,0,0,0,0,0,0,0,0,0,0,0,0,0,0,0,0,0,0,0,0,0,0,0,0,0,0,0,0,0,0,0,0,0,0],"trees":[{"base_weights":[2.410455E-3,-7.405947E-1,6.3181496E-1,-8.574141E-1,-2.3777533E-1,3.0549398E-1,8.21653E-1,-6.373807E-1,-9.481303E-1,-2.8054246E-1,3.1285715E-1,7.877814E-3,4.2987013E-1,5.497917E-1,8.61541E-1,-4.5438595E-3,-1.35157285E-2,-1.9018939E-2,-0E0,-1.3560606E-3,-7.4040405E-3,-5.1578945E-3,8.819671E-3,-5.3085107E-3,2.472973E-3,3.5474452E-3,1.0468926E-2,6.1830985E-3,1.2637931E-2,1.4933476E-2,1.8149463E-2],"categories":[],"categories_nodes":[],"categories_segments":[],"categories_sizes":[],"default_left":[0,0,0,0,0,0,0,0,0,0,0,0,0,0,0,0,0,0,0,0,0,0,0,0,0,0,0,0,0,0,0],"id":0,"left_children":[1,3,5,7,9,11,13,15,17,19,21,23,25,27,29,-1,-1,-1,-1,-1,-1,-1,-1,-1,-1,-1,-1,-1,-1,-1,-1],"loss_changes":[4.8355005E3,2.7639258E2,3.441626E2,7.052661E1,2.2256927E1,7.673131E1,3.3434326E1,1.6538239E1,7.213135E0,1.5880051E1,6.2745724E0,1.9994444E1,3.356894E1,7.4359283E0,9.219482E0,0E0,0E0,0E0,0E0,0E0,0E0,0E0,0E0,0E0,0E0,0E0,0E0,0E0,0E0,0E0,0E0],"parents":[2147483647,0,0,1,1,2,2,3,3,4,4,5,5,6,6,7,7,8,8,9,9,10,10,11,11,12,12,13,13,14,14],"right_children":[2,4,6,8,10,12,14,16,18,20,22,24,26,28,30,-1,-1,-1,-1,-1,-1,-1,-1,-1,-1,-1,-1,-1,-1,-1,-1],"split_conditions":[7.590609E-1,2.7066698E-2,1.4965138E0,2.4813988E0,8.2993007E-1,1.3223449E0,1.4064575E0,6.0557514E-1,5.9097064E-1,1.3680685E0,5.509393E-1,1.623957E-1,6.551119E-1,1.5684183E0,2.1889994E0,-8.174834E-3,-1.3210411E-2,-2.4160752E-2,-6.678186E-5,-1.0580055E-3,-5.7865274E-3,-9.816331E-3,5.6344937E-3,-4.8460886E-3,1.7350026E-3,4.255457E-3,1.0383968E-2,8.560103E-3,1.318727E-2,1.668066E-2,2.413824E-2],"split_indices":[1,1,64,56,81,3,68,25,3,12,3,64,68,1,64,0,0,0,0,0,0,0,0,0,0,0,0,0,0,0,0],"split_type":[0,0,0,0,0,0,0,0,0,0,0,0,0,0,0,0,0,0,0,0,0,0,0,0,0,0,0,0,0,0,0],"sum_hessian":[1.032E4,4.732E3,5.588E3,3.834E3,8.98E2,2.065E3,3.523E3,1.143E3,2.691E3,8.38E2,6E1,6.12E2,1.453E3,4.7E2,3.053E3,1.04E2,1.039E3,2.683E3,8E0,2.54E2,5.84E2,9E0,5.1E1,1.78E2,4.34E2,4.01E2,1.052E3,1.32E2,3.38E2,9.22E2,2.131E3],"tree_param":{"num_deleted":"0","num_feature":"96","num_nodes":"31","size_leaf_vector":"1"}},{"base_weights":[4.51439E-3,-7.3914593E-1,6.3641053E-1,-8.583073E-1,-2.4804646E-1,3.1080157E-1,8.203848E-1,-6.9119835E-1,-9.5865995E-1,-3.4589443E-1,3.2727274E-3,7.4533336E-2,4.4402757E-1,6.0830986E-1,8.6968124E-1,-8.0473935E-3,-1.4669279E-2,-1.9220812E-2,-3.0526316E-3,-7.7407407E-3,-1.2040816E-3,-1.9729729E-3,7.269841E-3,2.5381164E-3,-6.3516484E-3,4.914942E-3,1.0735527E-2,1.2397142E-2,-1.8999999E-3,1.742986E-2,-0E0],"categories":[],"categories_nodes":[],"categories_segments":[],"categories_sizes":[],"default_left":[0,0,0,0,0,0,0,0,0,0,0,0,0,0,0,0,0,0,0,0,0,0,0,0,0,0,0,0,0,0,0],"id":1,"left_children":[1,3,5,7,9,11,13,15,17,19,21,23,25,27,29,-1,-1,-1,-1,-1,-1,-1,-1,-1,-1,-1,-1,-1,-1,-1,-1],"loss_changes":[4.8866514E3,2.773108E2,3.3411572E2,5.760498E1,2.3333324E1,6.401927E1,3.2051758E1,1.4965698E1,2.9753418E0,7.7385254E0,1.0481427E1,1.5786023E1,2.262033E1,6.4074707E0,4.5473633E0,0E0,0E0,0E0,0E0,0E0,0E0,0E0,0E0,0E0,0E0,0E0,0E0,0E0,0E0,0E0,0E0],"parents":[2147483647,0,0,1,1,2,2,3,3,4,4,5,5,6,6,7,7,8,8,9,9,10,10,11,11,12,12,13,13,14,14],"right_children":[2,4,6,8,10,12,14,16,18,20,22,24,26,28,30,-1,-1,-1,-1,-1,-1,-1,-1,-1,-1,-1,-1,-1,-1,-1,-1],"split_conditions":[8.1259406E-1,2.7066698E-2,1.4965138E0,2.9583147E0,5.495196E-1,7.284878E-1,1.5650303E0,1.1422966E0,2.1000814E-2,4.9929515E-1,8.1746006E-1,1.2414217E0,6.2843233E-1,1.8808714E0,1.1320851E0,-7.981609E-3,-1.4170564E-2,-2.4392642E-2,-1.3840611E-2,-6.8395142E-3,-1.5543975E-3,-1.6727371E-3,4.659172E-3,2.4589943E-3,-4.144352E-3,4.165729E-3,1.1623184E-2,1.2166569E-2,-2.0493937E-3,2.168324E-2,2.3242808E-3],"split_indices":[1,1,64,35,64,81,68,89,81,81,81,25,36,17,35,0,0,0,0,0,0,0,0,0,0,0,0,0,0,0,0],"split_type":[0,0,0,0,0,0,0,0,0,0,0,0,0,0,0,0,0,0,0,0,0,0,0,0,0,0,0,0,0,0,0],"sum_hessian":[1.0379E4,4.767E3,5.612E3,3.83E3,9.37E2,2.036E3,3.576E3,1.467E3,2.363E3,6.72E2,2.65E2,7.4E2,1.296E3,7E2,2.876E3,2.01E2,1.266E3,2.354E3,9E0,5.84E2,8.8E1,2.12E2,5.3E1,6.59E2,8.1E1,4.25E2,8.71E2,6.9E2,1E1,2.87E3,6E0],"tree_param":{"num_deleted":"0","num_feature":"96","num_nodes":"31","size_leaf_vector":"1"}},{"base_weights":[-7.2715078E-3,-7.71796E-1,5.822851E-1,-9.1400063E-1,-4.1006145E-1,2.4549703E-1,8.036287E-1,-7.204762E-1,-9.5673114E-1,-5.190164E-1,-1.4836273E-1,-8.797654E-4,4.3169278E-1,5.579378E-1,8.516926E-1,-1.48718795E-2,-3.5384616E-3,1.3846154E-3,-1.9164009E-2,-8.688207E-3,-1.3457516E-2,-4.8854486E-3,4.738095E-3,1.9550263E-3,-5.4079425E-3,1.0346958E-2,3.4425287E-3,7.4055945E-3,1.40238805E-2,-1.0588235E-3,1.7081099E-2],"categories":[],"categories_nodes":[],"categories_segments":[],"categories_sizes":[],"default_left":[0,0,0,0,0,0,0,0,0,0,0,0,0,0,0,0,0,0,0,0,0,0,0,0,0,0,0,0,0,0,0],"id":2,"left_children":[1,3,5,7,9,11,13,15,17,19,21,23,25,27,29,-1,-1,-1,-1,-1,-1,-1,-1,-1,-1,-1,-1,-1,-1,-1,-1],"loss_changes":[4.7092383E3,2.3012158E2,4.3766833E2,1.9872803E1,3.628766E1,1.0803502E2,3.7087646E1,6.508789E0,4.727295E0,8.877167E0,1.5248937E1,2.7475775E1,2.8855286E1,1.3722092E1,6.8449707E0,0E0,0E0,0E0,0E0,0E0,0E0,0E0,0E0,0E0,0E0,0E0,0E0,0E0,0E0,0E0,0E0],"parents":[2147483647,0,0,1,1,2,2,3,3,4,4,5,5,6,6,7,7,8,8,9,9,10,10,11,11,12,12,13,13,14,14],"right_children":[2,4,6,8,10,12,14,16,18,20,22,24,26,28,30,-1,-1,-1,-1,-1,-1,-1,-1,-1,-1,-1,-1,-1,-1,-1,-1],"split_conditions":[5.7141054E-1,2.317764E-2,1.4064575E0,3.370614E0,2.1000814E-2,8.230101E-1,2.1825364E0,2.9769972E-1,9.8518777E-1,1.6470017E0,1.4554831E0,6.474236E-1,1.7805733E-1,1.0504513E0,2.2308467E-1,-1.515046E-2,-4.8878007E-3,8.4641185E-3,-2.321087E-2,-7.90411E-3,-1.2042512E-2,-3.758118E-3,2.5391E-3,2.2498698E-3,-4.604165E-3,1.0282767E-2,2.9067541E-3,7.1176663E-3,1.4506723E-2,-3.0008017E-4,2.1720514E-2],"split_indices":[1,3,68,12,81,64,3,1,56,56,3,56,56,36,36,0,0,0,0,0,0,0,0,0,0,0,0,0,0,0,0],"split_type":[0,0,0,0,0,0,0,0,0,0,0,0,0,0,0,0,0,0,0,0,0,0,0,0,0,0,0,0,0,0,0],"sum_hessian":[1.0428E4,4.539E3,5.889E3,3.247E3,1.292E3,2.344E3,3.545E3,6.2E2,2.627E3,9.05E2,3.87E2,1.013E3,1.331E3,6.01E2,2.944E3,5.91E2,2.9E1,3E0,2.624E3,6.09E2,2.96E2,3.13E2,7.4E1,7.46E2,2.67E2,9.93E2,3.38E2,2.76E2,3.25E2,7E0,2.937E3],"tree_param":{"num_deleted":"0","num_feature":"96","num_nodes":"31","size_leaf_vector":"1"}},{"base_weights":[-4.3889843E-3,-7.202678E-1,6.148049E-1,-3.3891785E-1,-8.936956E-1,2.758466E-1,8.013555E-1,-5.278366E-1,-1.9354473E-1,-7.104067E-1,-9.5125747E-1,5.251196E-2,4.3138748E-1,6.430392E-1,8.602303E-1,2.7142859E-3,-1.0681888E-2,-5.5900435E-3,1.8952381E-3,-1.4977543E-2,-6.044944E-3,-1.9040734E-2,1.6363636E-3,-1.710204E-3,4.8258426E-3,-1.1529411E-3,9.30262E-3,6.743243E-3,1.3739229E-2,1.7256549E-2,9.4736845E-4],"categories":[],"categories_nodes":[],"categories_segments":[],"categories_sizes":[],"default_left":[0,0,0,0,0,0,0,0,0,0,0,0,0,0,0,0,0,0,0,0,0,0,0,0,0,0,0,0,0,0,0],"id":3,"left_children":[1,3,5,7,9,11,13,15,17,19,21,23,25,27,29,-1,-1,-1,-1,-1,-1,-1,-1,-1,-1,-1,-1,-1,-1,-1,-1],"loss_changes":[4.6401333E3,3.1794165E2,3.526079E2,4.1035614E1,2.8219482E1,6.94783E1,2.8012695E1,3.509369E0,2.2165932E1,1.0758392E1,2.8825684E0,2.2004599E1,1.9813934E1,1.1284943E1,4.9995117E0,0E0,0E0,0E0,0E0,0E0,0E0,0E0,0E0,0E0,0E0,0E0,0E0,0E0,0E0,0E0,0E0],"parents":[2147483647,0,0,1,1,2,2,3,3,4,4,5,5,6,6,7,7,8,8,9,9,10,10,11,11,12,12,13,13,14,14],"right_children":[2,4,6,8,10,12,14,16,18,20,22,24,26,28,30,-1,-1,-1,-1,-1,-1,-1,-1,-1,-1,-1,-1,-1,-1,-1,-1],"split_conditions":[8.1259406E-1,1.7839936E0,1.4843831E0,2.7066698E-2,2.791765E0,7.9541606E-1,1.7408103E0,2.723025E-1,4.6273175E-1,1.567639E-1,1.2005785E0,7.085577E-1,7.768768E-1,1.5221479E0,7.0580596E-1,6.9584893E-3,-9.639257E-3,-4.1482095E-3,1.0431873E-3,-1.47072105E-2,-9.541361E-3,-2.2968959E-2,3.0964531E-3,-1.0302232E-3,3.5615521E-3,-2.012099E-3,9.485649E-3,5.656335E-3,1.3901664E-2,2.1594506E-2,1.5131342E-2],"split_indices":[1,56,64,1,56,64,68,17,81,1,3,68,47,1,37,0,0,0,0,0,0,0,0,0,0,0,0,0,0,0,0],"split_type":[0,0,0,0,0,0,0,0,0,0,0,0,0,0,0,0,0,0,0,0,0,0,0,0,0,0,0,0,0,0,0],"sum_hessian":[1.0448E4,4.845E3,5.603E3,1.524E3,3.321E3,1.998E3,3.605E3,6.51E2,8.73E2,8.26E2,2.495E3,8.26E2,1.172E3,1.01E3,2.595E3,4E0,6.47E2,6.73E2,2E2,7.47E2,7.9E1,2.494E3,1E0,4.8E2,3.46E2,7.5E1,1.097E3,1.38E2,8.72E2,2.586E3,9E0],"tree_param":{"num_deleted":"0","num_feature":"96","num_nodes":"31","size_leaf_vector":"1"}},{"base_weights":[-8.45843E-3,-7.623325E-1,5.7837236E-1,-4.75E-1,-9.27718E-1,2.6795444E-1,8.0114704E-1,-6.025544E-1,-2.5572997E-1,-9.320616E-1,-2.46875E-1,-1.2778429E-2,4.1454208E-1,6.189418E-1,8.677079E-1,-1.6249999E-3,-1.2421982E-2,-6.838346E-3,3.2869566E-3,-1.865476E-2,1.6363636E-3,-7.071428E-3,2.7142859E-3,1.7795786E-3,-5.3577237E-3,2.5012284E-3,1.0154224E-2,9.5E-3,1.42613435E-2,-2.7142859E-3,1.7398618E-2],"categories":[],"categories_nodes":[],"categories_segments":[],"categories_sizes":[],"default_left":[0,0,0,0,0,0,0,0,0,0,0,0,0,0,0,0,0,0,0,0,0,0,0,0,0,0,0,0,0,0,0],"id":4,"left_children":[1,3,5,7,9,11,13,15,17,19,21,23,25,27,29,-1,-1,-1,-1,-1,-1,-1,-1,-1,-1,-1,-1,-1,-1,-1,-1],"loss_changes":[4.601812E3,2.1181445E2,4.0222375E2,4.547284E1,6.0949707E0,1.0128581E2,3.5715088E1,9.643585E0,2.3642513E1,2.8078613E0,1.8079017E0,2.2399359E1,4.2886414E1,9.297516E0,6.7526855E0,0E0,0E0,0E0,0E0,0E0,0E0,0E0,0E0,0E0,0E0,0E0,0E0,0E0,0E0,0E0,0E0],"parents":[2147483647,0,0,1,1,2,2,3,3,4,4,5,5,6,6,7,7,8,8,9,9,10,10,11,11,12,12,13,13,14,14],"right_children":[2,4,6,8,10,12,14,16,18,20,22,24,26,28,30,-1,-1,-1,-1,-1,-1,-1,-1,-1,-1,-1,-1,-1,-1,-1,-1],"split_conditions":[5.7141054E-1,2.3475351E0,1.469679E0,2.7066698E-2,7.7757105E-2,1.402235E0,2.5290213E0,4.701266E-1,4.6273175E-1,5.4995495E-1,2.5055025E0,8.767513E-1,5.1735604E-1,1.649982E0,2.2308467E-1,-5.031061E-3,-1.1461668E-2,-5.7881987E-3,3.099615E-3,-2.2121133E-2,2.422317E-2,-1.8912097E-2,2.195812E-3,1.5074541E-3,-5.1212045E-3,2.6098085E-3,9.7593255E-3,1.0879474E-2,1.5002588E-2,-9.17673E-3,2.1314068E-2],"split_indices":[1,56,68,1,81,3,3,89,81,1,40,56,36,64,36,0,0,0,0,0,0,0,0,0,0,0,0,0,0,0,0],"split_type":[0,0,0,0,0,0,0,0,0,0,0,0,0,0,0,0,0,0,0,0,0,0,0,0,0,0,0,0,0,0,0],"sum_hessian":[1.0382E4,4.543E3,5.839E3,1.674E3,2.869E3,2.449E3,3.39E3,1.047E3,6.27E2,2.847E3,2.2E1,8.43E2,1.606E3,9.35E2,2.455E3,3.8E1,1.009E3,5.22E2,1.05E2,2.846E3,1E0,1.8E1,4E0,6.07E2,2.36E2,3.97E2,1.209E3,3.94E2,5.41E2,4E0,2.451E3],"tree_param":{"num_deleted":"0","num_feature":"96","num_nodes":"31","size_leaf_vector":"1"}},{"base_weights":[-6.3401964E-3,-7.169641E-1,5.936713E-1,-3.9575523E-1,-9.114228E-1,2.682439E-1,7.772563E-1,-5.067119E-1,-9.2168674E-2,-9.2758256E-1,-4.6260163E-1,-2.087087E-2,4.0451938E-1,5.8699286E-1,8.319149E-1,-1.1855395E-2,-6.3569793E-3,4.810345E-3,-3.770408E-3,-1.2666666E-3,-1.866879E-2,-1.7575757E-3,-1.0779999E-2,-4.8525897E-3,2.2070587E-3,3.6436059E-3,1.0289105E-2,1.2007308E-2,-6.6666666E-4,4.388889E-3,1.6737532E-2],"categories":[],"categories_nodes":[],"categories_segments":[],"categories_sizes":[],"default_left":[0,0,0,0,0,0,0,0,0,0,0,0,0,0,0,0,0,0,0,0,0,0,0,0,0,0,0,0,0,0,0],"id":5,"left_children":[1,3,5,7,9,11,13,15,17,19,21,23,25,27,29,-1,-1,-1,-1,-1,-1,-1,-1,-1,-1,-1,-1,-1,-1,-1,-1],"loss_changes":[4.4360884E3,2.937683E2,3.348241E2,6.0577606E1,1.703125E1,8.089125E1,3.2423584E1,1.9576477E1,1.6411545E1,1.3715088E1,2.9849148E0,1.9661583E1,3.3066696E1,7.208313E0,6.484741E0,0E0,0E0,0E0,0E0,0E0,0E0,0E0,0E0,0E0,0E0,0E0,0E0,0E0,0E0,0E0,0E0],"parents":[2147483647,0,0,1,1,2,2,3,3,4,4,5,5,6,6,7,7,8,8,9,9,10,10,11,11,12,12,13,13,14,14],"right_children":[2,4,6,8,10,12,14,16,18,20,22,24,26,28,30,-1,-1,-1,-1,-1,-1,-1,-1,-1,-1,-1,-1,-1,-1,-1,-1],"split_conditions":[7.590609E-1,2.3507702E0,2.1178153E0,3.616284E-2,1.5512393E-1,1.3386865E0,2.3803122E0,9.649998E-2,8.6036366E-1,1.5217824E0,1.7829238E0,3.3263135E-1,1.4604808E0,1.107329E0,1.004869E0,-1.1297925E-2,-5.400974E-3,1.9571127E-3,-3.6256579E-3,-5.5235396E-3,-2.1404661E-2,-1.8191201E-3,-1.0458479E-2,-3.7174614E-3,2.4483912E-3,3.4918599E-3,1.0403148E-2,1.1218641E-2,-1.8673092E-5,1.2457707E-2,2.0503383E-2],"split_indices":[1,35,3,81,3,3,1,1,17,90,17,81,1,17,81,0,0,0,0,0,0,0,0,0,0,0,0,0,0,0,0],"split_type":[0,0,0,0,0,0,0,0,0,0,0,0,0,0,0,0,0,0,0,0,0,0,0,0,0,0,0,0,0,0,0],"sum_hessian":[1.0384E4,4.753E3,5.631E3,1.804E3,2.949E3,2.04E3,3.591E3,1.316E3,4.88E2,2.836E3,1.13E2,6.56E2,1.384E3,8.28E2,2.763E3,8.89E2,4.27E2,1.06E2,3.82E2,2E1,2.816E3,2.3E1,9E1,2.41E2,4.15E2,4.67E2,9.17E2,8.11E2,1.7E1,2.6E1,2.737E3],"tree_param":{"num_deleted":"0","num_feature":"96","num_nodes":"31","size_leaf_vector":"1"}},{"base_weights":[-1.3723231E-2,-7.074778E-1,5.879434E-1,-4.0892586E-1,-9.114017E-1,7.587254E-1,2.6234505E-1,-5.765088E-1,-2.0731442E-1,-6.5966666E-1,-9.371218E-1,5.899734E-1,8.306026E-1,1.17514595E-1,4.9116465E-1,-4.7768597E-3,-1.2254659E-2,-1.2418953E-3,-6.2819044E-3,-1.3532645E-2,-9.4736845E-4,-1.3846154E-3,-1.8756505E-2,2.2571427E-3,1.2313027E-2,1.418904E-2,1.7492028E-2,-8.269896E-4,5.2266247E-3,6.209459E-3,1.1926247E-2],"categories":[],"categories_nodes":[],"categories_segments":[],"categories_sizes":[],"default_left":[0,0,0,0,0,0,0,0,0,0,0,0,0,0,0,0,0,0,0,0,0,0,0,0,0,0,0,0,0,0,0],"id":6,"left_children":[1,3,5,7,9,11,13,15,17,19,21,23,25,27,29,-1,-1,-1,-1,-1,-1,-1,-1,-1,-1,-1,-1,-1,-1,-1,-1],"loss_changes":[4.3506514E3,2.9086987E2,3.0830176E2,6.572534E1,1.2228027E1,3.9302734E1,6.3521072E1,1.1624878E1,1.3971455E1,2.7234955E0,8.2373047E-1,1.3039673E1,7.1707764E0,2.7523966E1,1.2250427E1,0E0,0E0,0E0,0E0,0E0,0E0,0E0,0E0,0E0,0E0,0E0,0E0,0E0,0E0,0E0,0E0],"parents":[2147483647,0,0,1,1,2,2,3,3,4,4,5,5,6,6,7,7,8,8,9,9,10,10,11,11,12,12,13,13,14,14],"right_children":[2,4,6,8,10,12,14,16,18,20,22,24,26,28,30,-1,-1,-1,-1,-1,-1,-1,-1,-1,-1,-1,-1,-1,-1,-1,-1],"split_conditions":[8.1259406E-1,3.0545287E0,2.8847754E-1,9.649998E-2,2.8041718E0,1.7757127E0,9.1239333E-1,6.0557514E-1,1.4969984E0,3.4934573E0,1.6331089E0,3.2367787E-1,2.1751983E0,1.3378069E0,1.117285E0,-5.3850077E-3,-1.1000767E-2,-8.8012207E-4,-5.383662E-3,-1.4552961E-2,-1.428482E-2,-1.0361161E-2,-2.1427002E-2,2.0541784E-3,1.2563487E-2,1.559978E-2,2.2356236E-2,-6.9557846E-4,4.723116E-3,5.9013716E-3,1.147479E-2],"split_indices":[1,12,12,1,89,68,36,25,12,40,40,36,94,1,94,0,0,0,0,0,0,0,0,0,0,0,0,0,0,0,0],"split_type":[0,0,0,0,0,0,0,0,0,0,0,0,0,0,0,0,0,0,0,0,0,0,0,0,0,0,0,0,0,0,0],"sum_hessian":[1.0403E4,4.831E3,5.572E3,1.973E3,2.858E3,3.646E3,1.926E3,1.067E3,9.06E2,2.9E2,2.568E3,1.117E3,2.529E3,1.189E3,7.37E2,1.11E2,9.56E2,3.91E2,5.15E2,2.81E2,9E0,3E0,2.565E3,6E1,1.057E3,7.2E2,1.809E3,5.68E2,6.21E2,2.86E2,4.51E2],"tree_param":{"num_deleted":"0","num_feature":"96","num_nodes":"31","size_leaf_vector":"1"}},{"base_weights":[-6.685399E-4,-7.1169025E-1,5.84036E-1,-3.113024E-1,-8.698741E-1,2.7032408E-1,7.7490765E-1,-3.7351164E-1,9.037433E-2,-6.369806E-1,-9.3060213E-1,5.2285396E-2,4.2175964E-1,5.7148594E-1,8.267074E-1,-8.347573E-3,-4.172662E-4,-4.125E-3,3.610738E-3,-1.3739264E-2,-2.975E-3,-1.3970873E-2,-1.8928336E-2,4.013857E-3,-1.6835444E-3,5.326653E-3,1.0303571E-2,1.2570983E-2,4.1206894E-3,1.4167263E-2,1.7461892E-2],"categories":[],"categories_nodes":[],"categories_segments":[],"categories_sizes":[],"default_left":[0,0,0,0,0,0,0,0,0,0,0,0,0,0,0,0,0,0,0,0,0,0,0,0,0,0,0,0,0,0,0],"id":7,"left_children":[1,3,5,7,9,11,13,15,17,19,21,23,25,27,29,-1,-1,-1,-1,-1,-1,-1,-1,-1,-1,-1,-1,-1,-1,-1,-1],"loss_changes":[4.2949976E3,2.924414E2,3.3725317E2,3.3749847E1,4.1096924E1,7.1052704E1,3.2216064E1,1.7798386E1,5.370992E0,1.651352E1,2.8544922E0,1.8346695E1,1.7033478E1,1.419931E1,8.929321E0,0E0,0E0,0E0,0E0,0E0,0E0,0E0,0E0,0E0,0E0,0E0,0E0,0E0,0E0,0E0,0E0],"parents":[2147483647,0,0,1,1,2,2,3,3,4,4,5,5,6,6,7,7,8,8,9,9,10,10,11,11,12,12,13,13,14,14],"right_children":[2,4,6,8,10,12,14,16,18,20,22,24,26,28,30,-1,-1,-1,-1,-1,-1,-1,-1,-1,-1,-1,-1,-1,-1,-1,-1],"split_conditions":[7.201592E-1,1.7111821E0,1.3936795E0,4.4998378E-1,3.3291054E0,8.230101E-1,2.3962398E0,3.2367787E-1,3.1408425E-2,2.1000814E-2,2.5246794E0,7.7340895E-1,1.5684183E0,7.888137E-1,2.1804705E0,-6.8815607E-3,-1.3030081E-3,-5.5706734E-3,2.810179E-3,-1.278862E-2,-4.125194E-3,-1.4094917E-2,-2.1318538E-2,3.5120451E-3,-1.727023E-3,5.0047133E-3,1.0838719E-2,1.186434E-2,3.918312E-3,1.4844692E-2,2.1612745E-2],"split_indices":[1,56,68,81,12,64,1,36,64,81,56,17,1,17,64,0,0,0,0,0,0,0,0,0,0,0,0,0,0,0,0],"split_type":[0,0,0,0,0,0,0,0,0,0,0,0,0,0,0,0,0,0,0,0,0,0,0,0,0,0,0,0,0,0,0],"sum_hessian":[1.0311E4,4.652E3,5.659E3,1.326E3,3.326E3,2.15E3,3.509E3,1.149E3,1.77E2,7.12E2,2.614E3,8.87E2,1.263E3,7.37E2,2.772E3,1.02E3,1.29E2,3.8E1,1.39E2,6.42E2,7E1,1.96E2,2.418E3,4.23E2,4.64E2,4.89E2,7.74E2,6.31E2,1.06E2,8.27E2,1.945E3],"tree_param":{"num_deleted":"0","num_feature":"96","num_nodes":"31","size_leaf_vector":"1"}},{"base_weights":[-1.9054002E-3,-7.0348084E-1,5.866139E-1,-3.8347927E-1,-8.799413E-1,2.441579E-1,7.564954E-1,-4.8600656E-1,-1.255489E-1,-6.810403E-1,-9.241532E-1,-9.21875E-3,3.7E-1,5.4651713E-1,8.1402975E-1,-1.1265853E-2,-6.4029125E-3,-3.8070588E-3,4.1627907E-3,-1.3986183E-2,-6.6666666E-4,-1.8512923E-2,-0E0,7.5517246E-4,-7.971428E-3,3.8522524E-3,1.0011034E-2,1.2289051E-2,4.872093E-3,1.4985157E-2,1.8187989E-2],"categories":[],"categories_nodes":[],"categories_segments":[],"categories_sizes":[],"default_left":[0,0,0,0,0,0,0,0,0,0,0,0,0,0,0,0,0,0,0,0,0,0,0,0,0,0,0,0,0,0,0],"id":8,"left_children":[1,3,5,7,9,11,13,15,17,19,21,23,25,27,29,-1,-1,-1,-1,-1,-1,-1,-1,-1,-1,-1,-1,-1,-1,-1,-1],"loss_changes":[4.316368E3,2.6579346E2,3.2878894E2,4.462877E1,2.0507324E1,6.0652557E1,4.1262207E1,1.3772797E1,1.1228226E1,6.746063E0,3.421875E0,1.1892666E1,2.8377502E1,1.5847336E1,1.1292725E1,0E0,0E0,0E0,0E0,0E0,0E0,0E0,0E0,0E0,0E0,0E0,0E0,0E0,0E0,0E0,0E0],"parents":[2147483647,0,0,1,1,2,2,3,3,4,4,5,5,6,6,7,7,8,8,9,9,10,10,11,11,12,12,13,13,14,14],"right_children":[2,4,6,8,10,12,14,16,18,20,22,24,26,28,30,-1,-1,-1,-1,-1,-1,-1,-1,-1,-1,-1,-1,-1,-1,-1,-1],"split_conditions":[7.590609E-1,2.3883233E0,1.4033641E0,2.1000814E-2,2.9541156E0,5.84088E-1,2.2981193E0,9.649998E-2,7.9395586E-1,4.194806E-1,2.0503873E-1,1.7671806E0,9.001639E-1,8.3312327E-1,2.8035939E0,-9.861549E-3,-5.5947816E-3,-3.0518442E-3,3.3418213E-3,-1.44544E-2,-1.3455712E-3,-2.1062838E-2,-7.381836E-3,8.3100057E-4,-8.094357E-3,3.4914657E-3,9.413047E-3,1.0691468E-2,3.9775874E-3,1.5709152E-2,2.2890281E-2],"split_indices":[1,17,64,81,17,81,1,1,81,1,64,17,64,17,64,0,0,0,0,0,0,0,0,0,0,0,0,0,0,0,0],"split_type":[0,0,0,0,0,0,0,0,0,0,0,0,0,0,0,0,0,0,0,0,0,0,0,0,0,0,0,0,0,0,0],"sum_hessian":[1.0434E4,4.759E3,5.675E3,1.703E3,3.056E3,1.89E3,3.785E3,1.212E3,4.91E2,5.86E2,2.47E3,6.3E2,1.26E3,8.37E2,2.948E3,8.1E2,4.02E2,4.15E2,7.6E1,5.69E2,1.7E1,2.466E3,4E0,5.7E2,6E1,5.45E2,7.15E2,6.75E2,1.62E2,1.809E3,1.139E3],"tree_param":{"num_deleted":"0","num_feature":"96","num_nodes":"31","size_leaf_vector":"1"}},{"base_weights":[-2.2028679E-2,-6.666471E-1,5.9817016E-1,-2.8365976E-1,-8.7056875E-1,2.735107E-1,7.531826E-1,-3.991093E-1,-2.4733096E-2,-6.9782823E-1,-9.421983E-1,9.485531E-3,4.1799462E-1,5.6694824E-1,8.169754E-1,-3.6890756E-3,-8.91559E-3,4.4069765E-3,-2.595E-3,3.1666665E-3,-1.4023739E-2,-4.9374998E-3,-1.8954743E-2,2.3991852E-3,-7.503546E-3,1.161875E-2,6.961586E-3,1.2034522E-2,3.1590909E-3,1.4658576E-2,1.7687103E-2],"categories":[],"categories_nodes":[],"categories_segments":[],"categories_sizes":[],"default_left":[0,0,0,0,0,0,0,0,0,0,0,0,0,0,0,0,0,0,0,0,0,0,0,0,0,0,0,0,0,0,0],"id":9,"left_children":[1,3,5,7,9,11,13,15,17,19,21,23,25,27,29,-1,-1,-1,-1,-1,-1,-1,-1,-1,-1,-1,-1,-1,-1,-1,-1],"loss_changes":[4.158229E3,3.9572217E2,2.646167E2,5.3277634E1,3.4377686E1,6.5874466E1,3.7785522E1,1.1486969E1,1.4741457E1,4.077484E0,6.47583E0,2.6856514E1,1.0610062E1,1.24436035E1,8.335327E0,0E0,0E0,0E0,0E0,0E0,0E0,0E0,0E0,0E0,0E0,0E0,0E0,0E0,0E0,0E0,0E0],"parents":[2147483647,0,0,1,1,2,2,3,3,4,4,5,5,6,6,7,7,8,8,9,9,10,10,11,11,12,12,13,13,14,14],"right_children":[2,4,6,8,10,12,14,16,18,20,22,24,26,28,30,-1,-1,-1,-1,-1,-1,-1,-1,-1,-1,-1,-1,-1,-1,-1,-1],"split_conditions":[5.495196E-1,2.1064253E0,1.4843831E0,4.9258465E-1,3.031121E0,1.2628591E0,1.7391301E0,9.023566E-1,4.848396E-1,9.643661E-1,2.4689481E0,1.2414217E0,2.5507832E-2,1.1955886E0,2.5363483E0,-3.1345417E-3,-7.867989E-3,3.6893073E-3,-2.530307E-3,2.1275844E-2,-1.3484215E-2,-9.20895E-3,-2.0847801E-2,2.0190529E-3,-5.924621E-3,1.09930765E-2,6.8761897E-3,1.0828113E-2,3.7653926E-3,1.5169008E-2,2.1863902E-2],"split_indices":[64,17,64,94,35,47,94,17,17,12,17,25,12,17,64,0,0,0,0,0,0,0,0,0,0,0,0,0,0,0,0],"split_type":[0,0,0,0,0,0,0,0,0,0,0,0,0,0,0,0,0,0,0,0,0,0,0,0,0,0,0,0,0,0,0],"sum_hessian":[1.0381E4,5.09E3,5.291E3,1.777E3,3.313E3,1.719E3,3.572E3,1.225E3,5.52E2,1.003E3,2.31E3,6.12E2,1.107E3,9.37E2,2.635E3,2.28E2,9.97E2,1.62E2,3.9E2,2E0,1.001E3,2.2E1,2.288E3,4.81E2,1.31E2,3.1E2,7.97E2,8.59E2,7.8E1,1.226E3,1.409E3],"tree_param":{"num_deleted":"0","num_feature":"96","num_nodes":"31","size_leaf_vector":"1"}},{"base_weights":[-6.925448E-3,-7.293872E-1,5.5641377E-1,-4.3004164E-1,-9.014226E-1,2.2774102E-1,7.412001E-1,-5.595413E-1,-1.8785357E-1,-9.058557E-1,3.9130434E-2,-2.9321384E-2,3.7539032E-1,5.5659896E-1,8.234674E-1,-1.1615311E-2,-1.0545454E-3,-4.8415298E-3,6.4193546E-3,-1.5978536E-2,-1.9200647E-2,5.571428E-3,-3.0526316E-3,-2.067961E-3,4.728324E-3,3.995122E-3,8.950264E-3,1.3663366E-3,1.1932173E-2,1.495481E-2,1.8063387E-2],"categories":[],"categories_nodes":[],"categories_segments":[],"categories_sizes":[],"default_left":[0,0,0,0,0,0,0,0,0,0,0,0,0,0,0,0,0,0,0,0,0,0,0,0,0,0,0,0,0,0,0],"id":10,"left_children":[1,3,5,7,9,11,13,15,17,19,21,23,25,27,29,-1,-1,-1,-1,-1,-1,-1,-1,-1,-1,-1,-1,-1,-1,-1,-1],"loss_changes":[4.229457E3,2.3046094E2,3.528423E2,5.1595795E1,1.245752E1,8.045766E1,5.1970215E1,1.1355316E1,1.7350554E1,8.774414E0,1.4938427E0,1.5605099E1,1.6078781E1,2.2617462E1,8.538574E0,0E0,0E0,0E0,0E0,0E0,0E0,0E0,0E0,0E0,0E0,0E0,0E0,0E0,0E0,0E0,0E0],"parents":[2147483647,0,0,1,1,2,2,3,3,4,4,5,5,6,6,7,7,8,8,9,9,10,10,11,11,12,12,13,13,14,14],"right_children":[2,4,6,8,10,12,14,16,18,20,22,24,26,28,30,-1,-1,-1,-1,-1,-1,-1,-1,-1,-1,-1,-1,-1,-1,-1,-1],"split_conditions":[5.7141054E-1,2.5461798E0,1.3062108E0,9.649998E-2,6.3754135E-1,1.3765241E0,2.5290213E0,4.3673825E-1,8.0478007E-1,3.4070818E0,1.5355817E0,9.129421E-1,6.912173E-1,1.2565145E0,2.7302759E0,-1.0281117E-2,-1.5128446E-3,-4.0277736E-3,3.3685444E-3,-1.5006531E-2,-2.0837827E-2,2.2468676E-3,-1.6694413E-2,-1.560277E-3,4.10217E-3,3.3472446E-3,8.814367E-3,1.9906696E-3,1.1703527E-2,1.5145754E-2,2.2129096E-2],"split_indices":[1,17,68,1,3,3,3,81,68,35,12,81,81,3,64,0,0,0,0,0,0,0,0,0,0,0,0,0,0,0,0],"split_type":[0,0,0,0,0,0,0,0,0,0,0,0,0,0,0,0,0,0,0,0,0,0,0,0,0,0,0,0,0,0,0],"sum_hessian":[1.0372E4,4.543E3,5.829E3,1.671E3,2.872E3,2.106E3,3.723E3,1.08E3,5.91E2,2.859E3,1.3E1,7.71E2,1.335E3,1.172E3,2.551E3,1.035E3,4.5E1,5.39E2,5.2E1,1.015E3,1.844E3,4E0,9E0,6.08E2,1.63E2,4E2,9.35E2,9.1E1,1.081E3,1.362E3,1.189E3],"tree_param":{"num_deleted":"0","num_feature":"96","num_nodes":"31","size_leaf_vector":"1"}},{"base_weights":[-1.2008461E-2,-6.534731E-1,5.8302164E-1,-3.0764103E-1,-8.709772E-1,2.4435484E-1,7.2516453E-1,-4.490678E-1,-8.961538E-2,-7.519449E-1,-9.457747E-1,-2.8598849E-2,3.7138966E-1,5.9588456E-1,8.4618163E-1,-6.286219E-3,-1.1278846E-2,-5.6771925E-3,4.3168318E-4,-7.826087E-4,-1.5182637E-2,-2.7142859E-3,-1.8934853E-2,4.152284E-3,-3.3473053E-3,5.944844E-3,1.1617328E-2,1.0049948E-2,1.3736956E-2,1.6958635E-2,-0E0],"categories":[],"categories_nodes":[],"categories_segments":[],"categories_sizes":[],"default_left":[0,0,0,0,0,0,0,0,0,0,0,0,0,0,0,0,0,0,0,0,0,0,0,0,0,0,0,0,0,0,0],"id":11,"left_children":[1,3,5,7,9,11,13,15,17,19,21,23,25,27,29,-1,-1,-1,-1,-1,-1,-1,-1,-1,-1,-1,-1,-1,-1,-1,-1],"loss_changes":[3.9737825E3,3.7405444E2,2.5813025E2,5.967128E1,2.0051758E1,5.6035973E1,5.4249146E1,1.6406204E1,1.69354E1,5.9448853E0,5.444336E-2,1.7421019E1,1.528653E1,1.2323486E1,2.8701172E0,0E0,0E0,0E0,0E0,0E0,0E0,0E0,0E0,0E0,0E0,0E0,0E0,0E0,0E0,0E0,0E0],"parents":[2147483647,0,0,1,1,2,2,3,3,4,4,5,5,6,6,7,7,8,8,9,9,10,10,11,11,12,12,13,13,14,14],"right_children":[2,4,6,8,10,12,14,16,18,20,22,24,26,28,30,-1,-1,-1,-1,-1,-1,-1,-1,-1,-1,-1,-1,-1,-1,-1,-1],"split_conditions":[1.2410239E0,2.3883233E0,1.3663504E0,7.66805E-1,4.240038E0,5.6084627E-1,2.3458261E0,1.706183E0,1.00851856E-1,1.5160643E0,2.5149705E0,4.848396E-1,1.6418155E0,2.5290213E0,8.505298E-1,-5.5906046E-3,-9.504667E-3,-3.912359E-3,4.5813425E-4,-4.832822E-4,-1.4850447E-2,-1.6114395E-2,-2.0561066E-2,3.929315E-3,-2.2296833E-3,5.548838E-3,1.10668E-2,9.307474E-3,1.3708141E-2,1.9748576E-2,5.4215025E-3],"split_indices":[3,17,64,3,12,64,64,17,64,12,89,17,94,3,37,0,0,0,0,0,0,0,0,0,0,0,0,0,0,0,0],"split_type":[0,0,0,0,0,0,0,0,0,0,0,0,0,0,0,0,0,0,0,0,0,0,0,0,0,0,0,0,0,0,0],"sum_hessian":[1.0391E4,5E3,5.391E3,1.94E3,3.06E3,1.602E3,3.789E3,1.17E3,7.7E2,1.224E3,1.836E3,5.11E2,1.091E3,1.861E3,1.928E3,5.56E2,6.14E2,2.75E2,4.95E2,1.3E1,1.211E3,4E0,1.832E3,1.87E2,3.24E2,8.24E2,2.67E2,9.51E2,9.1E2,1.924E3,4E0],"tree_param":{"num_deleted":"0","num_feature":"96","num_nodes":"31","size_leaf_vector":"1"}},{"base_weights":[-1.52392825E-2,5.2327245E-1,-7.0496064E-1,1.8040414E-1,7.16778E-1,-3.7487003E-1,-9.0259194E-1,-2.1089809E-2,3.5300785E-1,5.472397E-1,8.0036217E-1,-4.7411957E-1,-1.3442308E-1,-5.577922E-1,-9.188123E-1,-2.6282894E-3,2.9974554E-3,2.338028E-3,8.048728E-3,1.4047619E-3,1.1522613E-2,1.4441033E-2,1.7420843E-2,-2.7260273E-3,-1.0302303E-2,-4.9125683E-3,2.4268292E-3,-1.2326241E-2,7.826087E-4,-1.4208835E-2,-1.8720873E-2],"categories":[],"categories_nodes":[],"categories_segments":[],"categories_sizes":[],"default_left":[0,0,0,0,0,0,0,0,0,0,0,0,0,0,0,0,0,0,0,0,0,0,0,0,0,0,0,0,0,0,0],"id":12,"left_children":[1,3,5,7,9,11,13,15,17,19,21,23,25,27,29,-1,-1,-1,-1,-1,-1,-1,-1,-1,-1,-1,-1,-1,-1,-1,-1],"loss_changes":[3.8765354E3,3.8747632E2,2.9500977E2,7.4116516E1,4.8526367E1,4.0610855E1,1.069458E1,1.8886745E1,1.2863571E1,1.7005005E1,7.305664E0,1.6142456E1,1.5100516E1,5.678383E0,2.9191895E0,0E0,0E0,0E0,0E0,0E0,0E0,0E0,0E0,0E0,0E0,0E0,0E0,0E0,0E0,0E0,0E0],"parents":[2147483647,0,0,1,1,2,2,3,3,4,4,5,5,6,6,7,7,8,8,9,9,10,10,11,11,12,12,13,13,14,14],"right_children":[2,4,6,8,10,12,14,16,18,20,22,24,26,28,30,-1,-1,-1,-1,-1,-1,-1,-1,-1,-1,-1,-1,-1,-1,-1,-1],"split_conditions":[1.5160643E0,1.3062108E0,2.3475351E0,5.3923154E-1,2.5784652E0,7.81208E-1,2.4689481E0,5.84088E-1,1.402235E0,1.2565145E0,2.4848554E0,6.6232336E-1,4.4998378E-1,1.6419133E-2,2.812481E0,-1.7570957E-3,2.1541712E-3,2.5517645E-3,7.856651E-3,1.2387276E-3,1.1578901E-2,1.4692351E-2,2.1072464E-2,-4.078453E-3,-9.610196E-3,-4.3133665E-3,2.4200617E-3,-1.1295209E-2,2.368637E-3,-1.2686535E-2,-1.9282099E-2],"split_indices":[12,68,56,36,3,3,17,81,3,3,68,25,81,68,56,0,0,0,0,0,0,0,0,0,0,0,0,0,0,0,0],"split_type":[0,0,0,0,0,0,0,0,0,0,0,0,0,0,0,0,0,0,0,0,0,0,0,0,0,0,0,0,0,0,0],"sum_hessian":[1.0417E4,5.851E3,4.566E3,2.118E3,3.733E3,1.721E3,2.845E3,9.81E2,1.137E3,1.258E3,2.475E3,1.211E3,5.1E2,1.44E2,2.701E3,5.98E2,3.83E2,2.03E2,9.34E2,7.4E1,1.184E3,1.228E3,1.247E3,1.36E2,1.075E3,3.56E2,1.54E2,1.31E2,1.3E1,2.39E2,2.462E3],"tree_param":{"num_deleted":"0","num_feature":"96","num_nodes":"31","size_leaf_vector":"1"}},{"base_weights":[-1.8501908E-2,-6.8423337E-1,5.50274E-1,-3.8709512E-1,-8.8126296E-1,2.0569886E-1,6.92475E-1,-5.323005E-1,-2.088764E-1,-1.5084746E-1,-8.932608E-1,5.164706E-2,3.6142683E-1,5.918131E-1,8.551793E-1,-4.447059E-3,-1.1068687E-2,-5.660739E-3,2.4733727E-3,-5.265306E-3,3.8999997E-3,-1.51845785E-2,-1.8920619E-2,2.8538206E-3,-3.248062E-3,4.3197493E-3,8.876448E-3,2.0625E-3,1.2174523E-2,1.7149134E-2,-0E0],"categories":[],"categories_nodes":[],"categories_segments":[],"categories_sizes":[],"default_left":[0,0,0,0,0,0,0,0,0,0,0,0,0,0,0,0,0,0,0,0,0,0,0,0,0,0,0,0,0,0,0],"id":13,"left_children":[1,3,5,7,9,11,13,15,17,19,21,23,25,27,29,-1,-1,-1,-1,-1,-1,-1,-1,-1,-1,-1,-1,-1,-1,-1,-1],"loss_changes":[3.9720518E3,2.794099E2,2.7567285E2,4.914731E1,2.3944336E1,3.9763657E1,6.030664E1,5.66803E0,2.2314892E1,2.81408E0,1.2797607E1,1.6794544E1,8.885826E0,1.9997192E1,2.9331055E0,0E0,0E0,0E0,0E0,0E0,0E0,0E0,0E0,0E0,0E0,0E0,0E0,0E0,0E0,0E0,0E0],"parents":[2147483647,0,0,1,1,2,2,3,3,4,4,5,5,6,6,7,7,8,8,9,9,10,10,11,11,12,12,13,13,14,14],"right_children":[2,4,6,8,10,12,14,16,18,20,22,24,26,28,30,-1,-1,-1,-1,-1,-1,-1,-1,-1,-1,-1,-1,-1,-1,-1,-1],"split_conditions":[7.590609E-1,2.2966714E0,1.842761E0,2.7066698E-2,1.5953301E0,1.3378069E0,3.3259027E0,5.2111644E-1,5.1194924E-1,1.4829878E0,3.4044614E0,6.474236E-1,1.361695E0,2.808566E-1,9.376456E-2,-3.8429876E-3,-1.0097875E-2,-4.4705723E-3,1.704171E-3,-1.0247403E-2,4.0232344E-3,-1.3444281E-2,-1.9853868E-2,2.7457385E-3,-2.8478135E-3,3.5166359E-3,8.220585E-3,2.6895553E-3,1.2120627E-2,2.0540705E-2,5.231923E-3],"split_indices":[1,56,1,1,90,1,1,25,81,90,56,56,47,36,25,0,0,0,0,0,0,0,0,0,0,0,0,0,0,0,0],"split_type":[0,0,0,0,0,0,0,0,0,0,0,0,0,0,0,0,0,0,0,0,0,0,0,0,0,0,0,0,0,0,0],"sum_hessian":[1.047E4,4.823E3,5.647E3,1.935E3,2.888E3,1.657E3,3.99E3,1.055E3,8.8E2,4.9E1,2.839E3,8.4E2,8.17E2,2.494E3,1.496E3,7.5E1,9.8E2,7.21E2,1.59E2,3.9E1,1E1,8.46E2,1.993E3,5.92E2,2.48E2,3.09E2,5.08E2,8.6E1,2.408E3,1.492E3,4E0],"tree_param":{"num_deleted":"0","num_feature":"96","num_nodes":"31","size_leaf_vector":"1"}},{"base_weights":[-1.1913462E-2,-6.7716587E-1,5.4014766E-1,-4.047276E-1,-9.15498E-1,2.1346647E-1,7.0899624E-1,-2.118497E-1,-5.6906956E-1,-3.4363636E-1,-9.24503E-1,3.791946E-2,3.5818523E-1,4.074875E-1,7.6415217E-1,-6.0291E-3,5.4109585E-4,-1.189785E-2,-3.4252873E-3,-8.95E-3,-7.1999995E-4,-4.5384616E-3,-1.856186E-2,3.1757322E-3,-1.967136E-3,7.8078513E-3,8.8288286E-4,9.421456E-3,-2.0224717E-4,1.4191768E-2,1.7649895E-2],"categories":[],"categories_nodes":[],"categories_segments":[],"categories_sizes":[],"default_left":[0,0,0,0,0,0,0,0,0,0,0,0,0,0,0,0,0,0,0,0,0,0,0,0,0,0,0,0,0,0,0],"id":14,"left_children":[1,3,5,7,9,11,13,15,17,19,21,23,25,27,29,-1,-1,-1,-1,-1,-1,-1,-1,-1,-1,-1,-1,-1,-1,-1,-1],"loss_changes":[3.8231753E3,3.0270093E2,3.1219763E2,6.911746E1,9.621582E0,4.944043E1,5.906494E1,2.2329575E1,1.1159637E1,1.5479231E0,3.9519043E0,1.4887584E1,1.0596527E1,1.6052208E1,1.3951172E1,0E0,0E0,0E0,0E0,0E0,0E0,0E0,0E0,0E0,0E0,0E0,0E0,0E0,0E0,0E0,0E0],"parents":[2147483647,0,0,1,1,2,2,3,3,4,4,5,5,6,6,7,7,8,8,9,9,10,10,11,11,12,12,13,13,14,14],"right_children":[2,4,6,8,10,12,14,16,18,20,22,24,26,28,30,-1,-1,-1,-1,-1,-1,-1,-1,-1,-1,-1,-1,-1,-1,-1,-1],"split_conditions":[6.9801474E-1,2.791765E0,1.3062108E0,1.5677367E0,2.312054E0,7.085577E-1,1.0504513E0,1.588436E-1,2.9769972E-1,3.1058474E0,2.5288277E0,1.9949505E-1,6.165346E-1,7.014313E-1,3.7509627E0,-5.6284005E-3,4.7087503E-4,-1.0806391E-2,-3.554986E-3,-1.0517181E-2,-3.556921E-3,-1.0598524E-2,-1.8735413E-2,3.1640613E-3,-1.6960084E-3,7.750039E-3,3.7778393E-4,9.12807E-3,-5.692234E-4,1.3946845E-2,2.176012E-2],"split_indices":[1,56,68,90,35,68,36,36,1,89,12,56,56,35,1,0,0,0,0,0,0,0,0,0,0,0,0,0,0,0,0],"split_type":[0,0,0,0,0,0,0,0,0,0,0,0,0,0,0,0,0,0,0,0,0,0,0,0,0,0,0,0,0,0,0],"sum_hessian":[1.039E4,4.711E3,5.679E3,2.211E3,2.5E3,1.943E3,3.736E3,1.028E3,1.183E3,4.5E1,2.455E3,8.84E2,1.059E3,5.91E2,3.145E3,7.46E2,2.82E2,1.106E3,7.7E1,3E1,1.5E1,1.6E1,2.439E3,4.68E2,4.16E2,9.58E2,1.01E2,5.12E2,7.9E1,2.201E3,9.44E2],"tree_param":{"num_deleted":"0","num_feature":"96","num_nodes":"31","size_leaf_vector":"1"}},{"base_weights":[-1.6221207E-2,5.059546E-1,-6.8330383E-1,7.187297E-1,2.0395504E-1,-3.617944E-1,-8.707968E-1,6.0636145E-1,8.2481027E-1,4.2195678E-1,7.756034E-2,-4.50838E-1,-9.977273E-2,-5.8672565E-1,-9.0551585E-1,1.2247607E-2,-3.8999997E-3,1.6581627E-2,-5.571428E-3,6.3709947E-3,1.2290541E-2,-1.0902613E-3,4.7047073E-3,-4.7443947E-3,-9.8442305E-3,5.130111E-4,-5.624309E-3,-1.2548896E-2,-0E0,-1.5851093E-2,-1.8849863E-2],"categories":[],"categories_nodes":[],"categories_segments":[],"categories_sizes":[],"default_left":[0,0,0,0,0,0,0,0,0,0,0,0,0,0,0,0,0,0,0,0,0,0,0,0,0,0,0,0,0,0,0],"id":15,"left_children":[1,3,5,7,9,11,13,15,17,19,21,23,25,27,29,-1,-1,-1,-1,-1,-1,-1,-1,-1,-1,-1,-1,-1,-1,-1,-1],"loss_changes":[3.587488E3,3.696604E2,2.6931592E2,3.5204956E1,6.580812E1,3.876178E1,2.2636475E1,9.348694E0,1.0437378E1,1.5452744E1,3.207054E1,9.833649E0,1.0110834E1,8.099037E0,2.8828125E0,0E0,0E0,0E0,0E0,0E0,0E0,0E0,0E0,0E0,0E0,0E0,0E0,0E0,0E0,0E0,0E0],"parents":[2147483647,0,0,1,1,2,2,3,3,4,4,5,5,6,6,7,7,8,8,9,9,10,10,11,11,12,12,13,13,14,14],"right_children":[2,4,6,8,10,12,14,16,18,20,22,24,26,28,30,-1,-1,-1,-1,-1,-1,-1,-1,-1,-1,-1,-1,-1,-1,-1,-1],"split_conditions":[1.5160643E0,1.8489279E-1,2.3279865E0,2.377045E0,3.5421294E-1,6.462634E-2,3.2990918E0,6.9175684E-1,1.3122336E0,1.5117441E0,8.8088393E-1,7.903174E-1,1.5193702E0,2.1000814E-2,3.5103517E0,1.2152694E-2,-4.179468E-3,1.9049559E-2,-9.343987E-3,5.1507936E-3,1.1301489E-2,-8.9517777E-4,4.3024323E-3,-5.656318E-3,-8.434674E-3,3.635615E-4,-4.7342987E-3,-1.1540577E-2,3.8528955E-4,-1.3429634E-2,-1.9164523E-2],"split_indices":[12,12,56,81,17,81,12,56,79,94,94,56,17,81,56,0,0,0,0,0,0,0,0,0,0,0,0,0,0,0,0],"split_type":[0,0,0,0,0,0,0,0,0,0,0,0,0,0,0,0,0,0,0,0,0,0,0,0,0,0,0,0,0,0,0],"sum_hessian":[1.0279E4,5.767E3,4.512E3,3.375E3,2.392E3,1.673E3,2.839E3,1.672E3,1.703E3,8.69E2,1.523E3,1.243E3,4.3E2,3.29E2,2.51E3,1.662E3,1E1,1.699E3,4E0,5.83E2,2.86E2,8.32E2,6.91E2,2.13E2,1.03E3,2.59E2,1.71E2,3.07E2,2.2E1,6.75E2,1.835E3],"tree_param":{"num_deleted":"0","num_feature":"96","num_nodes":"31","size_leaf_vector":"1"}},{"base_weights":[-1.3876567E-2,-6.986139E-1,5.0463855E-1,-4.26822E-1,-9.180454E-1,2.4275284E-1,7.287288E-1,-5.2975035E-1,-1.6564102E-1,-1.625E-1,-9.216558E-1,6.529459E-2,3.8668874E-1,6.106914E-1,1.6751537E-2,-7.310782E-3,-1.20715005E-2,5.975E-3,-4.6951454E-3,-6.5555554E-3,2.375E-3,-3.5454545E-3,-1.8490983E-2,4.050251E-3,-1.2239263E-3,4.8549906E-3,9.199191E-3,1.2549507E-2,-1.2340426E-3],"categories":[],"categories_nodes":[],"categories_segments":[],"categories_sizes":[],"default_left":[0,0,0,0,0,0,0,0,0,0,0,0,0,0,0,0,0,0,0,0,0,0,0,0,0,0,0,0,0],"id":16,"left_children":[1,3,5,7,9,11,13,15,17,19,21,23,25,27,-1,-1,-1,-1,-1,-1,-1,-1,-1,-1,-1,-1,-1,-1,-1],"loss_changes":[3.685379E3,2.6271558E2,3.4479224E2,5.3275818E1,5.1206055E0,6.966354E1,3.557141E1,1.51779785E1,1.9471663E1,1.525764E0,3.5322266E0,2.164317E1,1.4738464E1,1.8071655E1,0E0,0E0,0E0,0E0,0E0,0E0,0E0,0E0,0E0,0E0,0E0,0E0,0E0,0E0,0E0],"parents":[2147483647,0,0,1,1,2,2,3,3,4,4,5,5,6,6,7,7,8,8,9,9,10,10,11,11,12,12,13,13],"right_children":[2,4,6,8,10,12,14,16,18,20,22,24,26,28,-1,-1,-1,-1,-1,-1,-1,-1,-1,-1,-1,-1,-1,-1,-1],"split_conditions":[5.7141054E-1,2.791765E0,1.5650303E0,9.649998E-2,1.8714978E0,1.4604808E0,1.9788182E0,1.7829238E0,6.1819506E-1,2.8041718E0,2.1588175E0,2.1099639E-1,1.004869E0,4.0035295E-1,1.8913971E-2,-6.242341E-3,-1.0000554E-2,3.313728E-3,-4.82027E-3,-1.5496716E-2,2.2252349E-3,-1.096272E-2,-1.784661E-2,4.1543036E-3,-9.0578065E-4,3.8557164E-3,9.56213E-3,1.2195655E-2,-3.956674E-4],"split_indices":[1,56,68,1,35,1,36,17,79,89,17,56,81,56,0,0,0,0,0,0,0,0,0,0,0,0,0,0,0],"split_type":[0,0,0,0,0,0,0,0,0,0,0,0,0,0,0,0,0,0,0,0,0,0,0,0,0,0,0,0,0],"sum_hessian":[1.036E4,4.463E3,5.897E3,2.007E3,2.456E3,2.729E3,3.168E3,1.432E3,5.75E2,1.4E1,2.442E3,1.229E3,1.5E3,1.552E3,1.616E3,4.63E2,9.69E2,7E1,5.05E2,8E0,6E0,1.2E1,2.43E3,5.87E2,6.42E2,5.21E2,9.79E2,1.515E3,3.7E1],"tree_param":{"num_deleted":"0","num_feature":"96","num_nodes":"29","size_leaf_vector":"1"}},{"base_weights":[-1.6975338E-2,-6.6964054E-1,5.129234E-1,-3.9741212E-1,-8.78566E-1,1.9035971E-1,6.9416076E-1,-4.8284978E-1,-1.2800789E-1,-6.5573394E-1,-9.185068E-1,-2.3995407E-2,3.4142157E-1,5.94059E-1,8.556277E-1,-1.099017E-2,-6.0588233E-3,-3.8648017E-3,4.068182E-3,1.0588235E-3,-1.3375292E-2,-1.8387506E-2,1.6363636E-3,-2.349481E-3,3.0957097E-3,4.437601E-3,9.105348E-3,7.5614457E-3,1.2760652E-2,-4.4615385E-3,1.7193059E-2],"categories":[],"categories_nodes":[],"categories_segments":[],"categories_sizes":[],"default_left":[0,0,0,0,0,0,0,0,0,0,0,0,0,0,0,0,0,0,0,0,0,0,0,0,0,0,0,0,0,0,0],"id":17,"left_children":[1,3,5,7,9,11,13,15,17,19,21,23,25,27,29,-1,-1,-1,-1,-1,-1,-1,-1,-1,-1,-1,-1,-1,-1,-1,-1],"loss_changes":[3.6075166E3,2.622168E2,3.3514783E2,4.6460175E1,1.728003E1,6.762781E1,5.4284668E1,1.6850433E1,1.1352914E1,4.4418793E0,2.7558594E0,1.4734424E1,1.5579926E1,1.9387878E1,7.9994507E0,0E0,0E0,0E0,0E0,0E0,0E0,0E0,0E0,0E0,0E0,0E0,0E0,0E0,0E0,0E0,0E0],"parents":[2147483647,0,0,1,1,2,2,3,3,4,4,5,5,6,6,7,7,8,8,9,9,10,10,11,11,12,12,13,13,14,14],"right_children":[2,4,6,8,10,12,14,16,18,20,22,24,26,28,30,-1,-1,-1,-1,-1,-1,-1,-1,-1,-1,-1,-1,-1,-1,-1,-1],"split_conditions":[6.9801474E-1,3.370614E0,2.0511668E0,2.1000814E-2,3.031121E0,7.9541606E-1,2.6436589E0,5.4212794E-2,9.252731E-1,1.6544626E0,2.1418672E-2,6.95258E-1,1.5684183E0,1.3062108E0,1.0795047E0,-9.703083E-3,-5.087807E-3,-3.4480034E-3,3.4359274E-3,1.7529174E-3,-1.2123143E-2,-1.7714275E-2,2.5232552E-4,-2.2178176E-3,2.4187514E-3,4.161639E-3,8.2038045E-3,8.302729E-3,1.247905E-2,-9.498839E-3,1.9239826E-2],"split_indices":[1,12,1,81,35,64,64,1,64,35,94,68,1,68,68,0,0,0,0,0,0,0,0,0,0,0,0,0,0,0,0],"split_type":[0,0,0,0,0,0,0,0,0,0,0,0,0,0,0,0,0,0,0,0,0,0,0,0,0,0,0,0,0,0,0],"sum_hessian":[1.0411E4,4.664E3,5.747E3,2.038E3,2.626E3,2.075E3,3.672E3,1.541E3,4.97E2,4.26E2,2.2E3,8.61E2,1.214E3,2.296E3,1.376E3,1.109E3,4.32E2,4.19E2,7.8E1,7E0,4.19E2,2.199E3,1E0,5.68E2,2.93E2,6.07E2,6.07E2,4.05E2,1.891E3,3E0,1.373E3],"tree_param":{"num_deleted":"0","num_feature":"96","num_nodes":"31","size_leaf_vector":"1"}},{"base_weights":[-1.9826435E-2,-6.8935376E-1,4.9551508E-1,-4.0642634E-1,-8.902292E-1,1.824761E-1,6.7785794E-1,-5.101906E-1,-1.4625E-1,-7.5354755E-1,-9.3861747E-1,5.050578E-2,4.020656E-1,5.739305E-1,8.2774836E-1,-5.037383E-3,-1.1067241E-2,-3.8207169E-3,4.088235E-3,-1.5158602E-2,1.3846154E-3,-1.8790625E-2,-2.7142859E-3,2.4418377E-3,-2.9595688E-3,5.878676E-3,1.1826989E-2,1.6626505E-3,1.1800093E-2,-3.1666665E-3,1.6603447E-2],"categories":[],"categories_nodes":[],"categories_segments":[],"categories_sizes":[],"default_left":[0,0,0,0,0,0,0,0,0,0,0,0,0,0,0,0,0,0,0,0,0,0,0,0,0,0,0,0,0,0,0],"id":18,"left_children":[1,3,5,7,9,11,13,15,17,19,21,23,25,27,29,-1,-1,-1,-1,-1,-1,-1,-1,-1,-1,-1,-1,-1,-1,-1,-1],"loss_changes":[3.6214749E3,2.5569556E2,3.3722095E2,5.0860474E1,1.0357178E1,6.3419197E1,5.343213E1,1.3737213E1,9.183786E0,3.287201E0,2.9052734E-2,1.9842937E1,1.5018127E1,1.7145447E1,4.990967E0,0E0,0E0,0E0,0E0,0E0,0E0,0E0,0E0,0E0,0E0,0E0,0E0,0E0,0E0,0E0,0E0],"parents":[2147483647,0,0,1,1,2,2,3,3,4,4,5,5,6,6,7,7,8,8,9,9,10,10,11,11,12,12,13,13,14,14],"right_children":[2,4,6,8,10,12,14,16,18,20,22,24,26,28,30,-1,-1,-1,-1,-1,-1,-1,-1,-1,-1,-1,-1,-1,-1,-1,-1],"split_conditions":[5.7141054E-1,2.613558E0,2.077482E0,7.81208E-1,3.5362208E0,1.711452E0,2.3823254E0,9.0682495E-1,6.141786E-1,1.94696E-1,1.5512393E-1,7.2231555E-1,1.5998441E0,3.137005E-1,4.6299243E-1,-5.6337425E-3,-9.804873E-3,-2.9875007E-3,3.921826E-3,-1.3040351E-2,2.472788E-4,-1.807991E-2,-3.0845648E-3,2.1654235E-3,-2.2935958E-3,5.5526793E-3,9.513343E-3,3.329736E-4,1.114209E-2,-7.911066E-3,1.8483274E-2],"split_indices":[1,56,3,3,56,1,68,56,81,94,3,56,64,36,36,0,0,0,0,0,0,0,0,0,0,0,0,0,0,0,0],"split_type":[0,0,0,0,0,0,0,0,0,0,0,0,0,0,0,0,0,0,0,0,0,0,0,0,0,0,0,0,0,0,0],"sum_hessian":[1.0476E4,4.555E3,5.921E3,1.904E3,2.651E3,2.187E3,3.734E3,1.354E3,5.5E2,7.37E2,1.914E3,1.374E3,8.13E2,2.234E3,1.5E3,2.04E2,1.15E3,4.92E2,5.8E1,7.34E2,3E0,1.91E3,4E0,1.013E3,3.61E2,5.34E2,2.79E2,7.3E1,2.161E3,2E0,1.498E3],"tree_param":{"num_deleted":"0","num_feature":"96","num_nodes":"31","size_leaf_vector":"1"}},{"base_weights":[-1.6493956E-2,-7.0470923E-1,4.5608732E-1,-4.3899676E-1,-9.0674156E-1,4.486966E-2,6.238388E-1,-2.8251988E-1,-5.7466936E-1,-9.0832984E-1,3.1666665E-3,-6.1663806E-2,2.3632148E-1,4.3615597E-1,7.506329E-1,-6.5945243E-3,6.2903226E-4,-4.3658535E-3,-1.20065855E-2,-1.8181741E-2,-0E0,-3.0739643E-3,1.2759999E-3,1.0720721E-3,6.478161E-3,6.0711564E-3,1.0685658E-2,1.2692926E-2,1.6638666E-2],"categories":[],"categories_nodes":[],"categories_segments":[],"categories_sizes":[],"default_left":[0,0,0,0,0,0,0,0,0,0,0,0,0,0,0,0,0,0,0,0,0,0,0,0,0,0,0,0,0],"id":19,"left_children":[1,3,5,7,9,11,13,15,17,19,-1,21,23,25,27,-1,-1,-1,-1,-1,-1,-1,-1,-1,-1,-1,-1,-1,-1],"loss_changes":[3.3928655E3,2.2387451E2,4.263092E2,3.7650482E1,5.578369E0,3.693723E1,1.01124146E2,1.31912155E1,7.5968323E0,1.6514893E0,0E0,1.3570837E1,1.0142971E1,2.1649902E1,1.915686E1,0E0,0E0,0E0,0E0,0E0,0E0,0E0,0E0,0E0,0E0,0E0,0E0,0E0,0E0],"parents":[2147483647,0,0,1,1,2,2,3,3,4,4,5,5,6,6,7,7,8,8,9,9,11,11,12,12,13,13,14,14],"right_children":[2,4,6,8,10,12,14,16,18,20,-1,22,24,26,28,-1,-1,-1,-1,-1,-1,-1,-1,-1,-1,-1,-1,-1,-1],"split_conditions":[7.81208E-1,2.9005032E0,9.7914875E-1,1.6470017E0,4.844716E-1,1.2811644E0,2.5784652E0,9.8628896E-1,1.6850536E0,2.1000814E-2,6.705943E-3,2.7342194E-1,1.4992989E0,1.0504513E0,2.2915862E0,-6.0805273E-3,8.937119E-4,-4.4903588E-3,-9.787844E-3,-1.6974075E-2,-8.853082E-3,-2.6732958E-3,7.3487096E-4,9.754075E-4,5.132667E-3,5.2927285E-3,1.0198095E-2,1.235914E-2,1.8191472E-2],"split_indices":[3,56,68,56,3,47,3,47,17,81,0,68,3,36,68,0,0,0,0,0,0,0,0,0,0,0,0,0,0],"split_type":[0,0,0,0,0,0,0,0,0,0,0,0,0,0,0,0,0,0,0,0,0,0,0,0,0,0,0,0,0],"sum_hessian":[1.0412E4,4.237E3,6.175E3,1.844E3,2.393E3,1.793E3,4.382E3,8.71E2,9.73E2,2.391E3,2E0,1.156E3,6.37E2,1.785E3,2.597E3,7.57E2,1.14E2,7.2E1,9.01E2,2.389E3,2E0,6.66E2,4.9E2,2.12E2,4.25E2,7.77E2,1.008E3,1.107E3,1.49E3],"tree_param":{"num_deleted":"0","num_feature":"96","num_nodes":"29","size_leaf_vector":"1"}},{"base_weights":[-2.8759742E-2,-6.8744946E-1,4.64431E-1,-4.183528E-1,-8.9663595E-1,1.2103787E-1,6.554712E-1,-5.574924E-1,-2.7700803E-1,-1.5E-1,-9.008061E-1,-4.761441E-2,2.7442068E-1,4.546174E-1,7.3780173E-1,-4.0555554E-3,-1.1889014E-2,-7.0211566E-3,-1.8114477E-3,-7.375E-3,1.8999999E-3,-5.95E-3,-1.8138718E-2,8.6167146E-4,-4.600583E-3,-1.8679245E-3,6.1968807E-3,1.3837209E-3,1.0356924E-2,1.3305154E-2,1.7170083E-2],"categories":[],"categories_nodes":[],"categories_segments":[],"categories_sizes":[],"default_left":[0,0,0,0,0,0,0,0,0,0,0,0,0,0,0,0,0,0,0,0,0,0,0,0,0,0,0,0,0,0,0],"id":20,"left_children":[1,3,5,7,9,11,13,15,17,19,21,23,25,27,29,-1,-1,-1,-1,-1,-1,-1,-1,-1,-1,-1,-1,-1,-1,-1,-1],"loss_changes":[3.379482E3,2.4683911E2,3.8939453E2,3.705655E1,6.3183594E0,5.5485767E1,5.969568E1,1.1575439E1,1.3388168E1,1.7711251E0,6.3566895E0,1.7109154E1,1.4929916E1,2.7292084E1,1.7717041E1,0E0,0E0,0E0,0E0,0E0,0E0,0E0,0E0,0E0,0E0,0E0,0E0,0E0,0E0,0E0,0E0],"parents":[2147483647,0,0,1,1,2,2,3,3,4,4,5,5,6,6,7,7,8,8,9,9,10,10,11,11,12,12,13,13,14,14],"right_children":[2,4,6,8,10,12,14,16,18,20,22,24,26,28,30,-1,-1,-1,-1,-1,-1,-1,-1,-1,-1,-1,-1,-1,-1,-1,-1],"split_conditions":[4.854676E-1,2.791765E0,1.3663504E0,2.5640163E-1,2.5288277E0,6.95258E-1,2.4806046E0,1.1446737E0,5.0484955E-2,2.7892919E0,2.1811943E0,6.474236E-1,2.5556716E-1,1.4732305E0,2.7456863E0,-5.8538094E-3,-1.0072403E-2,-5.523137E-3,-2.0029268E-3,-1.0769721E-2,2.8276998E-3,-9.253417E-3,-1.6618976E-2,8.324571E-4,-3.1419997E-3,-1.0976719E-3,5.5721896E-3,1.7032775E-3,9.643403E-3,1.2954299E-2,1.8561307E-2],"split_indices":[1,56,64,3,12,68,3,56,81,79,35,56,64,1,68,0,0,0,0,0,0,0,0,0,0,0,0,0,0,0,0],"split_type":[0,0,0,0,0,0,0,0,0,0,0,0,0,0,0,0,0,0,0,0,0,0,0,0,0,0,0,0,0,0,0],"sum_hessian":[1.0383E4,4.444E3,5.939E3,1.957E3,2.487E3,2.129E3,3.81E3,9.71E2,9.86E2,1.6E1,2.471E3,1.017E3,1.112E3,1.127E3,2.683E3,9.8E1,8.73E2,6.99E2,2.87E2,6E0,1E1,3E1,2.441E3,6.84E2,3.33E2,9.6E1,1.016E3,1.62E2,9.65E2,1.717E3,9.66E2],"tree_param":{"num_deleted":"0","num_feature":"96","num_nodes":"31","size_leaf_vector":"1"}},{"base_weights":[-1.3606953E-2,-6.9869107E-1,4.5349666E-1,-4.371696E-1,-8.9394826E-1,1.3496102E-1,6.6003746E-1,-4.891574E-1,-1.522034E-1,-3.6851853E-1,-9.021684E-1,-1.5441672E-2,3.650415E-1,5.6316674E-1,8.241026E-1,-7.204368E-3,-1.1508889E-2,-7.927711E-3,-1.0720721E-3,4.4615385E-3,-8.9803925E-3,-1.8075746E-2,3.1666665E-3,-3.1580417E-3,2.311054E-3,8.69179E-3,2.5021646E-3,8.485465E-3,1.2318262E-2,-1.3846154E-3,1.653304E-2],"categories":[],"categories_nodes":[],"categories_segments":[],"categories_sizes":[],"default_left":[0,0,0,0,0,0,0,0,0,0,0,0,0,0,0,0,0,0,0,0,0,0,0,0,0,0,0,0,0,0,0],"id":21,"left_children":[1,3,5,7,9,11,13,15,17,19,21,23,25,27,29,-1,-1,-1,-1,-1,-1,-1,-1,-1,-1,-1,-1,-1,-1,-1,-1],"loss_changes":[3.316848E3,2.105293E2,4.044972E2,2.609497E1,6.8968506E0,8.442303E1,5.45968E1,1.4867126E1,6.845035E0,3.5959535E0,5.543335E0,2.786172E1,1.5486481E1,1.4726318E1,3.756775E0,0E0,0E0,0E0,0E0,0E0,0E0,0E0,0E0,0E0,0E0,0E0,0E0,0E0,0E0,0E0,0E0],"parents":[2147483647,0,0,1,1,2,2,3,3,4,4,5,5,6,6,7,7,8,8,9,9,10,10,11,11,12,12,13,13,14,14],"right_children":[2,4,6,8,10,12,14,16,18,20,22,24,26,28,30,-1,-1,-1,-1,-1,-1,-1,-1,-1,-1,-1,-1,-1,-1,-1,-1],"split_conditions":[7.81208E-1,2.9005032E0,2.077482E0,7.7757105E-2,2.3507702E0,9.7914875E-1,2.4848554E0,1.6470017E0,1.5982123E-1,1.5308589E0,5.324909E-1,4.129015E-1,5.519926E-1,1.5117441E0,1.0380899E0,-6.530615E-3,-9.655447E-3,-5.900974E-3,-1.5897759E-3,1.6551837E-3,-9.676306E-3,-1.6342526E-2,6.51527E-3,-2.3676262E-3,1.7861386E-3,7.461325E-3,1.7507669E-3,7.8117214E-3,1.18355E-2,-4.381848E-3,1.7690815E-2],"split_indices":[3,56,3,81,35,68,68,56,40,37,3,64,35,94,94,0,0,0,0,0,0,0,0,0,0,0,0,0,0,0,0],"split_type":[0,0,0,0,0,0,0,0,0,0,0,0,0,0,0,0,0,0,0,0,0,0,0,0,0,0,0,0,0,0,0],"sum_hessian":[1.0345E4,4.192E3,6.153E3,1.806E3,2.386E3,2.427E3,3.726E3,1.521E3,2.85E2,4.4E1,2.342E3,1.473E3,9.54E2,2.371E3,1.355E3,6.31E2,8.9E2,7.3E1,2.12E2,3E0,4.1E1,2.34E3,2E0,7.05E2,7.68E2,7.33E2,2.21E2,6.78E2,1.693E3,3E0,1.352E3],"tree_param":{"num_deleted":"0","num_feature":"96","num_nodes":"31","size_leaf_vector":"1"}},{"base_weights":[-2.738633E-2,-6.7706066E-1,4.5104218E-1,-4.0689477E-1,-8.830196E-1,6.562116E-1,1.7784223E-1,-4.8114812E-1,-2.0056818E-1,-7.8632736E-1,-9.414618E-1,5.645998E-1,8.3050996E-1,-4.750567E-2,2.928238E-1,-7.5209E-3,-1.1136421E-2,-1.0530035E-3,-7.1294117E-3,1.3846154E-3,-1.5793793E-2,-2.7142859E-3,-1.8852765E-2,1.9577465E-3,1.1857142E-2,-1.3846154E-3,1.6670711E-2,-2.6445994E-3,2.1320754E-3,1.4153005E-3,7.008836E-3],"categories":[],"categories_nodes":[],"categories_segments":[],"categories_sizes":[],"default_left":[0,0,0,0,0,0,0,0,0,0,0,0,0,0,0,0,0,0,0,0,0,0,0,0,0,0,0,0,0,0,0],"id":22,"left_children":[1,3,5,7,9,11,13,15,17,19,21,23,25,27,29,-1,-1,-1,-1,-1,-1,-1,-1,-1,-1,-1,-1,-1,-1,-1,-1],"loss_changes":[3.2365654E3,2.4199805E2,3.3489514E2,2.8519928E1,6.534668E0,4.979724E1,6.716911E1,9.035156E0,1.19474945E1,3.5010986E0,3.942871E-2,2.934021E1,3.8031616E0,1.1659636E1,2.1639816E1,0E0,0E0,0E0,0E0,0E0,0E0,0E0,0E0,0E0,0E0,0E0,0E0,0E0,0E0,0E0,0E0],"parents":[2147483647,0,0,1,1,2,2,3,3,4,4,5,5,6,6,7,7,8,8,9,9,10,10,11,11,12,12,13,13,14,14],"right_children":[2,4,6,8,10,12,14,16,18,20,22,24,26,28,30,-1,-1,-1,-1,-1,-1,-1,-1,-1,-1,-1,-1,-1,-1,-1,-1],"split_conditions":[4.6305543E-1,2.791765E0,1.8489279E-1,2.7066698E-2,3.994261E0,2.5976126E0,3.2367787E-1,1.6470017E0,1.7969986E0,1.117492E0,3.2609732E0,9.7914875E-1,1.2759192E0,5.84088E-1,6.173356E-1,-6.6304617E-3,-9.850589E-3,-6.382561E-4,-5.9467424E-3,1.6220799E-3,-1.34720765E-2,-1.682128E-2,-1.6782032E-2,2.8057909E-3,1.13749355E-2,-1.2685508E-3,1.8044995E-2,-2.1776676E-3,2.025694E-3,1.5349782E-3,6.064579E-3],"split_indices":[1,56,12,1,56,68,36,56,12,90,12,68,81,81,94,0,0,0,0,0,0,0,0,0,0,0,0,0,0,0,0],"split_type":[0,0,0,0,0,0,0,0,0,0,0,0,0,0,0,0,0,0,0,0,0,0,0,0,0,0,0,0,0,0,0],"sum_hessian":[1.0393E4,4.406E3,5.987E3,1.919E3,2.487E3,3.411E3,2.576E3,1.401E3,5.18E2,9.92E2,1.495E3,2.264E3,1.147E3,8.72E2,1.704E3,6.12E2,7.89E2,2.73E2,2.45E2,3E0,9.89E2,4E0,1.491E3,1.32E2,2.132E3,3E0,1.144E3,5.64E2,3.08E2,3.56E2,1.348E3],"tree_param":{"num_deleted":"0","num_feature":"96","num_nodes":"31","size_leaf_vector":"1"}},{"base_weights":[-2.4645407E-2,-7.006507E-1,4.4364133E-1,-4.307911E-1,-8.833725E-1,1.2388548E-1,6.4943075E-1,-1.7374632E-1,-4.8872548E-1,-6.845109E-1,-9.1260237E-1,-7.433206E-2,2.7071783E-1,5.023694E-1,7.8751296E-1,-4.283828E-3,2.5652172E-3,-9.977289E-3,3.3793102E-3,1.3846154E-3,-1.3857533E-2,-1.8302782E-2,1.1999999E-3,-2.7571267E-3,4.7403313E-3,4.1970867E-3,1.0872E-2,2.9431817E-3,1.0726198E-2,1.3160745E-2,1.6766492E-2],"categories":[],"categories_nodes":[],"categories_segments":[],"categories_sizes":[],"default_left":[0,0,0,0,0,0,0,0,0,0,0,0,0,0,0,0,0,0,0,0,0,0,0,0,0,0,0,0,0,0,0],"id":23,"left_children":[1,3,5,7,9,11,13,15,17,19,21,23,25,27,29,-1,-1,-1,-1,-1,-1,-1,-1,-1,-1,-1,-1,-1,-1,-1,-1],"loss_changes":[3.3286423E3,2.0824048E2,4.0788245E2,2.524939E1,8.450684E0,7.138198E1,7.261255E1,4.424103E0,1.0398254E1,2.8625336E0,6.057373E0,2.1044374E1,2.2152145E1,2.1530426E1,7.031128E0,0E0,0E0,0E0,0E0,0E0,0E0,0E0,0E0,0E0,0E0,0E0,0E0,0E0,0E0,0E0,0E0],"parents":[2147483647,0,0,1,1,2,2,3,3,4,4,5,5,6,6,7,7,8,8,9,9,10,10,11,11,12,12,13,13,14,14],"right_children":[2,4,6,8,10,12,14,16,18,20,22,24,26,28,30,-1,-1,-1,-1,-1,-1,-1,-1,-1,-1,-1,-1,-1,-1,-1,-1],"split_conditions":[7.81208E-1,2.791765E0,1.4298949E0,8.255936E-1,3.1223953E0,5.8817375E-1,2.3458261E0,1.6544626E0,8.8088393E-1,1.7028115E0,1.7764927E-1,1.1302246E0,2.4126313E0,6.2843233E-1,2.2788692E0,-3.0032971E-3,2.9169822E-3,-8.32695E-3,1.0489206E-3,6.165069E-4,-1.1361154E-2,-1.6033273E-2,1.7698169E-4,-2.2169403E-3,4.960503E-3,3.7738758E-3,9.828666E-3,2.635859E-3,9.84955E-3,1.2246832E-2,1.7247472E-2],"split_indices":[3,56,64,56,17,64,64,35,94,79,3,94,3,36,94,0,0,0,0,0,0,0,0,0,0,0,0,0,0,0,0],"split_type":[0,0,0,0,0,0,0,0,0,0,0,0,0,0,0,0,0,0,0,0,0,0,0,0,0,0,0,0,0,0,0],"sum_hessian":[1.0495E4,4.293E3,6.202E3,1.747E3,2.546E3,2.435E3,3.767E3,3.29E2,1.418E3,3.58E2,2.188E3,1.038E3,1.397E3,1.847E3,1.92E3,2.93E2,3.6E1,1.399E3,1.9E1,3E0,3.55E2,2.183E3,5E0,8.67E2,1.71E2,1.157E3,2.4E2,1.66E2,1.681E3,5.81E2,1.339E3],"tree_param":{"num_deleted":"0","num_feature":"96","num_nodes":"31","size_leaf_vector":"1"}},{"base_weights":[-2.7502866E-2,4.4863743E-1,-6.699327E-1,1.2585431E-1,6.361462E-1,-3.9517635E-1,-8.756491E-1,-1.9652722E-2,3.1530505E-1,5.513304E-1,8.3745486E-1,-4.8905262E-1,-1.2651072E-1,-7.684061E-1,-1.8903872E-2,-1.5059523E-3,3.7843864E-3,8.508928E-3,1.2393442E-3,7.13468E-3,1.20631475E-2,7.641026E-3,1.6921222E-2,-1.0115161E-2,-9.206349E-4,-4.7912775E-3,1.1782178E-3,-1.5431018E-2,1.3846154E-3],"categories":[],"categories_nodes":[],"categories_segments":[],"categories_sizes":[],"default_left":[0,0,0,0,0,0,0,0,0,0,0,0,0,0,0,0,0,0,0,0,0,0,0,0,0,0,0,0,0],"id":24,"left_children":[1,3,5,7,9,11,13,15,17,19,21,23,25,27,-1,-1,-1,-1,-1,-1,-1,-1,-1,-1,-1,-1,-1,-1,-1],"loss_changes":[3.20505E3,3.633606E2,2.4850049E2,6.139924E1,6.019409E1,4.7946472E1,1.152417E1,1.4857E1,2.6669807E1,2.5043335E1,9.8742676E-1,1.0258179E1,1.0912955E1,3.3808594E0,0E0,0E0,0E0,0E0,0E0,0E0,0E0,0E0,0E0,0E0,0E0,0E0,0E0,0E0,0E0],"parents":[2147483647,0,0,1,1,2,2,3,3,4,4,5,5,6,6,7,7,8,8,9,9,10,10,11,11,12,12,13,13],"right_children":[2,4,6,8,10,12,14,16,18,20,22,24,26,28,-1,-1,-1,-1,-1,-1,-1,-1,-1,-1,-1,-1,-1,-1,-1],"split_conditions":[8.255936E-1,1.2740037E0,2.791765E0,8.877373E-1,2.8413026E0,7.508332E-1,3.994261E0,7.785253E-1,2.7807977E-2,1.0504513E0,2.4126313E0,7.759908E-1,5.6084627E-1,7.274308E-1,-1.611795E-2,-1.1368548E-3,3.150131E-3,7.168935E-3,1.2495418E-3,6.7399084E-3,1.11553E-2,1.3579492E-2,1.7646238E-2,-8.643305E-3,-6.9475634E-4,-3.5824573E-3,1.5272506E-3,-1.2849763E-2,3.913183E-3],"split_indices":[56,68,56,64,64,3,56,68,56,36,3,64,64,3,0,0,0,0,0,0,0,0,0,0,0,0,0,0,0],"split_type":[0,0,0,0,0,0,0,0,0,0,0,0,0,0,0,0,0,0,0,0,0,0,0,0,0,0,0,0,0],"sum_hessian":[1.0458E4,6.008E3,4.45E3,2.214E3,3.794E3,1.918E3,2.532E3,1.257E3,9.57E2,2.696E3,1.098E3,1.415E3,5.03E2,1.044E3,1.488E3,9.98E2,2.59E2,6.62E2,2.95E2,5.84E2,2.112E3,2.9E1,1.069E3,1.362E3,5.3E1,3.11E2,1.92E2,1.041E3,3E0],"tree_param":{"num_deleted":"0","num_feature":"96","num_nodes":"29","size_leaf_vector":"1"}},{"base_weights":[-3.1073883E-2,-6.066791E-1,4.7498637E-1,-2.739339E-1,-8.147811E-1,2.383578E-1,6.7287624E-1,-1.2962112E-1,-3.9497536E-1,-6.227683E-1,-9.071609E-1,-5.3846154E-2,3.3015624E-1,5.8434826E-1,8.1374115E-1,1.0038911E-3,-4.0352563E-3,-8.46186E-3,1.1470588E-3,-0E0,-1.2581561E-2,3.1666665E-3,-1.8181726E-2,-4.267175E-3,1.2757661E-3,3.5089606E-3,7.8119533E-3,1.1981277E-2,1.7878787E-3,-1.6363636E-3,1.630701E-2],"categories":[],"categories_nodes":[],"categories_segments":[],"categories_sizes":[],"default_left":[0,0,0,0,0,0,0,0,0,0,0,0,0,0,0,0,0,0,0,0,0,0,0,0,0,0,0,0,0,0,0],"id":25,"left_children":[1,3,5,7,9,11,13,15,17,19,21,23,25,27,29,-1,-1,-1,-1,-1,-1,-1,-1,-1,-1,-1,-1,-1,-1,-1,-1],"loss_changes":[3.011056E3,3.325277E2,2.5589697E2,3.2205215E1,4.687976E1,6.78284E1,3.2391968E1,1.1415223E1,1.3188416E1,3.917694E0,5.5826416E0,1.161597E1,1.7211594E1,1.3030334E1,2.36615E0,0E0,0E0,0E0,0E0,0E0,0E0,0E0,0E0,0E0,0E0,0E0,0E0,0E0,0E0,0E0,0E0],"parents":[2147483647,0,0,1,1,2,2,3,3,4,4,5,5,6,6,7,7,8,8,9,9,10,10,11,11,12,12,13,13,14,14],"right_children":[2,4,6,8,10,12,14,16,18,20,22,24,26,28,30,-1,-1,-1,-1,-1,-1,-1,-1,-1,-1,-1,-1,-1,-1,-1,-1],"split_conditions":[4.129015E-1,2.440049E0,1.6543375E0,9.2149556E-1,3.4044614E0,1.3223449E0,2.7884164E0,6.8798983E-1,4.3673825E-1,1.0055877E0,1.9952214E0,3.3263135E-1,8.18309E-1,9.1545993E-1,1.402235E0,4.818663E-4,-3.3009576E-3,-6.946789E-3,9.196705E-4,-8.598596E-4,-1.0307982E-2,4.5729964E-3,-1.5692003E-2,-3.0256186E-3,1.4894143E-3,3.0092038E-3,7.422297E-3,1.0960836E-2,1.5778082E-3,-5.847917E-3,1.665348E-2],"split_indices":[64,17,68,56,56,3,64,79,81,56,79,81,68,17,3,0,0,0,0,0,0,0,0,0,0,0,0,0,0,0,0],"split_type":[0,0,0,0,0,0,0,0,0,0,0,0,0,0,0,0,0,0,0,0,0,0,0,0,0,0,0,0,0,0,0],"sum_hessian":[1.0317E4,4.826E3,5.491E3,1.866E3,2.96E3,2.511E3,2.98E3,8.61E2,1.005E3,9.87E2,1.973E3,6.01E2,1.91E3,1.862E3,1.118E3,2.47E2,6.14E2,9.47E2,5.8E1,1E1,9.77E2,2E0,1.971E3,2.52E2,3.49E2,5.48E2,1.362E3,1.806E3,5.6E1,1E0,1.117E3],"tree_param":{"num_deleted":"0","num_feature":"96","num_nodes":"31","size_leaf_vector":"1"}},{"base_weights":[-3.2173578E-2,-6.6858006E-1,4.202015E-1,-3.769278E-1,-8.439343E-1,4.053745E-2,5.7309383E-1,-4.0358073E-1,3.6111113E-2,-6.99754E-1,-9.0186566E-1,-1.3840878E-1,1.668932E-1,3.9497742E-1,6.944379E-1,-2.5033113E-3,-8.615053E-3,-5.5E-3,3.390244E-3,2.7142859E-3,-1.41137205E-2,-5.3636367E-3,-1.8089056E-2,-3.280597E-3,2.5797102E-3,6.072423E-4,4.7254036E-3,6.016546E-3,1.0034356E-2,1.2547685E-2,1.682857E-2],"categories":[],"categories_nodes":[],"categories_segments":[],"categories_sizes":[],"default_left":[0,0,0,0,0,0,0,0,0,0,0,0,0,0,0,0,0,0,0,0,0,0,0,0,0,0,0,0,0,0,0],"id":26,"left_children":[1,3,5,7,9,11,13,15,17,19,21,23,25,27,29,-1,-1,-1,-1,-1,-1,-1,-1,-1,-1,-1,-1,-1,-1,-1,-1],"loss_changes":[2.981678E3,2.1676294E2,3.5112744E2,1.81707E1,1.59053955E1,3.9780285E1,9.040991E1,1.1025238E1,4.937886E0,5.0439453E0,5.3271484E-1,5.209405E0,9.657879E0,1.6218353E1,1.973706E1,0E0,0E0,0E0,0E0,0E0,0E0,0E0,0E0,0E0,0E0,0E0,0E0,0E0,0E0,0E0,0E0],"parents":[2147483647,0,0,1,1,2,2,3,3,4,4,5,5,6,6,7,7,8,8,9,9,10,10,11,11,12,12,13,13,14,14],"right_children":[2,4,6,8,10,12,14,16,18,20,22,24,26,28,30,-1,-1,-1,-1,-1,-1,-1,-1,-1,-1,-1,-1,-1,-1,-1,-1],"split_conditions":[7.81208E-1,3.370614E0,9.7914875E-1,7.759908E-1,3.8112438E0,4.129015E-1,2.5784652E0,4.2664272E-1,1.1732723E0,1.4369776E0,2.3515177E0,2.5005293E0,1.4442407E0,1.6408564E0,2.8985786E0,-2.4983743E-3,-7.80353E-3,-2.3136314E-3,2.415155E-3,9.0139627E-4,-1.1600175E-2,-9.510956E-3,-1.5344952E-2,-2.4614306E-3,9.200175E-4,7.6162844E-4,3.7958424E-3,5.2354857E-3,8.871983E-3,1.2012762E-2,1.7213842E-2],"split_indices":[3,12,68,64,25,64,3,37,12,89,37,79,3,64,68,0,0,0,0,0,0,0,0,0,0,0,0,0,0,0,0],"split_type":[0,0,0,0,0,0,0,0,0,0,0,0,0,0,0,0,0,0,0,0,0,0,0,0,0,0,0,0,0,0,0],"sum_hessian":[1.0337E4,4.293E3,6.044E3,1.624E3,2.669E3,1.739E3,4.305E3,1.526E3,9.8E1,8.03E2,1.866E3,7.19E2,1.02E3,1.762E3,2.543E3,1.41E2,1.385E3,2.6E1,7.2E1,4E0,7.99E2,1.2E1,1.854E3,6.6E2,5.9E1,3.49E2,6.71E2,9.57E2,8.05E2,1.783E3,7.6E2],"tree_param":{"num_deleted":"0","num_feature":"96","num_nodes":"31","size_leaf_vector":"1"}},{"base_weights":[-2.7277987E-2,-6.0584295E-1,4.6555477E-1,-3.3616745E-1,-8.565235E-1,2.6524195E-1,6.674686E-1,-4.3940923E-1,-1.798722E-1,-7.4542886E-1,-9.335921E-1,4.0990517E-2,3.762685E-1,5.716949E-1,8.262439E-1,-5.1327434E-4,-9.445914E-3,-3.8842794E-3,5.3939396E-3,-1.4974505E-2,3.1666665E-3,1.6363636E-3,-1.8699152E-2,3.5367846E-3,-8.7499997E-4,3.8615752E-3,8.508429E-3,1.0053804E-2,1.3387464E-2,1.662549E-2,-1.1999999E-3],"categories":[],"categories_nodes":[],"categories_segments":[],"categories_sizes":[],"default_left":[0,0,0,0,0,0,0,0,0,0,0,0,0,0,0,0,0,0,0,0,0,0,0,0,0,0,0,0,0,0,0],"id":27,"left_children":[1,3,5,7,9,11,13,15,17,19,21,23,25,27,29,-1,-1,-1,-1,-1,-1,-1,-1,-1,-1,-1,-1,-1,-1,-1,-1],"loss_changes":[2.9599773E3,3.1980273E2,2.248761E2,3.653528E1,1.4003662E1,7.028989E1,3.7486816E1,1.8715057E1,6.570553E0,4.4053955E0,2.8150635E0,1.101546E1,1.6152893E1,8.448181E0,5.145752E0,0E0,0E0,0E0,0E0,0E0,0E0,0E0,0E0,0E0,0E0,0E0,0E0,0E0,0E0,0E0,0E0],"parents":[2147483647,0,0,1,1,2,2,3,3,4,4,5,5,6,6,7,7,8,8,9,9,10,10,11,11,12,12,13,13,14,14],"right_children":[2,4,6,8,10,12,14,16,18,20,22,24,26,28,30,-1,-1,-1,-1,-1,-1,-1,-1,-1,-1,-1,-1,-1,-1,-1,-1],"split_conditions":[8.1259406E-1,2.812481E0,1.7757127E0,2.7066698E-2,3.905414E0,9.001639E-1,2.8696008E0,5.678234E-1,1.4746511E0,9.5318544E-1,2.2446277E0,5.264666E-1,1.4895215E0,2.46136E0,1.2544023E-2,-4.6200215E-4,-7.6423916E-3,-3.2887375E-3,5.090925E-3,-1.1869166E-2,2.38469E-3,2.111379E-2,-1.5193127E-2,2.7948362E-3,-6.518212E-4,3.0278831E-3,7.7027767E-3,9.302411E-3,1.2752832E-2,1.6377576E-2,-7.686138E-5],"split_indices":[1,56,68,1,17,64,64,56,64,64,25,17,1,81,56,0,0,0,0,0,0,0,0,0,0,0,0,0,0,0,0],"split_type":[0,0,0,0,0,0,0,0,0,0,0,0,0,0,0,0,0,0,0,0,0,0,0,0,0,0,0,0,0,0,0],"sum_hessian":[1.0361E4,4.765E3,5.596E3,2.307E3,2.458E3,2.821E3,2.775E3,1.378E3,9.29E2,1.051E3,1.407E3,9.39E2,1.882E3,1.76E3,1.015E3,1.03E2,1.275E3,9.06E2,2.3E1,1.049E3,2E0,1E0,1.406E3,3.57E2,5.82E2,4.09E2,1.473E3,1.068E3,6.92E2,1.01E3,5E0],"tree_param":{"num_deleted":"0","num_feature":"96","num_nodes":"31","size_leaf_vector":"1"}},{"base_weights":[-2.9492866E-2,-6.6169614E-1,4.0783772E-1,-4.0187567E-1,-8.6182505E-1,1.002124E-1,5.9765357E-1,-2.6233032E-1,-5.220766E-1,-7.299386E-1,-9.241793E-1,-1.8268526E-2,2.6063937E-1,4.7216254E-1,7.556558E-1,-5.5532404E-3,5.2666664E-3,-1.09128095E-2,-2.9863014E-3,-1.4707046E-2,-0E0,-0E0,-1.8506953E-2,-5.605263E-3,6.7947595E-4,2.3952941E-3,7.1638227E-3,3.4273127E-3,1.0102911E-2,1.354519E-2,1.7384136E-2],"categories":[],"categories_nodes":[],"categories_segments":[],"categories_sizes":[],"default_left":[0,0,0,0,0,0,0,0,0,0,0,0,0,0,0,0,0,0,0,0,0,0,0,0,0,0,0,0,0,0,0],"id":28,"left_children":[1,3,5,7,9,11,13,15,17,19,21,23,25,27,29,-1,-1,-1,-1,-1,-1,-1,-1,-1,-1,-1,-1,-1,-1,-1,-1],"loss_changes":[2.8703933E3,2.171399E2,3.576839E2,2.9851349E1,1.2735107E1,4.481559E1,7.151648E1,7.857052E0,7.829193E0,3.220581E0,1.7103271E0,1.877551E1,1.3279533E1,2.0307983E1,8.753723E0,0E0,0E0,0E0,0E0,0E0,0E0,0E0,0E0,0E0,0E0,0E0,0E0,0E0,0E0,0E0,0E0],"parents":[2147483647,0,0,1,1,2,2,3,3,4,4,5,5,6,6,7,7,8,8,9,9,10,10,11,11,12,12,13,13,14,14],"right_children":[2,4,6,8,10,12,14,16,18,20,22,24,26,28,30,-1,-1,-1,-1,-1,-1,-1,-1,-1,-1,-1,-1,-1,-1,-1,-1],"split_conditions":[7.81208E-1,2.9005032E0,1.3663504E0,1.6470017E0,3.633554E0,7.9541606E-1,3.051898E0,3.5231962E0,6.462634E-2,9.649998E-2,2.3350492E0,9.649998E-2,1.5522676E0,1.4895215E0,4.017679E0,-4.637717E-3,3.519651E-3,-8.147478E-3,-5.682415E-3,-1.151361E-2,-4.9488095E-4,-2.7298034E-4,-1.4882974E-2,-4.589133E-3,6.38781E-4,1.9903225E-3,7.1314834E-3,2.92373E-3,8.966862E-3,1.3089414E-2,1.8254714E-2],"split_indices":[3,56,64,56,35,64,3,12,81,1,17,1,1,1,1,0,0,0,0,0,0,0,0,0,0,0,0,0,0,0,0],"split_type":[0,0,0,0,0,0,0,0,0,0,0,0,0,0,0,0,0,0,0,0,0,0,0,0,0,0,0,0,0,0,0],"sum_hessian":[1.0362E4,4.235E3,6.127E3,1.856E3,2.379E3,2.344E3,3.783E3,8.74E2,9.82E2,8.05E2,1.574E3,1.353E3,9.91E2,2.131E3,1.652E3,8.54E2,2E1,9.19E2,6.3E1,7.99E2,6E0,2E0,1.572E3,2.18E2,1.135E3,4.15E2,5.76E2,2.17E2,1.914E3,1.019E3,6.33E2],"tree_param":{"num_deleted":"0","num_feature":"96","num_nodes":"31","size_leaf_vector":"1"}},{"base_weights":[-2.7262215E-2,-6.384493E-1,4.2158958E-1,-3.384658E-1,-8.428133E-1,1.0880996E-1,5.97468E-1,-4.0939143E-1,-1.3368201E-1,-7.333613E-1,-9.284011E-1,-5.092291E-2,2.2505967E-1,4.133582E-1,6.9368255E-1,-1.6036036E-3,-8.713821E-3,-4.1363635E-3,3.8913044E-3,-0E0,-1.4816257E-2,1.6363636E-3,-1.8595086E-2,-3.8237083E-3,5.282392E-4,1.926493E-3,7.1628666E-3,2.1262136E-3,9.29895E-3,1.2211748E-2,1.6063036E-2],"categories":[],"categories_nodes":[],"categories_segments":[],"categories_sizes":[],"default_left":[0,0,0,0,0,0,0,0,0,0,0,0,0,0,0,0,0,0,0,0,0,0,0,0,0,0,0,0,0,0,0],"id":29,"left_children":[1,3,5,7,9,11,13,15,17,19,21,23,25,27,29,-1,-1,-1,-1,-1,-1,-1,-1,-1,-1,-1,-1,-1,-1,-1,-1],"loss_changes":[2.849461E3,2.6665222E2,3.287412E2,2.5527832E1,1.746582E1,4.0389393E1,6.48844E1,1.1123062E1,1.1878845E1,6.519348E0,2.7949219E0,1.0057228E1,2.1145168E1,2.0674698E1,1.7704712E1,0E0,0E0,0E0,0E0,0E0,0E0,0E0,0E0,0E0,0E0,0E0,0E0,0E0,0E0,0E0,0E0],"parents":[2147483647,0,0,1,1,2,2,3,3,4,4,5,5,6,6,7,7,8,8,9,9,10,10,11,11,12,12,13,13,14,14],"right_children":[2,4,6,8,10,12,14,16,18,20,22,24,26,28,30,-1,-1,-1,-1,-1,-1,-1,-1,-1,-1,-1,-1,-1,-1,-1,-1],"split_conditions":[4.6305543E-1,3.370614E0,1.3663504E0,7.81208E-1,3.994261E0,3.7441328E-1,2.6097016E0,6.0557514E-1,4.4998378E-1,1.7660574E0,2.0470839E0,1.623957E-1,9.7134316E-1,1.4895215E0,2.8413026E0,-2.8803286E-3,-7.6742885E-3,-3.2730415E-3,3.0606734E-3,-1.1478671E-3,-1.105342E-2,1.0980952E-3,-1.4606263E-2,-3.0319402E-3,6.8303465E-4,1.6848472E-3,6.507284E-3,2.5523023E-3,8.314132E-3,1.10316705E-2,1.560555E-2],"split_indices":[1,12,64,3,56,36,3,25,81,90,79,64,64,1,64,0,0,0,0,0,0,0,0,0,0,0,0,0,0,0,0],"split_type":[0,0,0,0,0,0,0,0,0,0,0,0,0,0,0,0,0,0,0,0,0,0,0,0,0,0,0,0,0,0,0],"sum_hessian":[1.0367E4,4.388E3,5.979E3,1.789E3,2.599E3,2.158E3,3.821E3,1.321E3,4.68E2,1.183E3,1.416E3,9.11E2,1.247E3,1.33E3,2.491E3,1.01E2,1.22E3,3.86E2,8.2E1,1.2E1,1.171E3,1E0,1.415E3,3.19E2,5.92E2,6.43E2,6.04E2,1.96E2,1.134E3,1.454E3,1.037E3],"tree_param":{"num_deleted":"0","num_feature":"96","num_nodes":"31","size_leaf_vector":"1"}},{"base_weights":[-3.8193837E-2,4.5099798E-1,-5.9055007E-1,2.502256E-1,6.7254823E-1,-2.790093E-1,-8.1471324E-1,3.406203E-1,4.4730943E-2,5.783563E-1,8.1500995E-1,-3.1198952E-1,1.9352518E-1,-6.346325E-1,-8.9468473E-1,5.2947896E-3,1.0194078E-2,-3.0859106E-3,2.7790507E-3,8.629526E-3,1.2319679E-2,7.1320753E-3,1.6633436E-2,-7.8020915E-3,-3.2762184E-3,-5.1111113E-3,5.5573774E-3,-4.9722223E-3,-1.3203349E-2,4.4615385E-3,-1.7953027E-2],"categories":[],"categories_nodes":[],"categories_segments":[],"categories_sizes":[],"default_left":[0,0,0,0,0,0,0,0,0,0,0,0,0,0,0,0,0,0,0,0,0,0,0,0,0,0,0,0,0,0,0],"id":30,"left_children":[1,3,5,7,9,11,13,15,17,19,21,23,25,27,29,-1,-1,-1,-1,-1,-1,-1,-1,-1,-1,-1,-1,-1,-1,-1,-1],"loss_changes":[2.7823086E3,2.4113647E2,3.3534412E2,5.3325485E1,2.9901611E1,3.2391983E1,3.4593628E1,2.4220734E1,1.6940174E1,6.047058E0,4.599182E0,2.1413773E1,5.97726E0,7.119507E0,8.433472E0,0E0,0E0,0E0,0E0,0E0,0E0,0E0,0E0,0E0,0E0,0E0,0E0,0E0,0E0,0E0,0E0],"parents":[2147483647,0,0,1,1,2,2,3,3,4,4,5,5,6,6,7,7,8,8,9,9,10,10,11,11,12,12,13,13,14,14],"right_children":[2,4,6,8,10,12,14,16,18,20,22,24,26,28,30,-1,-1,-1,-1,-1,-1,-1,-1,-1,-1,-1,-1,-1,-1,-1,-1],"split_conditions":[1.3350592E0,2.5916674E0,2.3475351E0,7.4802685E-1,2.8551033E0,8.0478007E-1,3.4749842E0,1.7408103E0,4.9028966E-1,1.7391301E0,1.9017533E0,7.508332E-1,2.703944E-1,2.4746509E0,2.0470839E0,4.8958017E-3,9.2494795E-3,-2.679912E-3,2.43895E-3,7.987043E-3,1.110257E-2,1.0987239E-2,1.5865177E-2,-6.637797E-3,-2.6965726E-3,-6.5956926E-3,3.7388548E-3,-2.8418212E-3,-9.842742E-3,1.0761332E-3,-1.4226984E-2],"split_indices":[12,3,56,17,64,68,56,68,64,94,68,3,35,12,79,0,0,0,0,0,0,0,0,0,0,0,0,0,0,0,0],"split_type":[0,0,0,0,0,0,0,0,0,0,0,0,0,0,0,0,0,0,0,0,0,0,0,0,0,0,0,0,0,0,0],"sum_hessian":[1.0277E4,5.451E3,4.826E3,2.871E3,2.58E3,2.029E3,2.797E3,1.989E3,8.82E2,1.584E3,9.96E2,1.9E3,1.29E2,8.88E2,1.909E3,1.391E3,5.98E2,2.81E2,6.01E2,3.49E2,1.235E3,4.3E1,9.53E2,1.233E3,6.67E2,1.7E1,1.12E2,6.2E1,8.26E2,3E0,1.906E3],"tree_param":{"num_deleted":"0","num_feature":"96","num_nodes":"31","size_leaf_vector":"1"}},{"base_weights":[-4.458005E-2,-5.52557E-1,4.6600577E-1,-2.6691204E-1,-8.2864153E-1,2.629139E-1,6.6182715E-1,-3.6743227E-1,-7.267637E-2,-6.716285E-1,-8.900213E-1,-5.584112E-2,3.2522103E-1,5.521642E-1,7.690367E-1,-5.570194E-3,-9.358056E-3,5.8641974E-5,-5.247059E-3,3.0526316E-3,-1.3665379E-2,-0E0,-1.7819444E-2,-4.1105524E-3,1.414226E-3,4.623868E-3,8.853814E-3,5.3809523E-3,1.1534314E-2,1.197006E-2,1.6380081E-2],"categories":[],"categories_nodes":[],"categories_segments":[],"categories_sizes":[],"default_left":[0,0,0,0,0,0,0,0,0,0,0,0,0,0,0,0,0,0,0,0,0,0,0,0,0,0,0,0,0,0,0],"id":31,"left_children":[1,3,5,7,9,11,13,15,17,19,21,23,25,27,29,-1,-1,-1,-1,-1,-1,-1,-1,-1,-1,-1,-1,-1,-1,-1,-1],"loss_changes":[2.7015444E3,4.094181E2,2.0477112E2,5.008197E1,1.9405273E1,5.1190994E1,2.6636353E1,1.3792297E1,1.2840286E1,8.637451E0,1.5859375E0,8.266499E0,2.2645676E1,7.67807E0,6.102112E0,0E0,0E0,0E0,0E0,0E0,0E0,0E0,0E0,0E0,0E0,0E0,0E0,0E0,0E0,0E0,0E0],"parents":[2147483647,0,0,1,1,2,2,3,3,4,4,5,5,6,6,7,7,8,8,9,9,10,10,11,11,12,12,13,13,14,14],"right_children":[2,4,6,8,10,12,14,16,18,20,22,24,26,28,30,-1,-1,-1,-1,-1,-1,-1,-1,-1,-1,-1,-1,-1,-1,-1,-1],"split_conditions":[3.2367787E-1,3.370614E0,2.5784652E0,1.7603384E-1,4.2023616E0,1.3223449E0,2.6436589E0,1.9705354E0,1.5682895E0,1.636649E0,2.1834924E0,4.1675627E-1,1.5117441E0,1.1679358E0,2.1031554E0,-4.7116517E-3,-8.21188E-3,1.6252014E-4,-3.7116376E-3,3.5159725E-3,-1.0379212E-2,5.7026125E-3,-1.3859866E-2,-3.517293E-3,1.06414E-3,4.074192E-3,8.187379E-3,5.8211344E-3,1.0288577E-2,1.1987474E-2,1.5465904E-2],"split_indices":[36,12,3,64,12,3,64,17,17,90,17,89,94,68,36,0,0,0,0,0,0,0,0,0,0,0,0,0,0,0,0],"split_type":[0,0,0,0,0,0,0,0,0,0,0,0,0,0,0,0,0,0,0,0,0,0,0,0,0,0,0,0,0,0,0],"sum_hessian":[1.0396E4,5.211E3,5.185E3,2.571E3,2.64E3,2.557E3,2.628E3,1.688E3,8.83E2,7.76E2,1.864E3,4.18E2,2.139E3,1.33E3,1.298E3,9.16E2,7.72E2,6.38E2,2.45E2,9E0,7.67E2,2E0,1.862E3,1.89E2,2.29E2,1.205E3,9.34E2,1.16E2,1.214E3,3.24E2,9.74E2],"tree_param":{"num_deleted":"0","num_feature":"96","num_nodes":"31","size_leaf_vector":"1"}},{"base_weights":[-3.41395E-2,-6.043027E-1,4.2675638E-1,-3.4634033E-1,-8.240562E-1,1.9427331E-1,6.0934377E-1,-4.275323E-1,-1.6652046E-1,-6.592995E-1,-9.006579E-1,2.7153762E-2,2.873231E-1,5.1658964E-1,7.953155E-1,-6.73342E-3,-1.0390449E-2,-5.4688347E-3,-7.9384615E-4,-1.3761724E-2,-1.1836734E-3,3.1666665E-3,-1.8058682E-2,1.5439056E-3,-4.134146E-3,1.7722222E-3,6.8219607E-3,8.232843E-3,1.1515464E-2,-1.6363636E-3,1.594067E-2],"categories":[],"categories_nodes":[],"categories_segments":[],"categories_sizes":[],"default_left":[0,0,0,0,0,0,0,0,0,0,0,0,0,0,0,0,0,0,0,0,0,0,0,0,0,0,0,0,0,0,0],"id":32,"left_children":[1,3,5,7,9,11,13,15,17,19,21,23,25,27,29,-1,-1,-1,-1,-1,-1,-1,-1,-1,-1,-1,-1,-1,-1,-1,-1],"loss_changes":[2.7190142E3,2.5921167E2,2.4162598E2,3.0545502E1,2.5331299E1,3.9264236E1,5.0959106E1,1.0460449E1,9.13562E0,1.3821991E1,5.534546E0,1.0878052E1,1.7019089E1,1.0972107E1,2.2998657E0,0E0,0E0,0E0,0E0,0E0,0E0,0E0,0E0,0E0,0E0,0E0,0E0,0E0,0E0,0E0,0E0],"parents":[2147483647,0,0,1,1,2,2,3,3,4,4,5,5,6,6,7,7,8,8,9,9,10,10,11,11,12,12,13,13,14,14],"right_children":[2,4,6,8,10,12,14,16,18,20,22,24,26,28,30,-1,-1,-1,-1,-1,-1,-1,-1,-1,-1,-1,-1,-1,-1,-1,-1],"split_conditions":[6.9801474E-1,2.825285E0,2.3341105E0,7.66805E-1,3.7272897E0,7.9541606E-1,2.8551033E0,1.8118032E0,1.7603384E-1,1.7764927E-1,2.1228654E0,1.1040311E0,1.3378069E0,1.7757127E0,1.4263827E0,-5.867116E-3,-8.3724875E-3,-4.0821186E-3,-4.0192335E-4,-1.0439279E-2,-2.8799295E-3,1.8075522E-3,-1.3727632E-2,1.2625096E-3,-3.9923107E-3,1.2025302E-3,6.2839948E-3,7.890075E-3,1.0359781E-2,-2.3447287E-3,1.5217224E-2],"split_indices":[1,35,3,3,56,64,64,56,64,3,25,35,1,68,1,0,0,0,0,0,0,0,0,0,0,0,0,0,0,0,0],"split_type":[0,0,0,0,0,0,0,0,0,0,0,0,0,0,0,0,0,0,0,0,0,0,0,0,0,0,0,0,0,0,0],"sum_hessian":[1.0327E4,4.615E3,5.712E3,2.135E3,2.48E3,2.522E3,3.19E3,1.461E3,6.74E2,8.18E2,1.662E3,9.07E2,1.615E3,2.154E3,1.036E3,7.59E2,7.02E2,3.59E2,3.15E2,7.79E2,3.9E1,2E0,1.66E3,7.53E2,1.54E2,3.5E2,1.265E3,8.06E2,1.348E3,1E0,1.035E3],"tree_param":{"num_deleted":"0","num_feature":"96","num_nodes":"31","size_leaf_vector":"1"}},{"base_weights":[-3.6232725E-2,-5.54998E-1,4.4094533E-1,-2.9565734E-1,-8.220172E-1,2.1963318E-1,6.160679E-1,-4.2672652E-1,-1.1954338E-1,-6.6391075E-1,-1.7770005E-2,1.0749004E-1,3.396014E-1,5.179326E-1,7.469565E-1,-6.323404E-3,-1.0488711E-2,-3.675063E-3,9.581993E-4,-1.3601626E-2,-2.2941176E-3,-2.765531E-4,3.704961E-3,7.714612E-3,3.7430553E-3,-3.4117647E-3,1.0434633E-2,1.3239819E-2,1.653268E-2],"categories":[],"categories_nodes":[],"categories_segments":[],"categories_sizes":[],"default_left":[0,0,0,0,0,0,0,0,0,0,0,0,0,0,0,0,0,0,0,0,0,0,0,0,0,0,0,0,0],"id":33,"left_children":[1,3,5,7,9,11,13,15,17,19,-1,21,23,25,27,-1,-1,-1,-1,-1,-1,-1,-1,-1,-1,-1,-1,-1,-1],"loss_changes":[2.5637898E3,3.4107117E2,2.07656E2,5.7904785E1,1.958313E1,3.1865463E1,3.4616333E1,1.3899658E1,1.1875215E1,5.9076843E0,0E0,1.18817005E1,7.3361206E0,5.505249E0,2.942749E0,0E0,0E0,0E0,0E0,0E0,0E0,0E0,0E0,0E0,0E0,0E0,0E0,0E0,0E0],"parents":[2147483647,0,0,1,1,2,2,3,3,4,4,5,5,6,6,7,7,8,8,9,9,11,11,12,12,13,13,14,14],"right_children":[2,4,6,8,10,12,14,16,18,20,-1,22,24,26,28,-1,-1,-1,-1,-1,-1,-1,-1,-1,-1,-1,-1,-1,-1],"split_conditions":[1.2410239E0,2.812481E0,2.4124062E0,1.1673171E-1,3.9104807E0,1.1636146E0,3.2717493E0,1.8118032E0,5.84088E-1,2.0260094E-1,-1.3438166E-2,1.0539448E0,6.8798983E-1,1.1753951E0,4.017679E0,-4.7778594E-3,-8.202576E-3,-2.8586711E-3,6.557164E-4,-1.0722416E-2,-1.2714586E-3,-2.3922487E-4,3.2091069E-3,6.720232E-3,2.2630466E-3,-3.7995782E-3,9.648808E-3,1.1973262E-2,1.6652105E-2],"split_indices":[3,56,1,1,25,94,3,56,81,3,0,1,79,47,1,0,0,0,0,0,0,0,0,0,0,0,0,0,0],"split_type":[0,0,0,0,0,0,0,0,0,0,0,0,0,0,0,0,0,0,0,0,0,0,0,0,0,0,0,0,0],"sum_hessian":[1.0337E4,4.952E3,5.385E3,2.523E3,2.429E3,2.389E3,2.996E3,1.438E3,1.085E3,7.52E2,1.677E3,1.245E3,1.144E3,1.741E3,1.255E3,6.95E2,7.43E2,7.84E2,3.01E2,7.28E2,2.4E1,4.89E2,7.56E2,8.66E2,2.78E2,7E0,1.734E3,6.53E2,6.02E2],"tree_param":{"num_deleted":"0","num_feature":"96","num_nodes":"29","size_leaf_vector":"1"}},{"base_weights":[-4.186687E-2,-6.342361E-1,3.6953866E-1,-3.845641E-1,-8.360924E-1,1.1016135E-1,5.9611213E-1,-2.5684094E-1,-4.8906693E-1,-6.6534483E-1,-8.861326E-1,-4.7811218E-2,2.6755646E-1,5.051282E-1,7.7366513E-1,-5.8391085E-3,9.7029697E-4,-9.865784E-3,4.4615385E-3,9.4736845E-4,-1.3551663E-2,-1.7743506E-2,1.6363636E-3,-3.2038044E-3,1.3016304E-3,-8.521739E-4,5.839233E-3,7.851944E-3,1.1279944E-2,-3.1666665E-3,1.5537624E-2],"categories":[],"categories_nodes":[],"categories_segments":[],"categories_sizes":[],"default_left":[0,0,0,0,0,0,0,0,0,0,0,0,0,0,0,0,0,0,0,0,0,0,0,0,0,0,0,0,0,0,0],"id":34,"left_children":[1,3,5,7,9,11,13,15,17,19,21,23,25,27,29,-1,-1,-1,-1,-1,-1,-1,-1,-1,-1,-1,-1,-1,-1,-1,-1],"loss_changes":[2.568817E3,2.1438147E2,3.648686E2,2.4696777E1,1.4284302E1,7.257905E1,4.9564575E1,9.805447E0,4.317749E0,5.442993E0,2.6330566E0,1.8661827E1,1.1208588E1,1.2416565E1,4.604065E0,0E0,0E0,0E0,0E0,0E0,0E0,0E0,0E0,0E0,0E0,0E0,0E0,0E0,0E0,0E0,0E0],"parents":[2147483647,0,0,1,1,2,2,3,3,4,4,5,5,6,6,7,7,8,8,9,9,10,10,11,11,12,12,13,13,14,14],"right_children":[2,4,6,8,10,12,14,16,18,20,22,24,26,28,30,-1,-1,-1,-1,-1,-1,-1,-1,-1,-1,-1,-1,-1,-1,-1,-1],"split_conditions":[7.81208E-1,2.9447875E0,1.6408564E0,1.6749378E0,3.4070818E0,8.0478007E-1,2.8551033E0,6.99985E-1,8.509471E-1,1.9221041E0,1.5512393E-1,4.129015E-1,1.1192136E0,1.7757127E0,1.0795047E0,-5.015373E-3,6.166034E-4,-7.309061E-3,9.74956E-3,8.164775E-4,-9.717989E-3,-1.3144406E-2,7.316083E-3,-2.709824E-3,1.3170853E-3,-1.6376475E-3,5.076841E-3,6.2504755E-3,1.0654483E-2,-1.7537452E-2,1.4077808E-2],"split_indices":[3,56,64,56,35,68,64,64,94,35,3,64,3,68,68,0,0,0,0,0,0,0,0,0,0,0,0,0,0,0,0],"split_type":[0,0,0,0,0,0,0,0,0,0,0,0,0,0,0,0,0,0,0,0,0,0,0,0,0,0,0,0,0,0,0],"sum_hessian":[1.0521E4,4.31E3,6.211E3,1.94E3,2.37E3,2.903E3,3.308E3,8.89E2,1.051E3,5.7E2,1.8E3,1.452E3,1.451E3,2.213E3,1.095E3,7.98E2,9.1E1,1.048E3,3E0,9E0,5.61E2,1.799E3,1E0,7.26E2,7.26E2,1.05E2,1.346E3,7.87E2,1.426E3,2E0,1.093E3],"tree_param":{"num_deleted":"0","num_feature":"96","num_nodes":"31","size_leaf_vector":"1"}},{"base_weights":[-4.010659E-2,-6.227069E-1,3.6572507E-1,-3.5132647E-1,-8.285774E-1,9.967173E-2,5.417531E-1,-2.3252481E-1,-4.6094736E-1,-6.971892E-1,-9.045668E-1,-2.8819157E-2,2.2483818E-1,4.0118176E-1,6.706596E-1,-5.067442E-3,2.4210527E-3,-7.6317564E-3,-1.1516304E-2,3.8666665E-3,-1.4084782E-2,-1.8116934E-2,1.6363636E-3,-3.6484017E-3,1.146871E-3,2.8172322E-3,7.079167E-3,8.77375E-3,1.1657753E-3,1.0337461E-2,1.488324E-2],"categories":[],"categories_nodes":[],"categories_segments":[],"categories_sizes":[],"default_left":[0,0,0,0,0,0,0,0,0,0,0,0,0,0,0,0,0,0,0,0,0,0,0,0,0,0,0,0,0,0,0],"id":35,"left_children":[1,3,5,7,9,11,13,15,17,19,21,23,25,27,29,-1,-1,-1,-1,-1,-1,-1,-1,-1,-1,-1,-1,-1,-1,-1,-1],"loss_changes":[2.4423398E3,2.3391223E2,2.845611E2,2.2912582E1,1.7535156E1,3.9278053E1,6.3559692E1,7.005558E0,6.367096E0,7.219879E0,2.7033691E0,1.6144302E1,1.2853958E1,2.2547638E1,1.744806E1,0E0,0E0,0E0,0E0,0E0,0E0,0E0,0E0,0E0,0E0,0E0,0E0,0E0,0E0,0E0,0E0],"parents":[2147483647,0,0,1,1,2,2,3,3,4,4,5,5,6,6,7,7,8,8,9,9,10,10,11,11,12,12,13,13,14,14],"right_children":[2,4,6,8,10,12,14,16,18,20,22,24,26,28,30,-1,-1,-1,-1,-1,-1,-1,-1,-1,-1,-1,-1,-1,-1,-1,-1],"split_conditions":[7.81208E-1,2.9005032E0,1.3284377E0,1.6961058E0,3.994261E0,5.1735604E-1,2.2446783E0,2.5404713E0,3.3291054E0,1.9952214E0,2.317764E-2,3.616284E-2,2.103366E0,2.5390822E-1,2.4483547E0,-3.8778814E-3,2.2904587E-3,-6.583061E-3,-8.42214E-3,1.8195075E-3,-1.025294E-2,-1.2935891E-2,1.1336898E-2,-2.9167475E-3,1.0662776E-3,2.9111092E-3,6.226653E-3,7.4179075E-3,5.123338E-4,9.234864E-3,1.388636E-2],"split_indices":[3,56,68,56,56,36,94,25,12,79,3,81,3,25,64,0,0,0,0,0,0,0,0,0,0,0,0,0,0,0,0],"split_type":[0,0,0,0,0,0,0,0,0,0,0,0,0,0,0,0,0,0,0,0,0,0,0,0,0,0,0,0,0,0,0],"sum_hessian":[1.031E4,4.231E3,6.079E3,1.837E3,2.394E3,2.427E3,3.652E3,8.97E2,9.4E2,9.15E2,1.479E3,1.201E3,1.226E3,1.767E3,1.885E3,8.5E2,4.7E1,5.82E2,3.58E2,5E0,9.1E2,1.478E3,1E0,4.28E2,7.73E2,7.56E2,4.7E2,1.59E3,1.77E2,6.36E2,1.249E3],"tree_param":{"num_deleted":"0","num_feature":"96","num_nodes":"31","size_leaf_vector":"1"}},{"base_weights":[-3.9285716E-2,-6.496868E-1,3.4433946E-1,-4.3868577E-1,-8.623672E-1,9.201583E-2,5.72943E-1,-2.942757E-1,-5.398132E-1,-7.055866E-1,-9.144138E-1,-4.9967512E-2,2.3695073E-1,4.7130477E-1,7.354711E-1,-6.401478E-3,2.925926E-3,-8.536937E-3,-1.2603476E-2,1.3846154E-3,-1.4228464E-2,-7.071428E-3,-1.837849E-2,2.3151751E-4,-3.4126677E-3,9.4210525E-4,5.969965E-3,6.6133826E-3,1.0340865E-2,-3.1666665E-3,1.4764472E-2],"categories":[],"categories_nodes":[],"categories_segments":[],"categories_sizes":[],"default_left":[0,0,0,0,0,0,0,0,0,0,0,0,0,0,0,0,0,0,0,0,0,0,0,0,0,0,0,0,0,0,0],"id":36,"left_children":[1,3,5,7,9,11,13,15,17,19,21,23,25,27,29,-1,-1,-1,-1,-1,-1,-1,-1,-1,-1,-1,-1,-1,-1,-1,-1],"loss_changes":[2.4216628E3,1.7518616E2,3.6574518E2,2.78862E1,9.518188E0,6.2510048E1,5.1421387E1,1.021489E1,9.229095E0,2.98526E0,2.9187012E-1,1.146456E1,1.737497E1,1.1565765E1,4.3341675E0,0E0,0E0,0E0,0E0,0E0,0E0,0E0,0E0,0E0,0E0,0E0,0E0,0E0,0E0,0E0,0E0],"parents":[2147483647,0,0,1,1,2,2,3,3,4,4,5,5,6,6,7,7,8,8,9,9,10,10,11,11,12,12,13,13,14,14],"right_children":[2,4,6,8,10,12,14,16,18,20,22,24,26,28,30,-1,-1,-1,-1,-1,-1,-1,-1,-1,-1,-1,-1,-1,-1,-1,-1],"split_conditions":[1.9672574E-1,3.2711453E0,2.2466624E0,1.8118032E0,3.8941653E0,1.5757818E0,3.4994173E0,7.6132095E-1,3.370614E0,1.5895134E0,3.375463E0,8.255936E-1,5.1735604E-1,1.6408564E0,1.202447E0,-4.827016E-3,1.9261162E-3,-7.5061712E-3,-9.121456E-3,3.0802053E-3,-9.984242E-3,-1.1053569E-2,-1.2670834E-2,4.973644E-4,-2.5752622E-3,1.0687489E-3,5.3498372E-3,6.4251833E-3,9.354242E-3,-3.7006717E-3,1.3839971E-2],"split_indices":[1,35,1,56,56,3,1,64,12,40,89,56,36,64,94,0,0,0,0,0,0,0,0,0,0,0,0,0,0,0,0],"split_type":[0,0,0,0,0,0,0,0,0,0,0,0,0,0,0,0,0,0,0,0,0,0,0,0,0,0,0,0,0,0,0],"sum_hessian":[1.0322E4,3.981E3,6.341E3,2.014E3,1.967E3,3.021E3,3.32E3,8.46E2,1.168E3,5.27E2,1.44E3,1.529E3,1.492E3,2.067E3,1.253E3,8.02E2,4.4E1,5.45E2,6.23E2,3E0,5.24E2,1.8E1,1.422E3,1.018E3,5.11E2,3.7E2,1.122E3,5.28E2,1.539E3,2E0,1.251E3],"tree_param":{"num_deleted":"0","num_feature":"96","num_nodes":"31","size_leaf_vector":"1"}},{"base_weights":[-3.905662E-2,-5.8882946E-1,3.7948066E-1,-2.9798836E-1,-7.9735225E-1,1.5666056E-1,5.693736E-1,-7.441365E-2,-3.6916083E-1,-6.5E-1,-8.9666665E-1,3.3913043E-3,2.6681387E-1,4.6393007E-1,7.1816784E-1,2.8392856E-3,-2.7738418E-3,-3.0508474E-4,-7.630702E-3,-1.6249999E-3,-1.33950375E-2,1.6363636E-3,-1.7958142E-2,1.0202507E-3,-7.95122E-3,6.796052E-3,3.3060028E-3,9.80413E-3,4.4236453E-3,1.3324517E-2,1.704908E-2],"categories":[],"categories_nodes":[],"categories_segments":[],"categories_sizes":[],"default_left":[0,0,0,0,0,0,0,0,0,0,0,0,0,0,0,0,0,0,0,0,0,0,0,0,0,0,0,0,0,0,0],"id":37,"left_children":[1,3,5,7,9,11,13,15,17,19,21,23,25,27,29,-1,-1,-1,-1,-1,-1,-1,-1,-1,-1,-1,-1,-1,-1,-1,-1],"loss_changes":[2.3877065E3,2.6951636E2,2.4833752E2,2.9739395E1,3.2153564E1,4.597043E1,4.639514E1,6.7196236E0,6.1645966E0,1.15807495E1,2.6733398E0,2.2126068E1,1.113163E1,1.0887299E1,3.2294922E0,0E0,0E0,0E0,0E0,0E0,0E0,0E0,0E0,0E0,0E0,0E0,0E0,0E0,0E0,0E0,0E0],"parents":[2147483647,0,0,1,1,2,2,3,3,4,4,5,5,6,6,7,7,8,8,9,9,10,10,11,11,12,12,13,13,14,14],"right_children":[2,4,6,8,10,12,14,16,18,20,22,24,26,28,30,-1,-1,-1,-1,-1,-1,-1,-1,-1,-1,-1,-1,-1,-1,-1,-1],"split_conditions":[6.048747E-1,3.370614E0,2.18021E0,6.9175684E-1,3.8756227E0,7.9150206E-1,2.5102775E0,1.1190643E0,4.6709996E-1,1.7601434E0,2.0470839E0,1.9247879E0,5.277441E-1,1.8668415E-1,4.164556E0,1.4506426E-3,-2.305839E-3,-8.046627E-5,-6.035147E-3,-6.7301985E-4,-9.697032E-3,2.5262164E-3,-1.2440142E-2,1.0391527E-3,-4.8388564E-3,5.46E-3,2.7186305E-3,8.473009E-3,5.0254157E-3,1.22475065E-2,1.563288E-2],"split_indices":[47,12,47,56,56,68,68,12,25,56,79,12,12,89,47,0,0,0,0,0,0,0,0,0,0,0,0,0,0,0,0],"split_type":[0,0,0,0,0,0,0,0,0,0,0,0,0,0,0,0,0,0,0,0,0,0,0,0,0,0,0,0,0,0,0],"sum_hessian":[1.0357E4,4.475E3,5.882E3,1.879E3,2.596E3,2.715E3,3.167E3,4.59E2,1.42E3,1.076E3,1.52E3,1.14E3,1.575E3,1.878E3,1.289E3,1.02E2,3.57E2,4.9E1,1.371E3,3.8E1,1.038E3,1E0,1.519E3,1.027E3,1.13E2,9.02E2,6.73E2,1.685E3,1.93E2,9.73E2,3.16E2],"tree_param":{"num_deleted":"0","num_feature":"96","num_nodes":"31","size_leaf_vector":"1"}},{"base_weights":[-4.3947443E-2,-6.413172E-1,3.4008244E-1,-4.1798156E-1,-8.446496E-1,8.84915E-2,5.42485E-1,-5.1839495E-1,-2.82415E-1,-7.471183E-1,-1.8444836E-2,-5.111752E-2,2.2176918E-1,4.0734768E-1,6.6314924E-1,4.4615385E-3,-1.0450271E-2,-6.1838506E-3,2.7241379E-3,-1.50436545E-2,2.7142859E-3,-4.047414E-3,4.908896E-4,1.5893804E-3,6.1860983E-3,6.4333696E-3,1.0115637E-2,1.1307861E-2,1.5057421E-2],"categories":[],"categories_nodes":[],"categories_segments":[],"categories_sizes":[],"default_left":[0,0,0,0,0,0,0,0,0,0,0,0,0,0,0,0,0,0,0,0,0,0,0,0,0,0,0,0,0],"id":38,"left_children":[1,3,5,7,9,11,13,15,17,19,-1,21,23,25,27,-1,-1,-1,-1,-1,-1,-1,-1,-1,-1,-1,-1,-1,-1],"loss_changes":[2.3768118E3,1.8044104E2,3.2062585E2,2.5027863E1,8.925781E0,5.2675934E1,5.4149414E1,4.582245E0,1.0000282E1,5.5043335E0,0E0,1.5940444E1,1.7739662E1,1.2408447E1,1.1653442E1,0E0,0E0,0E0,0E0,0E0,0E0,0E0,0E0,0E0,0E0,0E0,0E0,0E0,0E0],"parents":[2147483647,0,0,1,1,2,2,3,3,4,4,5,5,6,6,7,7,8,8,9,9,11,11,12,12,13,13,14,14],"right_children":[2,4,6,8,10,12,14,16,18,20,-1,22,24,26,28,-1,-1,-1,-1,-1,-1,-1,-1,-1,-1,-1,-1,-1,-1],"split_conditions":[1.9672574E-1,3.2073724E0,2.1825364E0,4.7992744E-2,4.048578E0,8.230101E-1,2.9747713E0,6.1772215E-1,7.6132095E-1,6.400673E-2,-1.22147305E-2,3.1408425E-2,1.5522676E0,2.0102482E0,2.8551033E0,5.873548E-3,-8.262969E-3,-4.824401E-3,2.5299608E-3,-1.026693E-2,6.5365625E-3,-2.827965E-3,5.5069954E-4,1.574867E-3,6.051149E-3,5.672426E-3,8.739578E-3,1.0029585E-2,1.354447E-2],"split_indices":[1,35,3,3,35,64,3,89,64,64,0,64,1,64,64,0,0,0,0,0,0,0,0,0,0,0,0,0,0],"split_type":[0,0,0,0,0,0,0,0,0,0,0,0,0,0,0,0,0,0,0,0,0,0,0,0,0,0,0,0,0],"sum_hessian":[1.0341E4,4.044E3,6.297E3,1.942E3,2.102E3,2.814E3,3.483E3,1.099E3,8.43E2,9.79E2,1.123E3,1.377E3,1.437E3,1.664E3,1.819E3,3E0,1.096E3,7.95E2,4.8E1,9.75E2,4E0,4.54E2,9.23E2,5.55E2,8.82E2,9.13E2,7.51E2,9.06E2,9.13E2],"tree_param":{"num_deleted":"0","num_feature":"96","num_nodes":"29","size_leaf_vector":"1"}},{"base_weights":[-5.0873656E-2,-6.1124086E-1,3.532354E-1,-3.4114808E-1,-8.0902946E-1,1.3453893E-1,5.758253E-1,-2.5827137E-1,-4.4849625E-1,-6.7175496E-1,-1.7769378E-2,-7.269807E-2,2.2419581E-1,5.01169E-1,7.3002094E-1,-5.480151E-3,8.5E-3,-1.1045822E-2,-6.9977115E-3,2.7142859E-3,-1.3532847E-2,-5.564626E-3,-6.750314E-4,7.42067E-3,3.0776565E-3,8.03381E-3,1.1126739E-2,-1.6363636E-3,1.4636649E-2],"categories":[],"categories_nodes":[],"categories_segments":[],"categories_sizes":[],"default_left":[0,0,0,0,0,0,0,0,0,0,0,0,0,0,0,0,0,0,0,0,0,0,0,0,0,0,0,0,0],"id":39,"left_children":[1,3,5,7,9,11,13,15,17,19,-1,21,23,25,27,-1,-1,-1,-1,-1,-1,-1,-1,-1,-1,-1,-1,-1,-1],"loss_changes":[2.3608823E3,2.3046912E2,2.940553E2,1.535434E1,2.1290894E1,5.7200844E1,3.074176E1,1.2718681E1,6.145157E0,4.772766E0,0E0,7.3513784E0,2.1522797E1,8.93634E0,2.0697632E0,0E0,0E0,0E0,0E0,0E0,0E0,0E0,0E0,0E0,0E0,0E0,0E0,0E0,0E0],"parents":[2147483647,0,0,1,1,2,2,3,3,4,4,5,5,6,6,7,7,8,8,9,9,11,11,12,12,13,13,14,14],"right_children":[2,4,6,8,10,12,14,16,18,20,-1,22,24,26,28,-1,-1,-1,-1,-1,-1,-1,-1,-1,-1,-1,-1,-1,-1],"split_conditions":[4.6305543E-1,2.825285E0,2.427327E0,1.7601434E0,4.529771E0,3.137005E-1,3.7509627E0,3.584104E0,2.9780798E0,1.4903612E0,-1.1959107E-2,9.163911E-2,2.2442009E-1,2.875018E0,1.3100783E0,-4.282653E-3,7.059006E-3,-7.921812E-3,-5.5610505E-3,1.593334E-2,-9.152217E-3,-4.0437765E-3,-4.466799E-4,6.6350624E-3,2.859447E-3,7.195173E-3,9.779549E-3,-1.4606953E-3,1.3868988E-2],"split_indices":[1,35,1,56,12,36,1,12,79,17,0,35,12,1,94,0,0,0,0,0,0,0,0,0,0,0,0,0,0],"split_type":[0,0,0,0,0,0,0,0,0,0,0,0,0,0,0,0,0,0,0,0,0,0,0,0,0,0,0,0,0],"sum_hessian":[1.0406E4,4.358E3,6.048E3,1.854E3,2.504E3,3.059E3,2.989E3,1.066E3,7.88E2,9.53E2,1.551E3,9.24E2,2.135E3,2.043E3,9.46E2,1.048E3,1.8E1,3.61E2,4.27E2,4E0,9.49E2,1.37E2,7.87E2,6.77E2,1.458E3,7.59E2,1.284E3,1E0,9.45E2],"tree_param":{"num_deleted":"0","num_feature":"96","num_nodes":"29","size_leaf_vector":"1"}},{"base_weights":[-4.5379836E-2,-6.013753E-1,3.4032336E-1,-3.7157094E-1,-8.1937987E-1,1.5069522E-1,6.013467E-1,-4.4014454E-1,-1.897479E-1,-6.209251E-1,-8.661521E-1,-2.9618412E-2,3.0225065E-1,5.031496E-1,7.0948845E-1,-8.2121E-3,-1.462992E-2,-4.5384616E-3,3.694915E-3,-1.2731034E-2,-3.3793102E-3,1.3846154E-3,-1.7364262E-2,-2.5554202E-3,1.3309523E-3,2.364035E-3,7.115971E-3,-4.5384616E-3,1.02664735E-2,1.4218001E-2,-1.6363636E-3],"categories":[],"categories_nodes":[],"categories_segments":[],"categories_sizes":[],"default_left":[0,0,0,0,0,0,0,0,0,0,0,0,0,0,0,0,0,0,0,0,0,0,0,0,0,0,0,0,0,0,0],"id":40,"left_children":[1,3,5,7,9,11,13,15,17,19,21,23,25,27,29,-1,-1,-1,-1,-1,-1,-1,-1,-1,-1,-1,-1,-1,-1,-1,-1],"loss_changes":[2.246284E3,2.1175842E2,3.0515985E2,2.5372437E1,1.48289795E1,9.838649E1,2.3908203E1,9.981201E0,8.706959E0,2.0503082E0,4.0526123E0,1.5674851E1,1.8799423E1,1.157016E1,1.998352E0,0E0,0E0,0E0,0E0,0E0,0E0,0E0,0E0,0E0,0E0,0E0,0E0,0E0,0E0,0E0,0E0],"parents":[2147483647,0,0,1,1,2,2,3,3,4,4,5,5,6,6,7,7,8,8,9,9,10,10,11,11,12,12,13,13,14,14],"right_children":[2,4,6,8,10,12,14,16,18,20,22,24,26,28,30,-1,-1,-1,-1,-1,-1,-1,-1,-1,-1,-1,-1,-1,-1,-1,-1],"split_conditions":[7.81208E-1,3.8620715E0,2.6590273E0,5.4212794E-2,3.8112438E0,1.7094903E0,3.287038E0,4.0889063E0,9.770295E-1,4.84209E0,2.552611E0,2.9172686E-1,6.614865E-1,1.5857655E0,5.64721E-1,-6.207541E-3,-9.97154E-3,-3.0358923E-3,1.4367041E-3,-9.271062E-3,-2.7118265E-3,5.2032988E-3,-1.1616201E-2,-2.136453E-3,1.1195515E-3,2.1028586E-3,6.0718623E-3,-2.7983263E-3,9.132465E-3,1.2788728E-2,-3.078515E-3],"split_indices":[3,12,1,1,25,3,3,89,94,89,40,36,36,47,40,0,0,0,0,0,0,0,0,0,0,0,0,0,0,0,0],"split_type":[0,0,0,0,0,0,0,0,0,0,0,0,0,0,0,0,0,0,0,0,0,0,0,0,0,0,0,0,0,0,0],"sum_hessian":[1.0455E4,4.28E3,6.175E3,2.097E3,2.183E3,3.586E3,2.589E3,1.512E3,5.85E2,4.44E2,1.739E3,1.641E3,1.945E3,1.387E3,1.202E3,1.395E3,1.17E2,5.36E2,4.9E1,4.25E2,1.9E1,3E0,1.736E3,8.11E2,8.3E2,4.46E2,1.499E3,1.6E1,1.371E3,1.201E3,1E0],"tree_param":{"num_deleted":"0","num_feature":"96","num_nodes":"31","size_leaf_vector":"1"}},{"base_weights":[-5.0168544E-2,3.374713E-1,-6.0044235E-1,8.339154E-2,5.2192014E-1,-3.2080653E-1,-7.825366E-1,-1.2586207E-2,2.7969304E-1,4.2190644E-1,7.0007974E-1,-2.0308219E-1,-4.3893492E-1,-5.984185E-1,-8.630191E-1,1.4665226E-3,-2.1820387E-3,-4.27451E-3,6.151365E-3,7.359665E-3,1.1178914E-2,4.1578948E-3,1.4190864E-2,-5.15126E-3,6.860465E-4,-8.996381E-3,1.4615385E-3,-1.2075795E-2,2.7142859E-3,-2.111111E-3,-1.7315669E-2],"categories":[],"categories_nodes":[],"categories_segments":[],"categories_sizes":[],"default_left":[0,0,0,0,0,0,0,0,0,0,0,0,0,0,0,0,0,0,0,0,0,0,0,0,0,0,0,0,0,0,0],"id":41,"left_children":[1,3,5,7,9,11,13,15,17,19,21,23,25,27,29,-1,-1,-1,-1,-1,-1,-1,-1,-1,-1,-1,-1,-1,-1,-1,-1],"loss_changes":[2.21683E3,2.8528528E2,2.1608093E2,4.8614067E1,5.985089E1,2.2838577E1,3.312805E1,1.4511472E1,1.2316498E1,1.4750458E1,4.273987E0,1.1439903E1,5.0753937E0,4.1075134E0,2.720459E0,0E0,0E0,0E0,0E0,0E0,0E0,0E0,0E0,0E0,0E0,0E0,0E0,0E0,0E0,0E0,0E0],"parents":[2147483647,0,0,1,1,2,2,3,3,4,4,5,5,6,6,7,7,8,8,9,9,10,10,11,11,12,12,13,13,14,14],"right_children":[2,4,6,8,10,12,14,16,18,20,22,24,26,28,30,-1,-1,-1,-1,-1,-1,-1,-1,-1,-1,-1,-1,-1,-1,-1,-1],"split_conditions":[1.7166253E0,2.1825364E0,2.823811E0,1.7915329E0,2.7302759E0,1.6749378E0,3.647922E0,1.0975233E0,2.7308673E-1,3.0965703E0,2.425276E0,2.1198947E0,9.9768436E-1,6.3754135E-1,2.6890497E0,1.3594808E-3,-1.7234678E-3,-3.6641674E-3,5.2422304E-3,6.253966E-3,1.04168495E-2,7.521405E-3,1.2046599E-2,-3.8680576E-3,9.197309E-4,-6.8932716E-3,1.1410414E-3,-8.225615E-3,7.4182674E-3,-9.814618E-3,-1.1437257E-2],"split_indices":[12,3,17,1,64,56,56,12,64,3,3,89,64,3,89,0,0,0,0,0,0,0,0,0,0,0,0,0,0,0,0],"split_type":[0,0,0,0,0,0,0,0,0,0,0,0,0,0,0,0,0,0,0,0,0,0,0,0,0,0,0,0,0,0,0],"sum_hessian":[1.0373E4,6.088E3,4.285E3,2.567E3,3.521E3,1.701E3,2.584E3,1.73E3,8.37E2,2.277E3,1.244E3,8.66E2,8.35E2,8.12E2,1.772E3,9.16E2,8.14E2,4.1E1,7.96E2,1.661E3,6.16E2,2.8E1,1.216E3,7.04E2,1.62E2,8.19E2,1.6E1,8.08E2,4E0,8E0,1.764E3],"tree_param":{"num_deleted":"0","num_feature":"96","num_nodes":"31","size_leaf_vector":"1"}},{"base_weights":[-4.4313047E-2,-5.936602E-1,3.3364138E-1,-3.3538705E-1,-7.994478E-1,1.4760786E-1,5.6113315E-1,-2.1639176E-1,-4.5463258E-1,-6.8920684E-1,-1.8210342E-2,-6.6954024E-2,2.4142435E-1,4.6055204E-1,7.235125E-1,-4.757642E-3,2.4687499E-3,-9.342795E-3,5.4545456E-4,6.533333E-3,-1.39228245E-2,-1.8309572E-3,5.5277776E-3,-1.4552844E-3,5.5301827E-3,9.316763E-3,-5.1578945E-3,4.181818E-3,1.465947E-2],"categories":[],"categories_nodes":[],"categories_segments":[],"categories_sizes":[],"default_left":[0,0,0,0,0,0,0,0,0,0,0,0,0,0,0,0,0,0,0,0,0,0,0,0,0,0,0,0,0],"id":42,"left_children":[1,3,5,7,9,11,13,15,17,19,-1,21,23,25,27,-1,-1,-1,-1,-1,-1,-1,-1,-1,-1,-1,-1,-1,-1],"loss_changes":[2.1615474E3,2.2271826E2,2.601374E2,2.5895279E1,2.238794E1,6.87601E1,4.1806213E1,7.3890343E0,5.8309784E0,1.0926331E1,0E0,9.050205E0,2.63797E1,7.8265076E0,3.444641E0,0E0,0E0,0E0,0E0,0E0,0E0,0E0,0E0,0E0,0E0,0E0,0E0,0E0,0E0],"parents":[2147483647,0,0,1,1,2,2,3,3,4,4,5,5,6,6,7,7,8,8,9,9,11,11,12,12,13,13,14,14],"right_children":[2,4,6,8,10,12,14,16,18,20,-1,22,24,26,28,-1,-1,-1,-1,-1,-1,-1,-1,-1,-1,-1,-1,-1,-1],"split_conditions":[7.81208E-1,2.9447875E0,1.7757127E0,1.7839936E0,4.0261946E0,3.2367787E-1,2.8696008E0,2.5667439E0,6.597237E-1,2.0470839E0,-1.1302774E-2,1.9794003E0,1.2410239E0,1.1320851E0,1.9017533E0,-3.5420617E-3,2.5994026E-3,-6.744722E-3,9.044945E-5,3.2169712E-3,-9.131674E-3,-1.3053005E-3,2.474678E-3,-1.5850767E-3,4.723867E-3,8.517317E-3,-9.852857E-3,5.122826E-3,1.2079113E-2],"split_indices":[3,56,68,56,35,36,64,25,3,79,0,35,3,35,68,0,0,0,0,0,0,0,0,0,0,0,0,0,0],"split_type":[0,0,0,0,0,0,0,0,0,0,0,0,0,0,0,0,0,0,0,0,0,0,0,0,0,0,0,0,0],"sum_hessian":[1.0391E4,4.233E3,6.158E3,1.889E3,2.344E3,3.397E3,2.761E3,9.6E2,9.29E2,1.213E3,1.131E3,1.034E3,2.363E3,1.729E3,1.032E3,9.06E2,5.4E1,9.06E2,2.3E1,5E0,1.208E3,9.72E2,6.2E1,2.36E2,2.127E3,1.72E3,9E0,2.3E1,1.009E3],"tree_param":{"num_deleted":"0","num_feature":"96","num_nodes":"29","size_leaf_vector":"1"}},{"base_weights":[-5.13168E-2,-6.362465E-1,3.0749807E-1,-4.0241033E-1,-8.242105E-1,7.71868E-2,5.215012E-1,-2.7209303E-1,-4.8814675E-1,-7.0777154E-1,-1.8543035E-2,-5.8142576E-2,2.0593008E-1,4.192142E-1,6.857932E-1,-6.8249563E-3,-2.3170731E-4,-9.003208E-3,-1.4188405E-2,-1.0588235E-3,-1.4229971E-2,-5.2344827E-3,-2.0656525E-4,1.3882784E-3,5.476548E-3,7.1747266E-3,1.0181595E-2,1.3769169E-2,-3.1666665E-3],"categories":[],"categories_nodes":[],"categories_segments":[],"categories_sizes":[],"default_left":[0,0,0,0,0,0,0,0,0,0,0,0,0,0,0,0,0,0,0,0,0,0,0,0,0,0,0,0,0],"id":43,"left_children":[1,3,5,7,9,11,13,15,17,19,-1,21,23,25,27,-1,-1,-1,-1,-1,-1,-1,-1,-1,-1,-1,-1,-1,-1],"loss_changes":[2.1855962E3,1.705697E2,3.1768732E2,1.852832E1,1.9464722E1,5.451091E1,5.3210205E1,1.3094402E1,5.625412E0,2.1534424E0,0E0,1.4829222E1,1.4624672E1,9.429565E0,3.9936523E0,0E0,0E0,0E0,0E0,0E0,0E0,0E0,0E0,0E0,0E0,0E0,0E0,0E0,0E0],"parents":[2147483647,0,0,1,1,2,2,3,3,4,4,5,5,6,6,7,7,8,8,9,9,11,11,12,12,13,13,14,14],"right_children":[2,4,6,8,10,12,14,16,18,20,-1,22,24,26,28,-1,-1,-1,-1,-1,-1,-1,-1,-1,-1,-1,-1,-1,-1],"split_conditions":[1.1673171E-1,3.8620715E0,2.2466624E0,2.1064253E0,4.130264E0,8.230101E-1,2.7302759E0,2.17644E0,4.0889063E0,2.0107744E0,-1.1051496E-2,5.509393E-1,1.4067261E0,2.8956008E0,8.9469343E-1,-5.0045378E-3,-2.8994173E-4,-6.682463E-3,-9.683437E-3,-4.6370027E-4,-9.069066E-3,-4.042224E-3,-1.2274951E-4,1.1513334E-3,4.5842626E-3,6.4369533E-3,9.035289E-3,1.2001336E-2,-1.7928034E-2],"split_indices":[1,12,1,17,17,64,64,89,89,40,0,3,1,3,40,0,0,0,0,0,0,0,0,0,0,0,0,0,0],"split_type":[0,0,0,0,0,0,0,0,0,0,0,0,0,0,0,0,0,0,0,0,0,0,0,0,0,0,0,0,0],"sum_hessian":[1.0394E4,3.949E3,6.445E3,1.774E3,2.175E3,3.111E3,3.334E3,7.21E2,1.053E3,1.058E3,1.117E3,1.519E3,1.592E3,2.077E3,1.257E3,5.67E2,1.54E2,9.25E2,1.28E2,7E0,1.051E3,2.8E2,1.239E3,5.36E2,1.056E3,1.272E3,8.05E2,1.255E3,2E0],"tree_param":{"num_deleted":"0","num_feature":"96","num_nodes":"29","size_leaf_vector":"1"}},{"base_weights":[-3.357205E-2,-5.837215E-1,3.1851912E-1,-3.4169295E-1,-7.956623E-1,1.1774048E-1,5.422483E-1,-4.6341223E-1,-2.0033407E-1,-6.48312E-1,-8.8718146E-1,-3.6875E-3,2.283343E-1,4.579774E-1,7.165792E-1,-8.094508E-3,-1.2688796E-2,-4.783375E-3,1.7368421E-3,1.0588235E-3,-1.3096244E-2,1.6363636E-3,-1.7772797E-2,-1.060306E-3,2.1202404E-3,9.7172236E-4,5.5540935E-3,6.432432E-3,9.779268E-3,1.167052E-2,1.5588331E-2],"categories":[],"categories_nodes":[],"categories_segments":[],"categories_sizes":[],"default_left":[0,0,0,0,0,0,0,0,0,0,0,0,0,0,0,0,0,0,0,0,0,0,0,0,0,0,0,0,0,0,0],"id":44,"left_children":[1,3,5,7,9,11,13,15,17,19,21,23,25,27,29,-1,-1,-1,-1,-1,-1,-1,-1,-1,-1,-1,-1,-1,-1,-1,-1],"loss_changes":[2.0034165E3,2.0419702E2,2.8260626E2,3.1731262E1,2.3007446E1,4.4844067E1,4.0380066E1,7.5059204E0,1.0237789E1,4.322418E0,2.6377563E0,8.708881E0,1.5335739E1,6.9529114E0,3.2833557E0,0E0,0E0,0E0,0E0,0E0,0E0,0E0,0E0,0E0,0E0,0E0,0E0,0E0,0E0,0E0,0E0],"parents":[2147483647,0,0,1,1,2,2,3,3,4,4,5,5,6,6,7,7,8,8,9,9,10,10,11,11,12,12,13,13,14,14],"right_children":[2,4,6,8,10,12,14,16,18,20,22,24,26,28,30,-1,-1,-1,-1,-1,-1,-1,-1,-1,-1,-1,-1,-1,-1,-1,-1],"split_conditions":[1.9672574E-1,3.8620715E0,2.427327E0,2.317764E-2,3.990816E0,1.5895091E0,3.7509627E0,3.1770651E0,1.2286333E0,1.5257285E0,2.5246794E0,8.0478007E-1,5.1735604E-1,2.3341105E0,2.8621106E0,-6.381198E-3,-8.976216E-3,-3.7450346E-3,9.779538E-4,4.29971E-3,-8.42071E-3,9.8091345E-3,-1.0843543E-2,-6.572479E-4,1.6702211E-3,1.079834E-3,4.6262364E-3,5.3250277E-3,7.962978E-3,1.1136456E-2,1.3357691E-2],"split_indices":[1,12,1,3,17,3,1,56,3,56,56,68,36,3,68,0,0,0,0,0,0,0,0,0,0,0,0,0,0,0,0],"split_type":[0,0,0,0,0,0,0,0,0,0,0,0,0,0,0,0,0,0,0,0,0,0,0,0,0,0,0,0,0,0,0],"sum_hessian":[1.0323E4,4.026E3,6.297E3,1.892E3,2.134E3,3.327E3,2.97E3,1.004E3,8.88E2,8.49E2,1.285E3,1.59E3,1.737E3,2.027E3,9.43E2,7.73E2,2.31E2,7.84E2,1.04E2,7E0,8.42E2,1E0,1.284E3,1.101E3,4.89E2,3.79E2,1.358E3,3.97E2,1.63E3,3.36E2,6.07E2],"tree_param":{"num_deleted":"0","num_feature":"96","num_nodes":"31","size_leaf_vector":"1"}},{"base_weights":[-4.035172E-2,-5.5462396E-1,3.3597672E-1,-3.3439702E-1,-8.1776774E-1,1.2238856E-1,5.474992E-1,-1.4364548E-1,-3.950137E-1,-7.053156E-1,-9.0217197E-1,-3.0031696E-2,2.3141392E-1,4.5659924E-1,7.396642E-1,-7.333333E-4,-4.491124E-3,-8.11547E-3,1.1372549E-3,-6.196721E-3,-1.4504694E-2,-9.781818E-3,-1.83E-2,2.226415E-3,-2.9869373E-3,5.429986E-3,1.2514285E-3,6.2368E-3,1.030664E-2,1.1142856E-2,1.5654154E-2],"categories":[],"categories_nodes":[],"categories_segments":[],"categories_sizes":[],"default_left":[0,0,0,0,0,0,0,0,0,0,0,0,0,0,0,0,0,0,0,0,0,0,0,0,0,0,0,0,0,0,0],"id":45,"left_children":[1,3,5,7,9,11,13,15,17,19,21,23,25,27,29,-1,-1,-1,-1,-1,-1,-1,-1,-1,-1,-1,-1,-1,-1,-1,-1],"loss_changes":[2.0158132E3,2.5219409E2,2.7101282E2,2.7279572E1,1.2440063E1,5.004236E1,4.923828E1,5.067671E0,9.139008E0,4.7628784E0,1.2398071E0,2.145431E1,1.1667984E1,1.5960663E1,2.9923706E0,0E0,0E0,0E0,0E0,0E0,0E0,0E0,0E0,0E0,0E0,0E0,0E0,0E0,0E0,0E0,0E0],"parents":[2147483647,0,0,1,1,2,2,3,3,4,4,5,5,6,6,7,7,8,8,9,9,10,10,11,11,12,12,13,13,14,14],"right_children":[2,4,6,8,10,12,14,16,18,20,22,24,26,28,30,-1,-1,-1,-1,-1,-1,-1,-1,-1,-1,-1,-1,-1,-1,-1,-1],"split_conditions":[1.623957E-1,3.339485E0,2.427327E0,9.2149556E-1,4.0261946E0,1.3248425E0,3.7509627E0,1.1248935E0,1.0365891E0,2.8599656E0,3.7473466E0,3.326636E-1,3.866746E-1,1.8660164E0,2.5490975E0,-9.3025767E-4,-3.407649E-3,-6.365305E-3,1.8461918E-3,-7.6163253E-3,-8.89402E-3,-1.1232366E-2,-1.0642946E-2,1.7485818E-3,-2.129389E-3,4.425565E-3,8.989752E-4,5.2185273E-3,8.518794E-3,1.07943555E-2,1.24759525E-2],"split_indices":[64,56,1,56,35,1,1,79,47,90,56,56,25,64,68,0,0,0,0,0,0,0,0,0,0,0,0,0,0,0,0],"split_type":[0,0,0,0,0,0,0,0,0,0,0,0,0,0,0,0,0,0,0,0,0,0,0,0,0,0,0,0,0,0,0],"sum_hessian":[1.0396E4,4.391E3,6.005E3,2.403E3,1.988E3,2.996E3,3.009E3,5.88E2,1.815E3,8.93E2,1.095E3,1.252E3,1.744E3,2.066E3,9.43E2,2.6E2,3.28E2,1.774E3,4.1E1,5.1E1,8.42E2,4.5E1,1.05E3,5.73E2,6.79E2,1.404E3,3.4E2,6.15E2,1.451E3,2.07E2,7.36E2],"tree_param":{"num_deleted":"0","num_feature":"96","num_nodes":"31","size_leaf_vector":"1"}},{"base_weights":[-5.3450428E-2,-5.537663E-1,3.3037955E-1,-3.2672375E-1,-7.9196185E-1,1.5764245E-1,5.498651E-1,-2.0933962E-1,-4.2093384E-1,-6.6051227E-1,-8.822745E-1,-4.75E-2,2.2633696E-1,4.348643E-1,6.8655825E-1,-4.6345773E-3,5.346154E-3,-3.6262625E-3,-9.205105E-3,-1.3245727E-2,1.6363636E-3,-2.375E-3,-1.76974E-2,-3.8751625E-4,-6.148148E-3,5.4439786E-3,1.4616695E-3,5.969697E-3,9.886295E-3,1.3789021E-2,-3.1666665E-3],"categories":[],"categories_nodes":[],"categories_segments":[],"categories_sizes":[],"default_left":[0,0,0,0,0,0,0,0,0,0,0,0,0,0,0,0,0,0,0,0,0,0,0,0,0,0,0,0,0,0,0],"id":46,"left_children":[1,3,5,7,9,11,13,15,17,19,21,23,25,27,29,-1,-1,-1,-1,-1,-1,-1,-1,-1,-1,-1,-1,-1,-1,-1,-1],"loss_changes":[2.0026771E3,2.4212317E2,2.2282672E2,2.4878021E1,2.0159302E1,4.6869087E1,3.769519E1,1.1927956E1,1.1208893E1,1.8338623E0,1.3755493E0,6.0478945E0,1.7246452E1,1.0096191E1,3.9995728E0,0E0,0E0,0E0,0E0,0E0,0E0,0E0,0E0,0E0,0E0,0E0,0E0,0E0,0E0,0E0,0E0],"parents":[2147483647,0,0,1,1,2,2,3,3,4,4,5,5,6,6,7,7,8,8,9,9,10,10,11,11,12,12,13,13,14,14],"right_children":[2,4,6,8,10,12,14,16,18,20,22,24,26,28,30,-1,-1,-1,-1,-1,-1,-1,-1,-1,-1,-1,-1,-1,-1,-1,-1],"split_conditions":[5.4995495E-1,3.8620715E0,2.6590273E0,1.9705354E0,4.0144296E0,3.137005E-1,2.7302759E0,3.1481214E0,1.5677367E0,5.058525E0,3.1058474E0,1.9522601E0,7.888137E-1,1.8846551E0,7.3278755E-1,-3.220867E-3,5.031727E-3,-4.2491164E-3,-6.7744004E-3,-8.460633E-3,2.1385932E-3,-4.109536E-3,-1.0410739E-2,-2.8586804E-4,-5.3831805E-3,4.830935E-3,8.625708E-4,4.800233E-3,8.6745955E-3,1.1127762E-2,-1.787273E-2],"split_indices":[1,12,1,17,17,36,64,79,90,37,89,17,17,64,40,0,0,0,0,0,0,0,0,0,0,0,0,0,0,0,0],"split_type":[0,0,0,0,0,0,0,0,0,0,0,0,0,0,0,0,0,0,0,0,0,0,0,0,0,0,0,0,0,0,0],"sum_hessian":[1.0409E4,4.517E3,5.892E3,2.325E3,2.192E3,3.307E3,2.585E3,1.05E3,1.275E3,9.27E2,1.265E3,8.3E2,2.477E3,1.427E3,1.158E3,1.008E3,4.2E1,1.88E2,1.087E3,9.26E2,1E0,6E0,1.259E3,7.59E2,7.1E1,1.9E3,5.77E2,4.52E2,9.75E2,1.156E3,2E0],"tree_param":{"num_deleted":"0","num_feature":"96","num_nodes":"31","size_leaf_vector":"1"}},{"base_weights":[-4.8841476E-2,-5.5969554E-1,3.0893737E-1,-3.0371264E-1,-7.977788E-1,6.874034E-2,4.8463067E-1,-1.04889974E-1,-3.5038805E-1,-6.8333334E-1,-8.9833623E-1,-7.0593014E-2,1.93782E-1,4.1359538E-1,7.383091E-1,-2.5642316E-3,7.1818177E-3,-8.164888E-3,-5.0733946E-3,-4.647059E-3,-1.3826666E-2,-4.333333E-3,-1.8022928E-2,-2.6598405E-3,1.6519336E-3,-4.808362E-4,4.9889907E-3,6.9584856E-3,1.0076855E-2,5.2105263E-3,1.5058984E-2],"categories":[],"categories_nodes":[],"categories_segments":[],"categories_sizes":[],"default_left":[0,0,0,0,0,0,0,0,0,0,0,0,0,0,0,0,0,0,0,0,0,0,0,0,0,0,0,0,0,0,0],"id":47,"left_children":[1,3,5,7,9,11,13,15,17,19,21,23,25,27,29,-1,-1,-1,-1,-1,-1,-1,-1,-1,-1,-1,-1,-1,-1,-1,-1],"loss_changes":[1.8949146E3,2.5770312E2,2.5695325E2,1.883397E1,1.9090576E1,4.523848E1,6.0262085E1,4.863008E0,8.271118E0,2.1761475E0,1.23413086E-1,1.1881878E1,1.6658367E1,1.4596436E1,3.2321167E0,0E0,0E0,0E0,0E0,0E0,0E0,0E0,0E0,0E0,0E0,0E0,0E0,0E0,0E0,0E0,0E0],"parents":[2147483647,0,0,1,1,2,2,3,3,4,4,5,5,6,6,7,7,8,8,9,9,10,10,11,11,12,12,13,13,14,14],"right_children":[2,4,6,8,10,12,14,16,18,20,22,24,26,28,30,-1,-1,-1,-1,-1,-1,-1,-1,-1,-1,-1,-1,-1,-1,-1,-1],"split_conditions":[7.81208E-1,3.8620715E0,2.1601908E0,8.505298E-1,4.130264E0,5.007111E-1,3.9255767E0,1.9000045E0,2.317764E-2,2.5149705E0,3.2002473E0,1.2907844E0,1.350592E0,2.9604812E0,2.2952347E0,-2.0036006E-3,7.647092E-3,-6.1109983E-3,-4.5622014E-3,-5.5959076E-3,-8.666971E-3,-4.9342397E-3,-1.0206216E-2,-2.094945E-3,9.810426E-4,-4.5737086E-4,4.045964E-3,5.719218E-3,8.401575E-3,7.847689E-3,1.249569E-2],"split_indices":[3,12,3,37,17,36,1,25,3,89,90,1,3,3,81,0,0,0,0,0,0,0,0,0,0,0,0,0,0,0,0],"split_type":[0,0,0,0,0,0,0,0,0,0,0,0,0,0,0,0,0,0,0,0,0,0,0,0,0,0,0,0,0,0,0],"sum_hessian":[1.0348E4,4.26E3,6.088E3,2.064E3,2.196E3,2.578E3,3.51E3,3.99E2,1.665E3,1.064E3,1.132E3,1.221E3,1.357E3,2.763E3,7.47E2,3.87E2,1.2E1,1.021E3,6.44E2,2.4E1,1.04E3,8E0,1.124E3,8.69E2,3.52E2,2.77E2,1.08E3,1.628E3,1.135E3,2.8E1,7.19E2],"tree_param":{"num_deleted":"0","num_feature":"96","num_nodes":"31","size_leaf_vector":"1"}},{"base_weights":[-6.169718E-2,-6.0629785E-1,2.8929025E-1,-3.6378348E-1,-7.952801E-1,4.3864917E-2,4.6869662E-1,-2.584668E-1,-4.5894396E-1,-6.718688E-1,-8.866247E-1,